<?xml version="1.0"?>
<MethodSetup Method="MLP::MLP_2x20_NGP">
  <GeneralInfo>
    <Info name="TMVA Release" value="4.2.1 [262657]"/>
    <Info name="ROOT Release" value="6.15/01 [397057]"/>
    <Info name="Creator" value="dmitry"/>
    <Info name="Date" value="Tue Jun 26 22:44:54 2018"/>
    <Info name="Host" value="Darwin Dmitrys-Air.lfytina2.metronetinc.net 17.5.0 Darwin Kernel Version 17.5.0: Fri Apr 13 19:32:32 PDT 2018; root:xnu-4570.51.2~1/RELEASE_X86_64 x86_64"/>
    <Info name="Dir" value="/Users/dmitry/Documents/HiggsToMuMu/Hmumu_ML"/>
    <Info name="Training events" value="15000"/>
    <Info name="TrainingTime" value="4.58379182e+02"/>
    <Info name="AnalysisType" value="Classification"/>
  </GeneralInfo>
  <Options>
    <Option name="NCycles" modified="Yes">600</Option>
    <Option name="HiddenLayers" modified="Yes">20,20</Option>
    <Option name="NeuronType" modified="Yes">tanh</Option>
    <Option name="RandomSeed" modified="No">1</Option>
    <Option name="EstimatorType" modified="No">CE</Option>
    <Option name="NeuronInputType" modified="No">sum</Option>
    <Option name="V" modified="Yes">False</Option>
    <Option name="VerbosityLevel" modified="No">Default</Option>
    <Option name="VarTransform" modified="Yes">N,G,P</Option>
    <Option name="H" modified="Yes">True</Option>
    <Option name="CreateMVAPdfs" modified="No">False</Option>
    <Option name="IgnoreNegWeightsInTraining" modified="No">False</Option>
    <Option name="TrainingMethod" modified="No">BP</Option>
    <Option name="LearningRate" modified="Yes">5.000000e-02</Option>
    <Option name="DecayRate" modified="Yes">1.000000e-05</Option>
    <Option name="TestRate" modified="Yes">5</Option>
    <Option name="EpochMonitoring" modified="No">False</Option>
    <Option name="Sampling" modified="No">1.000000e+00</Option>
    <Option name="SamplingEpoch" modified="No">1.000000e+00</Option>
    <Option name="SamplingImportance" modified="No">1.000000e+00</Option>
    <Option name="SamplingTraining" modified="No">True</Option>
    <Option name="SamplingTesting" modified="No">False</Option>
    <Option name="ResetStep" modified="No">50</Option>
    <Option name="Tau" modified="No">3.000000e+00</Option>
    <Option name="BPMode" modified="No">sequential</Option>
    <Option name="BatchSize" modified="No">-1</Option>
    <Option name="ConvergenceImprove" modified="No">1.000000e-30</Option>
    <Option name="ConvergenceTests" modified="No">-1</Option>
    <Option name="UseRegulator" modified="No">False</Option>
    <Option name="UpdateLimit" modified="No">10000</Option>
    <Option name="CalculateErrors" modified="No">False</Option>
    <Option name="WeightRange" modified="No">1.000000e+00</Option>
  </Options>
  <Variables NVar="9">
    <Variable VarIndex="0" Expression="muPairs.pt[0]" Label="muPairs.pt[0]" Title="Dimuon p_{T}[0]" Unit="GeV" Internal="muPairs.pt_0_" Type="F" Min="3.40282347e+38" Max="-3.40282347e+38"/>
    <Variable VarIndex="1" Expression="muPairs.dEta[0]" Label="muPairs.dEta[0]" Title="Dimuon |#delta#eta|[0]" Unit="" Internal="muPairs.dEta_0_" Type="F" Min="3.40282347e+38" Max="-3.40282347e+38"/>
    <Variable VarIndex="2" Expression="muPairs.dPhi[0]" Label="muPairs.dPhi[0]" Title="Dimuon |#delta#phi|[0]" Unit="" Internal="muPairs.dPhi_0_" Type="F" Min="3.40282347e+38" Max="-3.40282347e+38"/>
    <Variable VarIndex="3" Expression="muons.pt[0]" Label="muons.pt[0]" Title="Muon p_{T}[0]" Unit="GeV" Internal="muons.pt_0_" Type="F" Min="3.40282347e+38" Max="-3.40282347e+38"/>
    <Variable VarIndex="4" Expression="muons.pt[1]" Label="muons.pt[1]" Title="Muon p_{T}[1]" Unit="GeV" Internal="muons.pt_1_" Type="F" Min="3.40282347e+38" Max="-3.40282347e+38"/>
    <Variable VarIndex="5" Expression="muons.eta[0]" Label="muons.eta[0]" Title="Muon #eta[0]" Unit="" Internal="muons.eta_0_" Type="F" Min="3.40282347e+38" Max="-3.40282347e+38"/>
    <Variable VarIndex="6" Expression="muons.eta[1]" Label="muons.eta[1]" Title="Muon #eta[1]" Unit="" Internal="muons.eta_1_" Type="F" Min="3.40282347e+38" Max="-3.40282347e+38"/>
    <Variable VarIndex="7" Expression="muons.phi[0]" Label="muons.phi[0]" Title="Muon #phi[0]" Unit="" Internal="muons.phi_0_" Type="F" Min="3.40282347e+38" Max="-3.40282347e+38"/>
    <Variable VarIndex="8" Expression="muons.phi[1]" Label="muons.phi[1]" Title="Muon #phi[1]" Unit="" Internal="muons.phi_1_" Type="F" Min="3.40282347e+38" Max="-3.40282347e+38"/>
  </Variables>
  <Spectators NSpec="0"/>
  <Classes NClass="2">
    <Class Name="Background" Index="0"/>
    <Class Name="Signal" Index="1"/>
  </Classes>
  <Transformations NTransformations="3">
    <Transform Name="Normalize">
      <Selection>
        <Input NInputs="9">
          <Input Type="Variable" Label="muPairs.pt[0]" Expression="muPairs.pt[0]"/>
          <Input Type="Variable" Label="muPairs.dEta[0]" Expression="muPairs.dEta[0]"/>
          <Input Type="Variable" Label="muPairs.dPhi[0]" Expression="muPairs.dPhi[0]"/>
          <Input Type="Variable" Label="muons.pt[0]" Expression="muons.pt[0]"/>
          <Input Type="Variable" Label="muons.pt[1]" Expression="muons.pt[1]"/>
          <Input Type="Variable" Label="muons.eta[0]" Expression="muons.eta[0]"/>
          <Input Type="Variable" Label="muons.eta[1]" Expression="muons.eta[1]"/>
          <Input Type="Variable" Label="muons.phi[0]" Expression="muons.phi[0]"/>
          <Input Type="Variable" Label="muons.phi[1]" Expression="muons.phi[1]"/>
        </Input>
        <Output NOutputs="9">
          <Output Type="Variable" Label="muPairs.pt[0]" Expression="muPairs.pt[0]"/>
          <Output Type="Variable" Label="muPairs.dEta[0]" Expression="muPairs.dEta[0]"/>
          <Output Type="Variable" Label="muPairs.dPhi[0]" Expression="muPairs.dPhi[0]"/>
          <Output Type="Variable" Label="muons.pt[0]" Expression="muons.pt[0]"/>
          <Output Type="Variable" Label="muons.pt[1]" Expression="muons.pt[1]"/>
          <Output Type="Variable" Label="muons.eta[0]" Expression="muons.eta[0]"/>
          <Output Type="Variable" Label="muons.eta[1]" Expression="muons.eta[1]"/>
          <Output Type="Variable" Label="muons.phi[0]" Expression="muons.phi[0]"/>
          <Output Type="Variable" Label="muons.phi[1]" Expression="muons.phi[1]"/>
        </Output>
      </Selection>
      <Class ClassIndex="0">
        <Ranges>
          <Range Index="0" Min="1.1948723345994949e-01" Max="5.2596801757812500e+02"/>
          <Range Index="1" Min="-4.4004235267639160e+00" Max="4.1731429100036621e+00"/>
          <Range Index="2" Min="-3.1415195465087891e+00" Max="3.1415195465087891e+00"/>
          <Range Index="3" Min="1.3127086639404297e+01" Max="4.4821414184570312e+02"/>
          <Range Index="4" Min="1.0084737777709961e+01" Max="2.9292221069335938e+02"/>
          <Range Index="5" Min="-2.3987793922424316e+00" Max="2.3998091220855713e+00"/>
          <Range Index="6" Min="-2.3999180793762207e+00" Max="2.3989312648773193e+00"/>
          <Range Index="7" Min="-3.1412477493286133e+00" Max="3.1383240222930908e+00"/>
          <Range Index="8" Min="-3.1414752006530762e+00" Max="3.1405816078186035e+00"/>
        </Ranges>
      </Class>
      <Class ClassIndex="1">
        <Ranges>
          <Range Index="0" Min="7.8381967544555664e-01" Max="6.7810150146484375e+02"/>
          <Range Index="1" Min="-4.3630990982055664e+00" Max="4.4555091857910156e+00"/>
          <Range Index="2" Min="-3.1415753364562988e+00" Max="3.1415233612060547e+00"/>
          <Range Index="3" Min="1.4287691116333008e+01" Max="6.4346777343750000e+02"/>
          <Range Index="4" Min="1.0032287597656250e+01" Max="2.7703802490234375e+02"/>
          <Range Index="5" Min="-2.3995349407196045e+00" Max="2.3999423980712891e+00"/>
          <Range Index="6" Min="-2.3996980190277100e+00" Max="2.3986101150512695e+00"/>
          <Range Index="7" Min="-3.1409533023834229e+00" Max="3.1415891647338867e+00"/>
          <Range Index="8" Min="-3.1414504051208496e+00" Max="3.1413452625274658e+00"/>
        </Ranges>
      </Class>
      <Class ClassIndex="2">
        <Ranges>
          <Range Index="0" Min="1.1948723345994949e-01" Max="6.7810150146484375e+02"/>
          <Range Index="1" Min="-4.4004235267639160e+00" Max="4.4555091857910156e+00"/>
          <Range Index="2" Min="-3.1415753364562988e+00" Max="3.1415233612060547e+00"/>
          <Range Index="3" Min="1.3127086639404297e+01" Max="6.4346777343750000e+02"/>
          <Range Index="4" Min="1.0032287597656250e+01" Max="2.9292221069335938e+02"/>
          <Range Index="5" Min="-2.3995349407196045e+00" Max="2.3999423980712891e+00"/>
          <Range Index="6" Min="-2.3999180793762207e+00" Max="2.3989312648773193e+00"/>
          <Range Index="7" Min="-3.1412477493286133e+00" Max="3.1415891647338867e+00"/>
          <Range Index="8" Min="-3.1414752006530762e+00" Max="3.1413452625274658e+00"/>
        </Ranges>
      </Class>
    </Transform>
    <Transform Name="Gauss" FlatOrGauss="Gauss">
      <Selection>
        <Input NInputs="9">
          <Input Type="Variable" Label="muPairs.pt[0]" Expression="muPairs.pt[0]"/>
          <Input Type="Variable" Label="muPairs.dEta[0]" Expression="muPairs.dEta[0]"/>
          <Input Type="Variable" Label="muPairs.dPhi[0]" Expression="muPairs.dPhi[0]"/>
          <Input Type="Variable" Label="muons.pt[0]" Expression="muons.pt[0]"/>
          <Input Type="Variable" Label="muons.pt[1]" Expression="muons.pt[1]"/>
          <Input Type="Variable" Label="muons.eta[0]" Expression="muons.eta[0]"/>
          <Input Type="Variable" Label="muons.eta[1]" Expression="muons.eta[1]"/>
          <Input Type="Variable" Label="muons.phi[0]" Expression="muons.phi[0]"/>
          <Input Type="Variable" Label="muons.phi[1]" Expression="muons.phi[1]"/>
        </Input>
        <Output NOutputs="9">
          <Output Type="Variable" Label="muPairs.pt[0]" Expression="muPairs.pt[0]"/>
          <Output Type="Variable" Label="muPairs.dEta[0]" Expression="muPairs.dEta[0]"/>
          <Output Type="Variable" Label="muPairs.dPhi[0]" Expression="muPairs.dPhi[0]"/>
          <Output Type="Variable" Label="muons.pt[0]" Expression="muons.pt[0]"/>
          <Output Type="Variable" Label="muons.pt[1]" Expression="muons.pt[1]"/>
          <Output Type="Variable" Label="muons.eta[0]" Expression="muons.eta[0]"/>
          <Output Type="Variable" Label="muons.eta[1]" Expression="muons.eta[1]"/>
          <Output Type="Variable" Label="muons.phi[0]" Expression="muons.phi[0]"/>
          <Output Type="Variable" Label="muons.phi[1]" Expression="muons.phi[1]"/>
        </Output>
      </Selection>
      <Variable VarIndex="0">
        <CumulativePDF_cls0>
          <PDF Name="GaussTransform var0 cls0" MinNSmooth="0" MaxNSmooth="0" InterpolMethod="1" KDE_type="0" KDE_iter="1" KDE_border="1" KDE_finefactor="0.0000000000000000e+00">
            <Histogram Name="Cumulative_Var0_cls0_original" NBins="501" XMin="-1.0001000165939331e+00" XMax="5.5121684074401855e-01" HasEquidistantBins="0">
              1.44818972e-03 3.24594253e-03 5.23096137e-03 7.24094873e-03 9.23845172e-03 1.12359552e-02 1.32334586e-02 1.52309611e-02 1.72284637e-02 1.92259680e-02 2.12234706e-02 2.32209731e-02 2.52184775e-02 2.72159800e-02 2.92134825e-02 3.12109869e-02 3.32084894e-02 3.52059938e-02 3.72034945e-02 3.92009988e-02 4.11985032e-02 4.31960039e-02 4.51935083e-02 4.71910127e-02 4.91885133e-02 5.11860177e-02 5.31835221e-02 5.51810227e-02 5.71785271e-02 5.91760315e-02 6.11735322e-02 6.31710365e-02 6.51685372e-02 6.71660453e-02 6.91635460e-02 7.11610466e-02 7.31585547e-02 7.51560554e-02 7.71535560e-02 7.91510642e-02 8.11485648e-02 8.31460655e-02 8.51435736e-02 8.71410742e-02 8.91385749e-02 9.11360830e-02 9.31335837e-02 9.51310843e-02 9.71285924e-02 9.91260931e-02 1.01123594e-01 1.03121102e-01 1.05118603e-01 1.07116103e-01 1.09113611e-01 1.11111112e-01 1.13108613e-01 1.15106121e-01 1.17103621e-01 1.19101122e-01 1.21098630e-01 1.23096131e-01 1.25093639e-01 1.27091140e-01 1.29088640e-01 1.31086141e-01 1.33083642e-01 1.35081142e-01 1.37078658e-01 1.39076158e-01 1.41073659e-01 1.43071160e-01 1.45068660e-01 1.47066161e-01 1.49063677e-01 1.51061177e-01 1.53058678e-01 1.55056179e-01 1.57053679e-01 1.59051180e-01 1.61048695e-01 1.63046196e-01 1.65043697e-01 1.67041197e-01 1.69038698e-01 1.71036199e-01 1.73033714e-01 1.75031215e-01 1.77028716e-01 1.79026216e-01 1.81023717e-01 1.83021218e-01 1.85018733e-01 1.87016234e-01 1.89013734e-01 1.91011235e-01 1.93008736e-01 1.95006236e-01 1.97003752e-01 1.99001253e-01 2.00998753e-01 2.02996254e-01 2.04993755e-01 2.06991255e-01 2.08988771e-01 2.10986272e-01 2.12983772e-01 2.14981273e-01 2.16978773e-01 2.18976274e-01 2.20973790e-01 2.22971290e-01 2.24968791e-01 2.26966292e-01 2.28963792e-01 2.30961293e-01 2.32958809e-01 2.34956309e-01 2.36953810e-01 2.38951311e-01 2.40948811e-01 2.42946312e-01 2.44943827e-01 2.46941328e-01 2.48938829e-01 2.50936329e-01 2.52933830e-01 2.54931331e-01 2.56928831e-01 2.58926332e-01 2.60923833e-01 2.62921363e-01 2.64918864e-01 2.66916364e-01 2.68913865e-01 2.70911366e-01 2.72908866e-01 2.74906367e-01 2.76903868e-01 2.78901368e-01 2.80898869e-01 2.82896370e-01 2.84893870e-01 2.86891371e-01 2.88888901e-01 2.90886402e-01 2.92883903e-01 2.94881403e-01 2.96878904e-01 2.98876405e-01 3.00873905e-01 3.02871406e-01 3.04868907e-01 3.06866407e-01 3.08863908e-01 3.10861409e-01 3.12858939e-01 3.14856440e-01 3.16853940e-01 3.18851441e-01 3.20848942e-01 3.22846442e-01 3.24843943e-01 3.26841444e-01 3.28838944e-01 3.30836445e-01 3.32833946e-01 3.34831446e-01 3.36828977e-01 3.38826478e-01 3.40823978e-01 3.42821479e-01 3.44818980e-01 3.46816480e-01 3.48813981e-01 3.50811481e-01 3.52808982e-01 3.54806483e-01 3.56803983e-01 3.58801484e-01 3.60799015e-01 3.62796515e-01 3.64794016e-01 3.66791517e-01 3.68789017e-01 3.70786518e-01 3.72784019e-01 3.74781519e-01 3.76779020e-01 3.78776520e-01 3.80774021e-01 3.82771522e-01 3.84769052e-01 3.86766553e-01 3.88764054e-01 3.90761554e-01 3.92759055e-01 3.94756556e-01 3.96754056e-01 3.98751557e-01 4.00749058e-01 4.02746558e-01 4.04744059e-01 4.06741560e-01 4.08739090e-01 4.10736591e-01 4.12734091e-01 4.14731592e-01 4.16729093e-01 4.18726593e-01 4.20724094e-01 4.22721595e-01 4.24719095e-01 4.26716596e-01 4.28714097e-01 4.30711597e-01 4.32709128e-01 4.34706628e-01 4.36704129e-01 4.38701630e-01 4.40699130e-01 4.42696631e-01 4.44694132e-01 4.46691632e-01 4.48689133e-01 4.50686634e-01 4.52684134e-01 4.54681635e-01 4.56679165e-01 4.58676666e-01 4.60674167e-01 4.62671667e-01 4.64669168e-01 4.66666669e-01 4.68664169e-01 4.70661670e-01 4.72659171e-01 4.74656671e-01 4.76654172e-01 4.78651673e-01 4.80649203e-01 4.82646704e-01 4.84644204e-01 4.86641705e-01 4.88639206e-01 4.90636706e-01 4.92634207e-01 4.94631708e-01 4.96629208e-01 4.98626709e-01 5.00624239e-01 5.02621710e-01 5.04619241e-01 5.06616712e-01 5.08614242e-01 5.10611713e-01 5.12609243e-01 5.14606714e-01 5.16604245e-01 5.18601775e-01 5.20599246e-01 5.22596776e-01 5.24594247e-01 5.26591778e-01 5.28589249e-01 5.30586779e-01 5.32584250e-01 5.34581780e-01 5.36579251e-01 5.38576782e-01 5.40574253e-01 5.42571783e-01 5.44569314e-01 5.46566784e-01 5.48564315e-01 5.50561786e-01 5.52559316e-01 5.54556787e-01 5.56554317e-01 5.58551788e-01 5.60549319e-01 5.62546790e-01 5.64544320e-01 5.66541851e-01 5.68539321e-01 5.70536852e-01 5.72534323e-01 5.74531853e-01 5.76529324e-01 5.78526855e-01 5.80524325e-01 5.82521856e-01 5.84519327e-01 5.86516857e-01 5.88514328e-01 5.90511858e-01 5.92509389e-01 5.94506860e-01 5.96504390e-01 5.98501861e-01 6.00499392e-01 6.02496862e-01 6.04494393e-01 6.06491864e-01 6.08489394e-01 6.10486865e-01 6.12484396e-01 6.14481926e-01 6.16479397e-01 6.18476927e-01 6.20474398e-01 6.22471929e-01 6.24469399e-01 6.26466930e-01 6.28464401e-01 6.30461931e-01 6.32459402e-01 6.34456933e-01 6.36454403e-01 6.38451934e-01 6.40449464e-01 6.42446935e-01 6.44444466e-01 6.46441936e-01 6.48439467e-01 6.50436938e-01 6.52434468e-01 6.54431939e-01 6.56429470e-01 6.58426940e-01 6.60424471e-01 6.62422001e-01 6.64419472e-01 6.66417003e-01 6.68414474e-01 6.70412004e-01 6.72409475e-01 6.74407005e-01 6.76404476e-01 6.78402007e-01 6.80399477e-01 6.82397008e-01 6.84394479e-01 6.86392009e-01 6.88389540e-01 6.90387011e-01 6.92384541e-01 6.94382012e-01 6.96379542e-01 6.98377013e-01 7.00374544e-01 7.02372015e-01 7.04369545e-01 7.06367016e-01 7.08364546e-01 7.10362077e-01 7.12359548e-01 7.14357078e-01 7.16354549e-01 7.18352079e-01 7.20349550e-01 7.22347081e-01 7.24344552e-01 7.26342082e-01 7.28339553e-01 7.30337083e-01 7.32334554e-01 7.34332085e-01 7.36329615e-01 7.38327086e-01 7.40324616e-01 7.42322087e-01 7.44319618e-01 7.46317089e-01 7.48314619e-01 7.50312090e-01 7.52309620e-01 7.54307091e-01 7.56304622e-01 7.58302093e-01 7.60299623e-01 7.62297153e-01 7.64294624e-01 7.66292155e-01 7.68289626e-01 7.70287156e-01 7.72284627e-01 7.74282157e-01 7.76279628e-01 7.78277159e-01 7.80274630e-01 7.82272160e-01 7.84269691e-01 7.86267161e-01 7.88264692e-01 7.90262163e-01 7.92259693e-01 7.94257164e-01 7.96254694e-01 7.98252165e-01 8.00249696e-01 8.02247167e-01 8.04244697e-01 8.06242168e-01 8.08239698e-01 8.10237229e-01 8.12234700e-01 8.14232230e-01 8.16229701e-01 8.18227232e-01 8.20224702e-01 8.22222233e-01 8.24219704e-01 8.26217234e-01 8.28214705e-01 8.30212235e-01 8.32209766e-01 8.34207237e-01 8.36204767e-01 8.38202238e-01 8.40199769e-01 8.42197239e-01 8.44194770e-01 8.46192241e-01 8.48189771e-01 8.50187242e-01 8.52184772e-01 8.54182243e-01 8.56179774e-01 8.58177304e-01 8.60174775e-01 8.62172306e-01 8.64169776e-01 8.66167307e-01 8.68164778e-01 8.70162308e-01 8.72159779e-01 8.74157310e-01 8.76154780e-01 8.78152311e-01 8.80149841e-01 8.82147312e-01 8.84144843e-01 8.86142313e-01 8.88139844e-01 8.90137315e-01 8.92134845e-01 8.94132316e-01 8.96129847e-01 8.98127317e-01 9.00124848e-01 9.02122319e-01 9.04119849e-01 9.06117380e-01 9.08114851e-01 9.10112381e-01 9.12109852e-01 9.14107382e-01 9.16104853e-01 9.18102384e-01 9.20099854e-01 9.22097385e-01 9.24094856e-01 9.26092386e-01 9.28089917e-01 9.30087388e-01 9.32084918e-01 9.34082389e-01 9.36079919e-01 9.38077390e-01 9.40074921e-01 9.42072392e-01 9.44069922e-01 9.46067393e-01 9.48064923e-01 9.50062394e-01 9.52059925e-01 9.54057455e-01 9.56054926e-01 9.58052456e-01 9.60049927e-01 9.62047458e-01 9.64044929e-01 9.66042459e-01 9.68039930e-01 9.70037460e-01 9.72034931e-01 9.74032462e-01 9.76029992e-01 9.78027463e-01 9.80024993e-01 9.82022464e-01 9.84019995e-01 9.86017466e-01 9.88014996e-01 9.90012467e-01 9.92009997e-01 9.94007468e-01 9.96004999e-01 9.98002470e-01 1.00000000e+00 
            </Histogram>
            <HistogramBinning NBins="501">
              -1.00010002e+00 -1.00000000e+00 -9.98853564e-01 -9.98151898e-01 -9.97822046e-01 -9.97413158e-01 -9.97036695e-01 -9.96354699e-01 -9.96027648e-01 -9.95641887e-01 -9.95268047e-01 -9.94892180e-01 -9.94687438e-01 -9.94419575e-01 -9.94087100e-01 -9.93856251e-01 -9.93440211e-01 -9.93192613e-01 -9.93016124e-01 -9.92782831e-01 -9.92666721e-01 -9.92402911e-01 -9.92164850e-01 -9.91963148e-01 -9.91739213e-01 -9.91490781e-01 -9.91365492e-01 -9.91199076e-01 -9.90943909e-01 -9.90534723e-01 -9.90269661e-01 -9.90093887e-01 -9.89945889e-01 -9.89651442e-01 -9.89423037e-01 -9.89277124e-01 -9.89098012e-01 -9.88950431e-01 -9.88778889e-01 -9.88606274e-01 -9.88301575e-01 -9.87973392e-01 -9.87743020e-01 -9.87499833e-01 -9.87356365e-01 -9.87289250e-01 -9.87152278e-01 -9.87014472e-01 -9.86837089e-01 -9.86727417e-01 -9.86481249e-01 -9.86153066e-01 -9.85907733e-01 -9.85768795e-01 -9.85605478e-01 -9.85448480e-01 -9.85282123e-01 -9.84994292e-01 -9.84757602e-01 -9.84489262e-01 -9.84203398e-01 -9.83949125e-01 -9.83716130e-01 -9.83500957e-01 -9.83206391e-01 -9.83002305e-01 -9.82809842e-01 -9.82671320e-01 -9.82466459e-01 -9.82238054e-01 -9.81934845e-01 -9.81800795e-01 -9.81579542e-01 -9.81404185e-01 -9.81189907e-01 -9.80911613e-01 -9.80634868e-01 -9.80413616e-01 -9.80190098e-01 -9.79982078e-01 -9.79834974e-01 -9.79681373e-01 -9.79500830e-01 -9.79242265e-01 -9.78894532e-01 -9.78535771e-01 -9.78302181e-01 -9.78129566e-01 -9.77903664e-01 -9.77732539e-01 -9.77565825e-01 -9.77373600e-01 -9.77183759e-01 -9.76960123e-01 -9.76789832e-01 -9.76575434e-01 -9.76460934e-01 -9.76266563e-01 -9.76053536e-01 -9.75828290e-01 -9.75504875e-01 -9.75113571e-01 -9.74882305e-01 -9.74723518e-01 -9.74525869e-01 -9.74269390e-01 -9.74108756e-01 -9.73748147e-01 -9.73622441e-01 -9.73350942e-01 -9.73115206e-01 -9.72904146e-01 -9.72755551e-01 -9.72617090e-01 -9.72417474e-01 -9.72274959e-01 -9.72059369e-01 -9.71796393e-01 -9.71514225e-01 -9.71241415e-01 -9.70896959e-01 -9.70624924e-01 -9.70403194e-01 -9.70286667e-01 -9.70118761e-01 -9.69726026e-01 -9.69443500e-01 -9.69109058e-01 -9.68860805e-01 -9.68589127e-01 -9.68256533e-01 -9.68074262e-01 -9.67823684e-01 -9.67493355e-01 -9.67248023e-01 -9.67145205e-01 -9.66851830e-01 -9.66654599e-01 -9.66496289e-01 -9.66226697e-01 -9.66056466e-01 -9.65945184e-01 -9.65544581e-01 -9.65245008e-01 -9.64954376e-01 -9.64778006e-01 -9.64556515e-01 -9.64424968e-01 -9.64181662e-01 -9.63820517e-01 -9.63542163e-01 -9.63135481e-01 -9.62817252e-01 -9.62648273e-01 -9.62418914e-01 -9.62160826e-01 -9.61729109e-01 -9.61263359e-01 -9.61023808e-01 -9.60714638e-01 -9.60358560e-01 -9.59988475e-01 -9.59523082e-01 -9.59315717e-01 -9.59096193e-01 -9.58906829e-01 -9.58649457e-01 -9.58396912e-01 -9.58199799e-01 -9.58038449e-01 -9.57845151e-01 -9.57493126e-01 -9.57313299e-01 -9.57013249e-01 -9.56709087e-01 -9.56532300e-01 -9.56236005e-01 -9.55824256e-01 -9.55626547e-01 -9.55316782e-01 -9.55115795e-01 -9.54845071e-01 -9.54602122e-01 -9.54411209e-01 -9.54151511e-01 -9.53781664e-01 -9.53542233e-01 -9.53299224e-01 -9.53048706e-01 -9.52766359e-01 -9.52534795e-01 -9.52330053e-01 -9.52084720e-01 -9.51769650e-01 -9.51369166e-01 -9.51145887e-01 -9.50806379e-01 -9.50433731e-01 -9.50030267e-01 -9.49733198e-01 -9.49442685e-01 -9.49089050e-01 -9.48593318e-01 -9.48387921e-01 -9.48100090e-01 -9.47690427e-01 -9.47389603e-01 -9.46960866e-01 -9.46529031e-01 -9.46324170e-01 -9.45886672e-01 -9.45390582e-01 -9.44834173e-01 -9.44499850e-01 -9.44262862e-01 -9.44027483e-01 -9.43766534e-01 -9.43288147e-01 -9.42920208e-01 -9.42676067e-01 -9.42385793e-01 -9.41871047e-01 -9.41369832e-01 -9.41070795e-01 -9.40606177e-01 -9.40074623e-01 -9.39540684e-01 -9.39277291e-01 -9.38998461e-01 -9.38358426e-01 -9.37899888e-01 -9.37616110e-01 -9.37204897e-01 -9.36962247e-01 -9.36671257e-01 -9.36278522e-01 -9.35921490e-01 -9.35544014e-01 -9.35283661e-01 -9.34841692e-01 -9.34399605e-01 -9.34090853e-01 -9.33655858e-01 -9.33054090e-01 -9.32705998e-01 -9.32170749e-01 -9.31492627e-01 -9.31104898e-01 -9.30797875e-01 -9.30346191e-01 -9.29902732e-01 -9.29432631e-01 -9.29007590e-01 -9.28400934e-01 -9.27872002e-01 -9.27248895e-01 -9.26839411e-01 -9.26228225e-01 -9.25926149e-01 -9.25625861e-01 -9.25241470e-01 -9.24910724e-01 -9.24694061e-01 -9.24341083e-01 -9.23932016e-01 -9.23545897e-01 -9.23025370e-01 -9.22613144e-01 -9.22166526e-01 -9.21927810e-01 -9.21438217e-01 -9.21008408e-01 -9.20469165e-01 -9.20073092e-01 -9.19759035e-01 -9.19249892e-01 -9.18904603e-01 -9.18472230e-01 -9.17380333e-01 -9.16873157e-01 -9.16388869e-01 -9.16043639e-01 -9.15532708e-01 -9.14887905e-01 -9.14397717e-01 -9.14064229e-01 -9.13474023e-01 -9.13050175e-01 -9.12686169e-01 -9.12195981e-01 -9.11796868e-01 -9.11560297e-01 -9.11011159e-01 -9.10630047e-01 -9.10280228e-01 -9.09961104e-01 -9.09309864e-01 -9.08887386e-01 -9.08143938e-01 -9.07805979e-01 -9.07368362e-01 -9.07097995e-01 -9.06688333e-01 -9.06325579e-01 -9.05900180e-01 -9.05639172e-01 -9.05146837e-01 -9.04513597e-01 -9.04099226e-01 -9.03628111e-01 -9.03212667e-01 -9.02767599e-01 -9.02472734e-01 -9.02088523e-01 -9.01639104e-01 -9.00834918e-01 -9.00332451e-01 -8.99850726e-01 -8.99441838e-01 -8.99030328e-01 -8.98051977e-01 -8.97709370e-01 -8.97161841e-01 -8.96432757e-01 -8.95933390e-01 -8.95227075e-01 -8.94848824e-01 -8.94372404e-01 -8.94082665e-01 -8.93442988e-01 -8.92926216e-01 -8.92620146e-01 -8.92280221e-01 -8.91932666e-01 -8.91265333e-01 -8.90431821e-01 -8.89880776e-01 -8.89467597e-01 -8.88193786e-01 -8.87482941e-01 -8.86640191e-01 -8.85598302e-01 -8.84653330e-01 -8.84086728e-01 -8.83459270e-01 -8.82767439e-01 -8.82032156e-01 -8.81534100e-01 -8.80690217e-01 -8.79822731e-01 -8.79367530e-01 -8.78760576e-01 -8.78375351e-01 -8.77815366e-01 -8.77105296e-01 -8.75987768e-01 -8.74992371e-01 -8.73765349e-01 -8.73236299e-01 -8.72182846e-01 -8.71662855e-01 -8.70763540e-01 -8.70401025e-01 -8.69153738e-01 -8.68527174e-01 -8.67680609e-01 -8.67084444e-01 -8.66717160e-01 -8.66203308e-01 -8.65202248e-01 -8.64033997e-01 -8.63392830e-01 -8.61761630e-01 -8.60979378e-01 -8.59668195e-01 -8.58892024e-01 -8.58288169e-01 -8.57805789e-01 -8.57191265e-01 -8.56590569e-01 -8.56064439e-01 -8.55832517e-01 -8.54323983e-01 -8.53524804e-01 -8.52815568e-01 -8.51294637e-01 -8.50580037e-01 -8.49768281e-01 -8.48964512e-01 -8.48122239e-01 -8.46768975e-01 -8.45841467e-01 -8.44774604e-01 -8.43227327e-01 -8.42172265e-01 -8.41123343e-01 -8.40039730e-01 -8.39306474e-01 -8.38149846e-01 -8.37119937e-01 -8.36313665e-01 -8.35673630e-01 -8.34445477e-01 -8.32865834e-01 -8.31873715e-01 -8.30483556e-01 -8.29518080e-01 -8.27708006e-01 -8.26617539e-01 -8.25566173e-01 -8.24679732e-01 -8.24047685e-01 -8.22889984e-01 -8.22031021e-01 -8.20721507e-01 -8.18758965e-01 -8.15905571e-01 -8.14928532e-01 -8.13724518e-01 -8.13021958e-01 -8.11888754e-01 -8.11020255e-01 -8.09727788e-01 -8.08377147e-01 -8.06913733e-01 -8.05860519e-01 -8.04482281e-01 -8.01816583e-01 -8.00197363e-01 -7.99109221e-01 -7.96988010e-01 -7.95806110e-01 -7.94182420e-01 -7.93294728e-01 -7.91587114e-01 -7.90614843e-01 -7.87820756e-01 -7.85421848e-01 -7.83806622e-01 -7.81872332e-01 -7.80105591e-01 -7.78754115e-01 -7.74859846e-01 -7.73951411e-01 -7.71915615e-01 -7.69752622e-01 -7.67130136e-01 -7.64273643e-01 -7.62355089e-01 -7.60391831e-01 -7.57463336e-01 -7.55562067e-01 -7.53184795e-01 -7.49943495e-01 -7.43546724e-01 -7.40410268e-01 -7.36627758e-01 -7.34868348e-01 -7.31434107e-01 -7.27230012e-01 -7.24756241e-01 -7.21712828e-01 -7.19956160e-01 -7.15606153e-01 -7.11387038e-01 -7.06776142e-01 -7.03286648e-01 -7.01129138e-01 -6.95994735e-01 -6.90545440e-01 -6.87556863e-01 -6.85035944e-01 -6.75478280e-01 -6.70212269e-01 -6.66319489e-01 -6.61104798e-01 -6.52936935e-01 -6.48641527e-01 -6.41508460e-01 -6.34031296e-01 -6.30011797e-01 -6.21769547e-01 -6.10546231e-01 -6.02813482e-01 -5.97589016e-01 -5.92850804e-01 -5.85514843e-01 -5.75718164e-01 -5.65093398e-01 -5.50333738e-01 -5.36371827e-01 -5.19963026e-01 -4.99164164e-01 -4.82510507e-01 -4.58592534e-01 -4.34663951e-01 -4.02530611e-01 -3.60625207e-01 -3.17597151e-01 -2.66069055e-01 -1.15191102e-01 5.51216841e-01 
            </HistogramBinning>
          </PDF>
        </CumulativePDF_cls0>
        <CumulativePDF_cls1>
          <PDF Name="GaussTransform var0 cls1" MinNSmooth="0" MaxNSmooth="0" InterpolMethod="1" KDE_type="0" KDE_iter="1" KDE_border="1" KDE_finefactor="0.0000000000000000e+00">
            <Histogram Name="Cumulative_Var0_cls1_original" NBins="1733" XMin="-9.9814027547836304e-01" XMax="1.0000000000000000e+00" HasEquidistantBins="0">
              8.55430480e-05 4.68150043e-04 1.00989838e-03 1.57286564e-03 2.12522340e-03 2.67758127e-03 3.22993915e-03 3.78229679e-03 4.33465466e-03 4.88701230e-03 5.43937040e-03 5.99172805e-03 6.54408569e-03 7.09644379e-03 7.64880143e-03 8.20115954e-03 8.75351671e-03 9.30587482e-03 9.85823292e-03 1.04105901e-02 1.09629482e-02 1.15153063e-02 1.20676635e-02 1.26200216e-02 1.31723797e-02 1.37247369e-02 1.42770950e-02 1.48294531e-02 1.53818112e-02 1.59341693e-02 1.64865255e-02 1.70388836e-02 1.75912417e-02 1.81435999e-02 1.86959580e-02 1.92483161e-02 1.98006723e-02 2.03530304e-02 2.09053885e-02 2.14607399e-02 2.20230762e-02 2.25894023e-02 2.31517386e-02 2.37070899e-02 2.42594481e-02 2.48118062e-02 2.53641643e-02 2.59165205e-02 2.64688786e-02 2.70212367e-02 2.75735948e-02 2.81259529e-02 2.86783110e-02 2.92306691e-02 2.97830254e-02 3.03353835e-02 3.08877416e-02 3.14400978e-02 3.19924578e-02 3.25448141e-02 3.30971740e-02 3.36495303e-02 3.42018902e-02 3.47542465e-02 3.53066027e-02 3.58589627e-02 3.64113189e-02 3.69636789e-02 3.75160351e-02 3.80683914e-02 3.86207514e-02 3.91731076e-02 3.97254676e-02 4.02778238e-02 4.08301838e-02 4.13825400e-02 4.19348963e-02 4.24872562e-02 4.30396125e-02 4.35919724e-02 4.41443287e-02 4.46966849e-02 4.52490449e-02 4.58014011e-02 4.63537611e-02 4.69061173e-02 4.74584773e-02 4.80108336e-02 4.85631898e-02 4.91155498e-02 4.96679060e-02 5.02202660e-02 5.07726222e-02 5.13249822e-02 5.18773384e-02 5.24296947e-02 5.29820547e-02 5.35344109e-02 5.40867709e-02 5.46391271e-02 5.51914833e-02 5.57438433e-02 5.62961996e-02 5.68485595e-02 5.74009158e-02 5.79532757e-02 5.85056320e-02 5.90579882e-02 5.96103482e-02 6.01627044e-02 6.07150644e-02 6.12674206e-02 6.18197769e-02 6.23721369e-02 6.29280880e-02 6.34912178e-02 6.40579462e-02 6.46246746e-02 6.51878044e-02 6.57437593e-02 6.62961155e-02 6.68484718e-02 6.74008280e-02 6.79531917e-02 6.85055479e-02 6.90579042e-02 6.96102604e-02 7.01626167e-02 7.07149804e-02 7.12673366e-02 7.18196929e-02 7.23720491e-02 7.29244053e-02 7.34767690e-02 7.40291253e-02 7.45814815e-02 7.51338378e-02 7.56862015e-02 7.62385577e-02 7.67909139e-02 7.73432702e-02 7.78956264e-02 7.84479901e-02 7.90003464e-02 7.95527026e-02 8.01050588e-02 8.06574151e-02 8.12097788e-02 8.17621350e-02 8.23144913e-02 8.28668475e-02 8.34192038e-02 8.39715675e-02 8.45239237e-02 8.50762799e-02 8.56286362e-02 8.61809924e-02 8.67333561e-02 8.72857124e-02 8.78380686e-02 8.83904248e-02 8.89427885e-02 8.94951448e-02 9.00475010e-02 9.05998573e-02 9.11522135e-02 9.17045772e-02 9.22569335e-02 9.28092897e-02 9.33616459e-02 9.39140022e-02 9.44663659e-02 9.50187221e-02 9.55710784e-02 9.61234346e-02 9.66757908e-02 9.72281545e-02 9.77805108e-02 9.83328670e-02 9.88852233e-02 9.94411781e-02 1.00004308e-01 1.00571036e-01 1.01137765e-01 1.01704486e-01 1.02267623e-01 1.02823570e-01 1.03375934e-01 1.03928290e-01 1.04480647e-01 1.05033003e-01 1.05588354e-01 1.06150694e-01 1.06717020e-01 1.07279353e-01 1.07834704e-01 1.08387060e-01 1.08939424e-01 1.09491780e-01 1.10044137e-01 1.10596493e-01 1.11152448e-01 1.11715578e-01 1.12282306e-01 1.12849034e-01 1.13412164e-01 1.13968112e-01 1.14520475e-01 1.15072832e-01 1.15625188e-01 1.16177544e-01 1.16729908e-01 1.17282264e-01 1.17834620e-01 1.18386976e-01 1.18939333e-01 1.19491696e-01 1.20047644e-01 1.20611973e-01 1.21181093e-01 1.21745430e-01 1.22301377e-01 1.22853734e-01 1.23406090e-01 1.23958454e-01 1.24510810e-01 1.25063166e-01 1.25615522e-01 1.26167879e-01 1.26720235e-01 1.27272591e-01 1.27824962e-01 1.28377318e-01 1.28929675e-01 1.29485622e-01 1.30049646e-01 1.30619377e-01 1.31190285e-01 1.31756410e-01 1.32313266e-01 1.32865623e-01 1.33417979e-01 1.33970335e-01 1.34522691e-01 1.35075048e-01 1.35627419e-01 1.36179775e-01 1.36732131e-01 1.37284487e-01 1.37836844e-01 1.38389200e-01 1.38941556e-01 1.39493912e-01 1.40046269e-01 1.40602231e-01 1.41165361e-01 1.41732082e-01 1.42298818e-01 1.42865539e-01 1.43432260e-01 1.43998995e-01 1.44562125e-01 1.45118073e-01 1.45670429e-01 1.46222785e-01 1.46775141e-01 1.47327498e-01 1.47879869e-01 1.48432225e-01 1.48984581e-01 1.49536937e-01 1.50089294e-01 1.50641650e-01 1.51194006e-01 1.51746362e-01 1.52298719e-01 1.52851090e-01 1.53403446e-01 1.53955802e-01 1.54510409e-01 1.55070618e-01 1.55635327e-01 1.56200022e-01 1.56760246e-01 1.57314852e-01 1.57867208e-01 1.58419564e-01 1.58971921e-01 1.59524277e-01 1.60076633e-01 1.60628989e-01 1.61181346e-01 1.61733717e-01 1.62286073e-01 1.62842020e-01 1.63405150e-01 1.63971871e-01 1.64538607e-01 1.65105328e-01 1.65672049e-01 1.66238785e-01 1.66805506e-01 1.67368636e-01 1.67924598e-01 1.68476954e-01 1.69029310e-01 1.69581667e-01 1.70134023e-01 1.70686379e-01 1.71238735e-01 1.71794683e-01 1.72357827e-01 1.72924548e-01 1.73491269e-01 1.74058005e-01 1.74621135e-01 1.75177082e-01 1.75729439e-01 1.76281795e-01 1.76834166e-01 1.77386522e-01 1.77938879e-01 1.78491235e-01 1.79043591e-01 1.79595947e-01 1.80148304e-01 1.80700660e-01 1.81253016e-01 1.81805387e-01 1.82357743e-01 1.82910100e-01 1.83462456e-01 1.84014812e-01 1.84567168e-01 1.85119525e-01 1.85671881e-01 1.86224237e-01 1.86776593e-01 1.87328964e-01 1.87881321e-01 1.88433677e-01 1.88990220e-01 1.89556554e-01 1.90128461e-01 1.90694794e-01 1.91251338e-01 1.91803694e-01 1.92356050e-01 1.92908406e-01 1.93460777e-01 1.94013134e-01 1.94565490e-01 1.95117846e-01 1.95670202e-01 1.96222559e-01 1.96774915e-01 1.97330862e-01 1.97894007e-01 1.98460728e-01 1.99027449e-01 1.99594185e-01 2.00160906e-01 2.00724036e-01 2.01279998e-01 2.01832354e-01 2.02384710e-01 2.02937067e-01 2.03489423e-01 2.04041779e-01 2.04594135e-01 2.05146492e-01 2.05698848e-01 2.06251219e-01 2.06803575e-01 2.07355931e-01 2.07908288e-01 2.08460644e-01 2.09013000e-01 2.09565356e-01 2.10117713e-01 2.10670069e-01 2.11222425e-01 2.11774796e-01 2.12327152e-01 2.12883100e-01 2.13446230e-01 2.14013860e-01 2.14583278e-01 2.15153590e-01 2.15723917e-01 2.16289744e-01 2.16846585e-01 2.17398942e-01 2.17951298e-01 2.18503669e-01 2.19056025e-01 2.19608381e-01 2.20160738e-01 2.20713094e-01 2.21265450e-01 2.21817806e-01 2.22370163e-01 2.22922519e-01 2.23474890e-01 2.24027246e-01 2.24583194e-01 2.25146323e-01 2.25713044e-01 2.26279780e-01 2.26842910e-01 2.27398857e-01 2.27951214e-01 2.28503570e-01 2.29055941e-01 2.29608297e-01 2.30160654e-01 2.30713010e-01 2.31265366e-01 2.31817722e-01 2.32370079e-01 2.32922435e-01 2.33474791e-01 2.34027147e-01 2.34579518e-01 2.35131875e-01 2.35684231e-01 2.36236587e-01 2.36788943e-01 2.37341300e-01 2.37893656e-01 2.38446012e-01 2.39002421e-01 2.39568695e-01 2.40142599e-01 2.40716517e-01 2.41283238e-01 2.41839796e-01 2.42390499e-01 2.42944509e-01 2.43508235e-01 2.44077355e-01 2.44641691e-01 2.45197639e-01 2.45749995e-01 2.46302351e-01 2.46854708e-01 2.47407079e-01 2.47959435e-01 2.48511791e-01 2.49064147e-01 2.49620095e-01 2.50183225e-01 2.50749946e-01 2.51316667e-01 2.51883417e-01 2.52450138e-01 2.53016859e-01 2.53580004e-01 2.54135936e-01 2.54688293e-01 2.55240649e-01 2.55793005e-01 2.56345361e-01 2.56897748e-01 2.57450104e-01 2.58002460e-01 2.58554816e-01 2.59107172e-01 2.59659529e-01 2.60211885e-01 2.60764241e-01 2.61316597e-01 2.61868954e-01 2.62425363e-01 2.62991637e-01 2.63565540e-01 2.64139444e-01 2.64706165e-01 2.65262723e-01 2.65814483e-01 2.66370595e-01 2.66935378e-01 2.67504483e-01 2.68068820e-01 2.68624753e-01 2.69177139e-01 2.69729495e-01 2.70281851e-01 2.70834208e-01 2.71386564e-01 2.71942496e-01 2.72505641e-01 2.73072362e-01 2.73639083e-01 2.74205834e-01 2.74772555e-01 2.75339276e-01 2.75905997e-01 2.76469141e-01 2.77025074e-01 2.77577430e-01 2.78129786e-01 2.78682142e-01 2.79234499e-01 2.79794067e-01 2.80367970e-01 2.80949056e-01 2.81530142e-01 2.82111257e-01 2.82685161e-01 2.83244699e-01 2.83797055e-01 2.84349412e-01 2.84901768e-01 2.85457730e-01 2.86020845e-01 2.86587596e-01 2.87154317e-01 2.87721038e-01 2.88287759e-01 2.88850904e-01 2.89406836e-01 2.89959192e-01 2.90511578e-01 2.91068107e-01 2.91634232e-01 2.92205751e-01 2.92772472e-01 2.93329626e-01 2.93881983e-01 2.94437945e-01 2.95000583e-01 2.95565993e-01 2.96127439e-01 2.96682507e-01 2.97234863e-01 2.97787219e-01 2.98339576e-01 2.98891932e-01 2.99444288e-01 2.99996644e-01 3.00549001e-01 3.01101357e-01 3.01653713e-01 3.02206069e-01 3.02758425e-01 3.03310782e-01 3.03866744e-01 3.04429859e-01 3.04996610e-01 3.05563331e-01 3.06130052e-01 3.06697369e-01 3.07265908e-01 3.07831436e-01 3.08388561e-01 3.08940917e-01 3.09497476e-01 3.10061216e-01 3.10627937e-01 3.11194658e-01 3.11761379e-01 3.12321842e-01 3.12869698e-01 3.13420266e-01 3.13988775e-01 3.14557314e-01 3.15107852e-01 3.15658420e-01 3.16226959e-01 3.16805810e-01 3.17387432e-01 3.17969501e-01 3.18543345e-01 3.19102883e-01 3.19655240e-01 3.20211202e-01 3.20773840e-01 3.21339250e-01 3.21900696e-01 3.22455764e-01 3.23008120e-01 3.23560476e-01 3.24116409e-01 3.24679554e-01 3.25246274e-01 3.25812995e-01 3.26379716e-01 3.26946467e-01 3.27513188e-01 3.28079909e-01 3.28646630e-01 3.29213351e-01 3.29780102e-01 3.30346823e-01 3.30917120e-01 3.31494629e-01 3.32075715e-01 3.32656831e-01 3.33237916e-01 3.33819002e-01 3.34397405e-01 3.34970415e-01 3.35540742e-01 3.36111069e-01 3.36681396e-01 3.37247223e-01 3.37804049e-01 3.38356405e-01 3.38908762e-01 3.39464724e-01 3.40027869e-01 3.40594590e-01 3.41161311e-01 3.41728032e-01 3.42294753e-01 3.42861503e-01 3.43428224e-01 3.43994945e-01 3.44561666e-01 3.45128387e-01 3.45695108e-01 3.46261859e-01 3.46828580e-01 3.47395301e-01 3.47958446e-01 3.48514378e-01 3.49066734e-01 3.49619091e-01 3.50171447e-01 3.50723803e-01 3.51276159e-01 3.51828516e-01 3.52380902e-01 3.52939546e-01 3.53510737e-01 3.54086459e-01 3.54658574e-01 3.55228901e-01 3.55795324e-01 3.56352597e-01 3.56904507e-01 3.57461512e-01 3.58028978e-01 3.58601421e-01 3.59167844e-01 3.59724373e-01 3.60276729e-01 3.60829085e-01 3.61381441e-01 3.61937404e-01 3.62500548e-01 3.63067269e-01 3.63633990e-01 3.64200711e-01 3.64767432e-01 3.65334779e-01 3.65899712e-01 3.66456836e-01 3.67009193e-01 3.67566347e-01 3.68133664e-01 3.68707150e-01 3.69278044e-01 3.69843572e-01 3.70404333e-01 3.70959520e-01 3.71511877e-01 3.72064233e-01 3.72616589e-01 3.73172551e-01 3.73737484e-01 3.74309152e-01 3.74879926e-01 3.75446647e-01 3.76011580e-01 3.76576960e-01 3.77143234e-01 3.77709955e-01 3.78276676e-01 3.78843397e-01 3.79410118e-01 3.79976869e-01 3.80543590e-01 3.81110311e-01 3.81677032e-01 3.82243752e-01 3.82810503e-01 3.83377224e-01 3.83943945e-01 3.84510666e-01 3.85077387e-01 3.85640532e-01 3.86196464e-01 3.86748850e-01 3.87301207e-01 3.87853563e-01 3.88405919e-01 3.88958275e-01 3.89510632e-01 3.90062988e-01 3.90615344e-01 3.91171277e-01 3.91734421e-01 3.92301142e-01 3.92867863e-01 3.93434614e-01 3.94001335e-01 3.94568056e-01 3.95134777e-01 3.95701498e-01 3.96268249e-01 3.96834970e-01 3.97401690e-01 3.97968411e-01 3.98535132e-01 3.99101853e-01 3.99668604e-01 4.00235325e-01 4.00802642e-01 4.01367575e-01 4.01924729e-01 4.02477086e-01 4.03034240e-01 4.03599769e-01 4.04168278e-01 4.04735595e-01 4.05298740e-01 4.05854672e-01 4.06407058e-01 4.06959414e-01 4.07511771e-01 4.08064127e-01 4.08620059e-01 4.09183204e-01 4.09749925e-01 4.10316646e-01 4.10883367e-01 4.11450118e-01 4.12016839e-01 4.12583560e-01 4.13150281e-01 4.13713425e-01 4.14269358e-01 4.14821714e-01 4.15374100e-01 4.15933639e-01 4.16507542e-01 4.17089224e-01 4.17671531e-01 4.18253809e-01 4.18832511e-01 4.19402838e-01 4.19968367e-01 4.20538068e-01 4.21116769e-01 4.21700269e-01 4.22278970e-01 4.22849298e-01 4.23416018e-01 4.23983634e-01 4.24553365e-01 4.25124288e-01 4.25690413e-01 4.26247239e-01 4.26799625e-01 4.27351981e-01 4.27907914e-01 4.28478241e-01 4.29066509e-01 4.29661989e-01 4.30261046e-01 4.30867285e-01 4.31466341e-01 4.32043821e-01 4.32606965e-01 4.33162928e-01 4.33715284e-01 4.34267640e-01 4.34819996e-01 4.35372353e-01 4.35924709e-01 4.36477065e-01 4.37039435e-01 4.37625825e-01 4.38227981e-01 4.38821554e-01 4.39396501e-01 4.39963222e-01 4.40529972e-01 4.41096693e-01 4.41666394e-01 4.42243308e-01 4.42824394e-01 4.43400711e-01 4.43969220e-01 4.44535345e-01 4.45102990e-01 4.45672691e-01 4.46243614e-01 4.46813345e-01 4.47377384e-01 4.47933316e-01 4.48485672e-01 4.49038029e-01 4.49593991e-01 4.50157106e-01 4.50723857e-01 4.51290578e-01 4.51857299e-01 4.52424020e-01 4.52995241e-01 4.53576833e-01 4.54164028e-01 4.54744399e-01 4.55311835e-01 4.55872476e-01 4.56438690e-01 4.57015306e-01 4.57596391e-01 4.58177507e-01 4.58755016e-01 4.59325314e-01 4.59892035e-01 4.60458785e-01 4.61023688e-01 4.61584359e-01 4.62149531e-01 4.62733835e-01 4.63333726e-01 4.63930368e-01 4.64511454e-01 4.65079248e-01 4.65643138e-01 4.66212243e-01 4.66789752e-01 4.67370838e-01 4.67951924e-01 4.68529433e-01 4.69099760e-01 4.69666481e-01 4.70233202e-01 4.70799953e-01 4.71366674e-01 4.71933395e-01 4.72500116e-01 4.73066837e-01 4.73633558e-01 4.74200308e-01 4.74767029e-01 4.75330144e-01 4.75886106e-01 4.76438463e-01 4.76990819e-01 4.77543175e-01 4.78099138e-01 4.78670359e-01 4.79261607e-01 4.79861259e-01 4.80459720e-01 4.81052488e-01 4.81637180e-01 4.82218266e-01 4.82795775e-01 4.83366102e-01 4.83932823e-01 4.84499544e-01 4.85066265e-01 4.85630304e-01 4.86187905e-01 4.86741304e-01 4.87300694e-01 4.87872362e-01 4.88450319e-01 4.89032775e-01 4.89622831e-01 4.90216494e-01 4.90810186e-01 4.91405636e-01 4.92005140e-01 4.92605537e-01 4.93199199e-01 4.93783891e-01 4.94365007e-01 4.94946092e-01 4.95527178e-01 4.96108264e-01 4.96688485e-01 4.97266471e-01 4.97842878e-01 4.98423278e-01 4.99013364e-01 4.99608815e-01 5.00200093e-01 5.00784159e-01 5.01365244e-01 5.01942754e-01 5.02513111e-01 5.03079832e-01 5.03646553e-01 5.04209697e-01 5.04764438e-01 5.05314410e-01 5.05869150e-01 5.06432295e-01 5.06999016e-01 5.07565737e-01 5.08132458e-01 5.08699179e-01 5.09265900e-01 5.09832621e-01 5.10399342e-01 5.10966063e-01 5.11532843e-01 5.12099564e-01 5.12666285e-01 5.13245404e-01 5.13854146e-01 5.14481843e-01 5.15097737e-01 5.15689492e-01 5.16270578e-01 5.16851664e-01 5.17432749e-01 5.18013835e-01 5.18594980e-01 5.19180536e-01 5.19775093e-01 5.20374179e-01 5.20973206e-01 5.21572292e-01 5.22170424e-01 5.22766769e-01 5.23362279e-01 5.23950517e-01 5.24524450e-01 5.25091171e-01 5.25654316e-01 5.26210248e-01 5.26762605e-01 5.27314961e-01 5.27874529e-01 5.28448403e-01 5.29029489e-01 5.29610634e-01 5.30191720e-01 5.30772805e-01 5.31353891e-01 5.31934977e-01 5.32516062e-01 5.33097208e-01 5.33678293e-01 5.34259379e-01 5.34840465e-01 5.35417974e-01 5.35988271e-01 5.36554992e-01 5.37121713e-01 5.37688494e-01 5.38255215e-01 5.38821936e-01 5.39385080e-01 5.39941013e-01 5.40493369e-01 5.41045725e-01 5.41598082e-01 5.42154014e-01 5.42717159e-01 5.43283880e-01 5.43850601e-01 5.44417322e-01 5.44984043e-01 5.45550764e-01 5.46117544e-01 5.46681523e-01 5.47240198e-01 5.47802448e-01 5.48377216e-01 5.48956215e-01 5.49531043e-01 5.50107360e-01 5.50698042e-01 5.51307857e-01 5.51927865e-01 5.52541912e-01 5.53134680e-01 5.53706229e-01 5.54275215e-01 5.54854512e-01 5.55437386e-01 5.56018472e-01 5.56599557e-01 5.57184279e-01 5.57779729e-01 5.58387160e-01 5.58999360e-01 5.59606850e-01 5.60202301e-01 5.60783386e-01 5.61353683e-01 5.61920404e-01 5.62487125e-01 5.63057482e-01 5.63634992e-01 5.64216077e-01 5.64797163e-01 5.65378249e-01 5.65959334e-01 5.66540420e-01 5.67115247e-01 5.67675412e-01 5.68227172e-01 5.68787277e-01 5.69362104e-01 5.69943190e-01 5.70524275e-01 5.71101785e-01 5.71672142e-01 5.72238863e-01 5.72805583e-01 5.73372304e-01 5.73939025e-01 5.74505746e-01 5.75080872e-01 5.75675547e-01 5.76281369e-01 5.76876044e-01 5.77451110e-01 5.78017831e-01 5.78584611e-01 5.79158485e-01 5.79753935e-01 5.80373347e-01 5.81001461e-01 5.81618190e-01 5.82213640e-01 5.82791150e-01 5.83357871e-01 5.83921909e-01 5.84487736e-01 5.85054457e-01 5.85622549e-01 5.86191475e-01 5.86758196e-01 5.87324977e-01 5.87901354e-01 5.88492215e-01 5.89089096e-01 5.89680910e-01 5.90263963e-01 5.90841472e-01 5.91424942e-01 5.92025220e-01 5.92635036e-01 5.93235254e-01 5.93818784e-01 5.94395399e-01 5.94972551e-01 5.95554590e-01 5.96145570e-01 5.96741021e-01 5.97336471e-01 5.97933292e-01 5.98529756e-01 5.99121392e-01 5.99703014e-01 6.00270092e-01 6.00831151e-01 6.01405978e-01 6.02004409e-01 6.02615952e-01 6.03219986e-01 6.03808165e-01 6.04389250e-01 6.04970336e-01 6.05551422e-01 6.06136084e-01 6.06727958e-01 6.07323468e-01 6.07918918e-01 6.08514369e-01 6.09109819e-01 6.09705269e-01 6.10300779e-01 6.10896230e-01 6.11491680e-01 6.12083554e-01 6.12668216e-01 6.13249362e-01 6.13830447e-01 6.14411533e-01 6.14992619e-01 6.15573704e-01 6.16154790e-01 6.16735876e-01 6.17317021e-01 6.17898107e-01 6.18482769e-01 6.19074643e-01 6.19670093e-01 6.20265603e-01 6.20869994e-01 6.21492445e-01 6.22111261e-01 6.22704923e-01 6.23286009e-01 6.23867095e-01 6.24444604e-01 6.25014901e-01 6.25581622e-01 6.26148343e-01 6.26715124e-01 6.27281845e-01 6.27848566e-01 6.28415287e-01 6.28982008e-01 6.29548728e-01 6.30122662e-01 6.30710900e-01 6.31306350e-01 6.31901860e-01 6.32497311e-01 6.33092761e-01 6.33688211e-01 6.34283721e-01 6.34879172e-01 6.35476947e-01 6.36079967e-01 6.36685371e-01 6.37279093e-01 6.37847424e-01 6.38398826e-01 6.38956368e-01 6.39530122e-01 6.40112579e-01 6.40697658e-01 6.41282797e-01 6.41865253e-01 6.42446339e-01 6.43024623e-01 6.43596470e-01 6.44172728e-01 6.44770324e-01 6.45381391e-01 6.45976841e-01 6.46541774e-01 6.47089958e-01 6.47646189e-01 6.48219764e-01 6.48800910e-01 6.49381995e-01 6.49963081e-01 6.50544167e-01 6.51125252e-01 6.51706338e-01 6.52287424e-01 6.52871251e-01 6.53461337e-01 6.54051363e-01 6.54627085e-01 6.55185759e-01 6.55741692e-01 6.56311989e-01 6.56900287e-01 6.57495737e-01 6.58090293e-01 6.58683062e-01 6.59278572e-01 6.59881175e-01 6.60492837e-01 6.61115229e-01 6.61743164e-01 6.62371397e-01 6.62986636e-01 6.63568914e-01 6.64126098e-01 6.64687991e-01 6.65269077e-01 6.65857852e-01 6.66443586e-01 6.67027354e-01 6.67607248e-01 6.68178737e-01 6.68745518e-01 6.69317007e-01 6.69896901e-01 6.70479774e-01 6.71061516e-01 6.71642601e-01 6.72222912e-01 6.72800601e-01 6.73378706e-01 6.73968136e-01 6.74573183e-01 6.75183058e-01 6.75782859e-01 6.76369190e-01 6.76950276e-01 6.77531362e-01 6.78112447e-01 6.78693533e-01 6.79274619e-01 6.79855764e-01 6.80440426e-01 6.81032300e-01 6.81627750e-01 6.82223201e-01 6.82818711e-01 6.83414161e-01 6.84009612e-01 6.84605062e-01 6.85200512e-01 6.85796022e-01 6.86391473e-01 6.86986923e-01 6.87582374e-01 6.88177884e-01 6.88773334e-01 6.89368784e-01 6.89964235e-01 6.90559685e-01 6.91151559e-01 6.91736281e-01 6.92317367e-01 6.92898452e-01 6.93480909e-01 6.94066346e-01 6.94652975e-01 6.95232987e-01 6.95799291e-01 6.96355104e-01 6.96908474e-01 6.97469711e-01 6.98044479e-01 6.98625565e-01 6.99215531e-01 6.99826658e-01 7.00451910e-01 7.01070249e-01 7.01672733e-01 7.02268183e-01 7.02863693e-01 7.03459144e-01 7.04054594e-01 7.04650044e-01 7.05245554e-01 7.05841005e-01 7.06436455e-01 7.07028329e-01 7.07612991e-01 7.08194077e-01 7.08775222e-01 7.09356308e-01 7.09938288e-01 7.10522473e-01 7.11108267e-01 7.11690068e-01 7.12262154e-01 7.12828875e-01 7.13400424e-01 7.13980138e-01 7.14563370e-01 7.15146542e-01 7.15729594e-01 7.16312468e-01 7.16893554e-01 7.17471063e-01 7.18048573e-01 7.18632817e-01 7.19225109e-01 7.19824195e-01 7.20430434e-01 7.21040249e-01 7.21650958e-01 7.22263515e-01 7.22873330e-01 7.23475993e-01 7.24073231e-01 7.24675834e-01 7.25296557e-01 7.25925863e-01 7.26536691e-01 7.27118433e-01 7.27685153e-01 7.28251874e-01 7.28825748e-01 7.29408681e-01 7.30001867e-01 7.30608582e-01 7.31218398e-01 7.31821060e-01 7.32420087e-01 7.33014703e-01 7.33600259e-01 7.34181345e-01 7.34762430e-01 7.35352397e-01 7.35965371e-01 7.36599147e-01 7.37237692e-01 7.37864316e-01 7.38470554e-01 7.39064932e-01 7.39668071e-01 7.40291655e-01 7.40923643e-01 7.41543651e-01 7.42146254e-01 7.42741764e-01 7.43337214e-01 7.43932664e-01 7.44504631e-01 7.45019197e-01 7.45489299e-01 7.45959461e-01 7.46454120e-01 7.46974587e-01 7.47531295e-01 7.48112381e-01 7.48693466e-01 7.49290764e-01 7.49907732e-01 7.50531971e-01 7.51159728e-01 7.51787543e-01 7.52410829e-01 7.53025174e-01 7.53634989e-01 7.54244804e-01 7.54854679e-01 7.55464494e-01 7.56074309e-01 7.56686866e-01 7.57304788e-01 7.57916391e-01 7.58510053e-01 7.59101033e-01 7.59704590e-01 7.60314405e-01 7.60924220e-01 7.61534095e-01 7.62143910e-01 7.62753725e-01 7.63363540e-01 7.63973415e-01 7.64583230e-01 7.65190065e-01 7.65789747e-01 7.66385198e-01 7.66986012e-01 7.67596543e-01 7.68211067e-01 7.68824041e-01 7.69432187e-01 7.70033181e-01 7.70640016e-01 7.71273017e-01 7.71925747e-01 7.72570312e-01 7.73194492e-01 7.73809731e-01 7.74416506e-01 7.75002897e-01 7.75556386e-01 7.76068270e-01 7.76566625e-01 7.77106941e-01 7.77706683e-01 7.78330863e-01 7.78955102e-01 7.79579282e-01 7.80201256e-01 7.80818701e-01 7.81432569e-01 7.82061279e-01 7.82725871e-01 7.83404827e-01 7.84047902e-01 7.84638882e-01 7.85208285e-01 7.85779953e-01 7.86354303e-01 7.86929131e-01 7.87507534e-01 7.88105667e-01 7.88736165e-01 7.89383709e-01 7.90012419e-01 7.90597677e-01 7.91157126e-01 7.91724443e-01 7.92321682e-01 7.92949498e-01 7.93588042e-01 7.94226587e-01 7.94865191e-01 7.95498610e-01 7.96121836e-01 7.96750426e-01 7.97400057e-01 7.98045814e-01 7.98662841e-01 7.99260080e-01 7.99846590e-01 8.00427675e-01 8.01008761e-01 8.01589847e-01 8.02196085e-01 8.02852631e-01 8.03534329e-01 8.04215968e-01 8.04883301e-01 8.05514693e-01 8.06117296e-01 8.06712747e-01 8.07307661e-01 8.07898164e-01 8.08480859e-01 8.09059501e-01 8.09646606e-01 8.10249269e-01 8.10859084e-01 8.11468899e-01 8.12078774e-01 8.12695801e-01 8.13327134e-01 8.13965738e-01 8.14604282e-01 8.15242887e-01 8.15881431e-01 8.16519976e-01 8.17162156e-01 8.17810595e-01 8.18464458e-01 8.19127500e-01 8.19801569e-01 8.20482314e-01 8.21164489e-01 8.21845293e-01 8.22514832e-01 8.23163748e-01 8.23802292e-01 8.24437857e-01 8.25066447e-01 8.25691044e-01 8.26319635e-01 8.26955199e-01 8.27593803e-01 8.28235924e-01 8.28885317e-01 8.29538226e-01 8.30191135e-01 8.30829740e-01 8.31439555e-01 8.32035005e-01 8.32630515e-01 8.33225965e-01 8.33823502e-01 8.34425271e-01 8.35021913e-01 8.35602999e-01 8.36176336e-01 8.36762786e-01 8.37376237e-01 8.38014781e-01 8.38671327e-01 8.39327872e-01 8.39980781e-01 8.40648115e-01 8.41315389e-01 8.41944098e-01 8.42527866e-01 8.43098223e-01 8.43675733e-01 8.44263971e-01 8.44880998e-01 8.45533967e-01 8.46201241e-01 8.46868575e-01 8.47535849e-01 8.48191738e-01 8.48824859e-01 8.49411011e-01 8.49926114e-01 8.50405753e-01 8.50885332e-01 8.51393878e-01 8.51960361e-01 8.52555871e-01 8.53151321e-01 8.53753984e-01 8.54374349e-01 8.55007589e-01 8.55636418e-01 8.56235981e-01 8.56791019e-01 8.57327402e-01 8.57895553e-01 8.58513236e-01 8.59151781e-01 8.59797537e-01 8.60457659e-01 8.61124992e-01 8.61792266e-01 8.62455964e-01 8.63105357e-01 8.63736689e-01 8.64360929e-01 8.64985108e-01 8.65609288e-01 8.66233528e-01 8.66846025e-01 8.67431641e-01 8.67998362e-01 8.68561506e-01 8.69124651e-01 8.69706631e-01 8.70326340e-01 8.70968461e-01 8.71617854e-01 8.72270763e-01 8.72923732e-01 8.73576641e-01 8.74229550e-01 8.74882519e-01 8.75535429e-01 8.76177609e-01 8.76798213e-01 8.77408028e-01 8.78017902e-01 8.78627717e-01 8.79233956e-01 8.79832983e-01 8.80428493e-01 8.81021261e-01 8.81611347e-01 8.82205009e-01 8.82816613e-01 8.83456051e-01 8.84109676e-01 8.84764612e-01 8.85420203e-01 8.86082351e-01 8.86726320e-01 8.87300432e-01 8.87819052e-01 8.88351440e-01 8.88939381e-01 8.89565110e-01 8.90193403e-01 8.90817583e-01 8.91441762e-01 8.92074585e-01 8.92723978e-01 8.93370867e-01 8.93978477e-01 8.94538164e-01 8.95080328e-01 8.95614684e-01 8.96126628e-01 8.96628976e-01 8.97155285e-01 8.97714794e-01 8.98285687e-01 8.98861587e-01 8.99450541e-01 9.00045991e-01 9.00663018e-01 9.01329100e-01 9.02019203e-01 9.02670920e-01 9.03262794e-01 9.03829515e-01 9.04396236e-01 9.04991686e-01 9.05644655e-01 9.06326294e-01 9.07007992e-01 9.07686055e-01 9.08349812e-01 9.08995509e-01 9.09634113e-01 9.10272658e-01 9.10911262e-01 9.11549807e-01 9.12188351e-01 9.12837386e-01 9.13510263e-01 9.14195061e-01 9.14862037e-01 9.15500820e-01 9.16127682e-01 9.16754544e-01 9.17377174e-01 9.17991281e-01 9.18592989e-01 9.19188499e-01 9.19791996e-01 9.20398235e-01 9.21000898e-01 9.21603560e-01 9.22206223e-01 9.22801673e-01 9.23381567e-01 9.23954844e-01 9.24543738e-01 9.25157189e-01 9.25781369e-01 9.26405549e-01 9.27017391e-01 9.27597284e-01 9.28151250e-01 9.28690076e-01 9.29211140e-01 9.29723024e-01 9.30234969e-01 9.30746913e-01 9.31258798e-01 9.31770742e-01 9.32282686e-01 9.32794571e-01 9.33328152e-01 9.33904886e-01 9.34503257e-01 9.35101688e-01 9.35695767e-01 9.36281145e-01 9.36858654e-01 9.37428951e-01 9.37995732e-01 9.38562453e-01 9.39129174e-01 9.39695895e-01 9.40262616e-01 9.40843701e-01 9.41453516e-01 9.42077756e-01 9.42701936e-01 9.43326116e-01 9.43922281e-01 9.44462240e-01 9.44974184e-01 9.45486128e-01 9.46033299e-01 9.46650982e-01 9.47303891e-01 9.47956860e-01 9.48605061e-01 9.49217677e-01 9.49762821e-01 9.50266540e-01 9.50794578e-01 9.51375663e-01 9.51980531e-01 9.52604651e-01 9.53267157e-01 9.53948796e-01 9.54630494e-01 9.55312133e-01 9.55993831e-01 9.56671000e-01 9.57339227e-01 9.57971275e-01 9.58540022e-01 9.59077954e-01 9.59617734e-01 9.60158408e-01 9.60716367e-01 9.61316049e-01 9.61947441e-01 9.62586045e-01 9.63224590e-01 9.63863134e-01 9.64501739e-01 9.65134025e-01 9.65751648e-01 9.66360867e-01 9.66978490e-01 9.67610776e-01 9.68249321e-01 9.68887866e-01 9.69526470e-01 9.70154941e-01 9.70763147e-01 9.71361279e-01 9.71959412e-01 9.72557545e-01 9.73155677e-01 9.73763943e-01 9.74399567e-01 9.75059688e-01 9.75727022e-01 9.76394296e-01 9.77061629e-01 9.77729619e-01 9.78398919e-01 9.79041457e-01 9.79624629e-01 9.80175436e-01 9.80750501e-01 9.81370330e-01 9.82002854e-01 9.82616901e-01 9.83217418e-01 9.83832002e-01 9.84483421e-01 9.85155046e-01 9.85809028e-01 9.86432076e-01 9.87041950e-01 9.87651765e-01 9.88261580e-01 9.88871455e-01 9.89481270e-01 9.90076721e-01 9.90636945e-01 9.91169751e-01 9.91696060e-01 9.92222309e-01 9.92748618e-01 9.93274927e-01 9.93836462e-01 9.94468510e-01 9.95135784e-01 9.95803118e-01 9.96431112e-01 9.96980548e-01 9.97491121e-01 9.98003483e-01 9.98518109e-01 9.99030054e-01 9.99527574e-01 1.00000000e+00 
            </Histogram>
            <HistogramBinning NBins="1733">
              -9.98140275e-01 -9.98040259e-01 -9.97595727e-01 -9.97036397e-01 -9.96387899e-01 -9.96018350e-01 -9.95805383e-01 -9.94975269e-01 -9.94750082e-01 -9.94404554e-01 -9.94228661e-01 -9.93943751e-01 -9.93802965e-01 -9.93396938e-01 -9.93340492e-01 -9.93221283e-01 -9.93137419e-01 -9.92966712e-01 -9.92726862e-01 -9.92646277e-01 -9.92394924e-01 -9.92216051e-01 -9.92145717e-01 -9.91795480e-01 -9.91643846e-01 -9.91258204e-01 -9.91237044e-01 -9.91092801e-01 -9.90996420e-01 -9.90963221e-01 -9.90886390e-01 -9.90587533e-01 -9.90243018e-01 -9.90121841e-01 -9.90005314e-01 -9.89728868e-01 -9.89620149e-01 -9.89553332e-01 -9.89493966e-01 -9.89428461e-01 -9.89199758e-01 -9.89105225e-01 -9.88848627e-01 -9.88656342e-01 -9.88447487e-01 -9.88401592e-01 -9.88171339e-01 -9.87941742e-01 -9.87785399e-01 -9.87712860e-01 -9.87659752e-01 -9.87521648e-01 -9.87472951e-01 -9.87397313e-01 -9.87298429e-01 -9.87138510e-01 -9.86920774e-01 -9.86825049e-01 -9.86708403e-01 -9.86532509e-01 -9.86392558e-01 -9.86157477e-01 -9.86082971e-01 -9.86000538e-01 -9.85859334e-01 -9.85813975e-01 -9.85713184e-01 -9.85659361e-01 -9.85510349e-01 -9.85437691e-01 -9.85237300e-01 -9.85078514e-01 -9.85055089e-01 -9.84927237e-01 -9.84899580e-01 -9.84851122e-01 -9.84720767e-01 -9.84628797e-01 -9.84559000e-01 -9.84459162e-01 -9.84407067e-01 -9.84304845e-01 -9.84184444e-01 -9.84036207e-01 -9.83926654e-01 -9.83882248e-01 -9.83812451e-01 -9.83785689e-01 -9.83705878e-01 -9.83607888e-01 -9.83294785e-01 -9.83231962e-01 -9.83176947e-01 -9.82995152e-01 -9.82927978e-01 -9.82900977e-01 -9.82795119e-01 -9.82723176e-01 -9.82630491e-01 -9.82532978e-01 -9.82387543e-01 -9.82362211e-01 -9.82250750e-01 -9.82138932e-01 -9.82095420e-01 -9.82050955e-01 -9.82007265e-01 -9.81895566e-01 -9.81705666e-01 -9.81559992e-01 -9.81499553e-01 -9.81388927e-01 -9.81310725e-01 -9.81198907e-01 -9.81122017e-01 -9.81044114e-01 -9.80831146e-01 -9.80670273e-01 -9.80551600e-01 -9.80504453e-01 -9.80445921e-01 -9.80353355e-01 -9.80315983e-01 -9.80096698e-01 -9.80075955e-01 -9.79862332e-01 -9.79685545e-01 -9.79531229e-01 -9.79490101e-01 -9.79424715e-01 -9.79286432e-01 -9.79133368e-01 -9.79071438e-01 -9.78980362e-01 -9.78837490e-01 -9.78785336e-01 -9.78704572e-01 -9.78609920e-01 -9.78559375e-01 -9.78476763e-01 -9.78425860e-01 -9.78346229e-01 -9.78303909e-01 -9.78271484e-01 -9.78173435e-01 -9.78041589e-01 -9.77961659e-01 -9.77907121e-01 -9.77593243e-01 -9.77533877e-01 -9.77389455e-01 -9.77372766e-01 -9.77331519e-01 -9.77226019e-01 -9.77086306e-01 -9.76954401e-01 -9.76903856e-01 -9.76783276e-01 -9.76645648e-01 -9.76553977e-01 -9.76460099e-01 -9.76440072e-01 -9.76416886e-01 -9.76306915e-01 -9.76220548e-01 -9.76153970e-01 -9.76110697e-01 -9.76004183e-01 -9.75959718e-01 -9.75868881e-01 -9.75791514e-01 -9.75693524e-01 -9.75598812e-01 -9.75453079e-01 -9.75358009e-01 -9.75256503e-01 -9.75163877e-01 -9.75063145e-01 -9.74838316e-01 -9.74673986e-01 -9.74506199e-01 -9.74402010e-01 -9.74225879e-01 -9.74142849e-01 -9.74028230e-01 -9.73854601e-01 -9.73755062e-01 -9.73634720e-01 -9.73528802e-01 -9.73374367e-01 -9.73278105e-01 -9.73182082e-01 -9.73167539e-01 -9.73113537e-01 -9.73061383e-01 -9.72883046e-01 -9.72763658e-01 -9.72493827e-01 -9.72472787e-01 -9.72341955e-01 -9.72305715e-01 -9.72191215e-01 -9.72082853e-01 -9.72053587e-01 -9.72026885e-01 -9.71888304e-01 -9.71807361e-01 -9.71770942e-01 -9.71701980e-01 -9.71653998e-01 -9.71562088e-01 -9.71466482e-01 -9.71446335e-01 -9.71370876e-01 -9.71296489e-01 -9.71272707e-01 -9.71205950e-01 -9.71157074e-01 -9.70997870e-01 -9.70883608e-01 -9.70794201e-01 -9.70704436e-01 -9.70619917e-01 -9.70562100e-01 -9.70467985e-01 -9.70409393e-01 -9.70369041e-01 -9.70278382e-01 -9.70207512e-01 -9.70133901e-01 -9.70033765e-01 -9.69955623e-01 -9.69876766e-01 -9.69770432e-01 -9.69682634e-01 -9.69576299e-01 -9.69510317e-01 -9.69431937e-01 -9.69283044e-01 -9.69242752e-01 -9.69145179e-01 -9.68974590e-01 -9.68788981e-01 -9.68681753e-01 -9.68528926e-01 -9.68462706e-01 -9.68418181e-01 -9.68327045e-01 -9.68160152e-01 -9.68134820e-01 -9.68095958e-01 -9.68048990e-01 -9.67998445e-01 -9.67973351e-01 -9.67943072e-01 -9.67780292e-01 -9.67701554e-01 -9.67642605e-01 -9.67546582e-01 -9.67436194e-01 -9.67305124e-01 -9.67137218e-01 -9.66981888e-01 -9.66849864e-01 -9.66698050e-01 -9.66592133e-01 -9.66473043e-01 -9.66436327e-01 -9.66353893e-01 -9.66336370e-01 -9.66283023e-01 -9.66227651e-01 -9.66128349e-01 -9.65991914e-01 -9.65965688e-01 -9.65917349e-01 -9.65831161e-01 -9.65655565e-01 -9.65541244e-01 -9.65503693e-01 -9.65378225e-01 -9.65312421e-01 -9.65241909e-01 -9.65170264e-01 -9.65120018e-01 -9.65062320e-01 -9.65038657e-01 -9.64956403e-01 -9.64916408e-01 -9.64746714e-01 -9.64611709e-01 -9.64589000e-01 -9.64552522e-01 -9.64525640e-01 -9.64512110e-01 -9.64486420e-01 -9.64387655e-01 -9.64332998e-01 -9.64301884e-01 -9.64241207e-01 -9.64217722e-01 -9.64103281e-01 -9.64080036e-01 -9.63860691e-01 -9.63792384e-01 -9.63753343e-01 -9.63598371e-01 -9.63522434e-01 -9.63461757e-01 -9.63393748e-01 -9.63367343e-01 -9.63219643e-01 -9.63095248e-01 -9.62995529e-01 -9.62929487e-01 -9.62891400e-01 -9.62797880e-01 -9.62716818e-01 -9.62708592e-01 -9.62681293e-01 -9.62648571e-01 -9.62594509e-01 -9.62534904e-01 -9.62484002e-01 -9.62433755e-01 -9.62350726e-01 -9.62280273e-01 -9.62212443e-01 -9.62122679e-01 -9.62064624e-01 -9.61908400e-01 -9.61821139e-01 -9.61751342e-01 -9.61699367e-01 -9.61612880e-01 -9.61544633e-01 -9.61442888e-01 -9.61340487e-01 -9.61327136e-01 -9.61237371e-01 -9.61207747e-01 -9.61065173e-01 -9.60910857e-01 -9.60711956e-01 -9.60552633e-01 -9.60456967e-01 -9.60389018e-01 -9.60258007e-01 -9.60133076e-01 -9.60127473e-01 -9.59968865e-01 -9.59839582e-01 -9.59764361e-01 -9.59725499e-01 -9.59610224e-01 -9.59566236e-01 -9.59552467e-01 -9.59428728e-01 -9.59329665e-01 -9.59297061e-01 -9.59191203e-01 -9.59101796e-01 -9.59048390e-01 -9.58998263e-01 -9.58909154e-01 -9.58870292e-01 -9.58822906e-01 -9.58732069e-01 -9.58707333e-01 -9.58675683e-01 -9.58541393e-01 -9.58493888e-01 -9.58412588e-01 -9.58324790e-01 -9.58284318e-01 -9.58201051e-01 -9.58101928e-01 -9.57989872e-01 -9.57853615e-01 -9.57780480e-01 -9.57691193e-01 -9.57637131e-01 -9.57590103e-01 -9.57438350e-01 -9.57415462e-01 -9.57334518e-01 -9.57239509e-01 -9.57127213e-01 -9.57001507e-01 -9.56899107e-01 -9.56797600e-01 -9.56682444e-01 -9.56600726e-01 -9.56547081e-01 -9.56518233e-01 -9.56409752e-01 -9.56368268e-01 -9.56203163e-01 -9.56176460e-01 -9.56126750e-01 -9.55868900e-01 -9.55809832e-01 -9.55744088e-01 -9.55698550e-01 -9.55581903e-01 -9.55562413e-01 -9.55444753e-01 -9.55432713e-01 -9.55351353e-01 -9.55306947e-01 -9.55127120e-01 -9.55025971e-01 -9.54963207e-01 -9.54926491e-01 -9.54856038e-01 -9.54752266e-01 -9.54698205e-01 -9.54561174e-01 -9.54454064e-01 -9.54361558e-01 -9.54271376e-01 -9.54207361e-01 -9.54136789e-01 -9.54077363e-01 -9.54034805e-01 -9.53998923e-01 -9.53970313e-01 -9.53864574e-01 -9.53780711e-01 -9.53749239e-01 -9.53696012e-01 -9.53662276e-01 -9.53608394e-01 -9.53551292e-01 -9.53465760e-01 -9.53408241e-01 -9.53208625e-01 -9.53148901e-01 -9.53062892e-01 -9.52988803e-01 -9.52857852e-01 -9.52823520e-01 -9.52737629e-01 -9.52632904e-01 -9.52592313e-01 -9.52471495e-01 -9.52305257e-01 -9.52250898e-01 -9.52205300e-01 -9.52175021e-01 -9.52115774e-01 -9.52026129e-01 -9.51945126e-01 -9.51753616e-01 -9.51450109e-01 -9.51293051e-01 -9.51182604e-01 -9.51054335e-01 -9.50996995e-01 -9.50898707e-01 -9.50775802e-01 -9.50743496e-01 -9.50718760e-01 -9.50653434e-01 -9.50530350e-01 -9.50501740e-01 -9.50410008e-01 -9.50370550e-01 -9.50290620e-01 -9.50118423e-01 -9.50066328e-01 -9.50006783e-01 -9.49972093e-01 -9.49895620e-01 -9.49878097e-01 -9.49752092e-01 -9.49624062e-01 -9.49499667e-01 -9.49377537e-01 -9.49349046e-01 -9.49333608e-01 -9.49282110e-01 -9.49124157e-01 -9.49016154e-01 -9.48881149e-01 -9.48825181e-01 -9.48748827e-01 -9.48717177e-01 -9.48609054e-01 -9.48550761e-01 -9.48538363e-01 -9.48443234e-01 -9.48358953e-01 -9.48162436e-01 -9.48082447e-01 -9.48065937e-01 -9.48006392e-01 -9.47974086e-01 -9.47936296e-01 -9.47869599e-01 -9.47823524e-01 -9.47689474e-01 -9.47584689e-01 -9.47493196e-01 -9.47425544e-01 -9.47386265e-01 -9.47323620e-01 -9.47287798e-01 -9.47177768e-01 -9.46994841e-01 -9.46900487e-01 -9.46823359e-01 -9.46767092e-01 -9.46678340e-01 -9.46630895e-01 -9.46518838e-01 -9.46416736e-01 -9.46313083e-01 -9.46226656e-01 -9.46187615e-01 -9.46117997e-01 -9.46043670e-01 -9.45997834e-01 -9.45945680e-01 -9.45899546e-01 -9.45863068e-01 -9.45813239e-01 -9.45704281e-01 -9.45643306e-01 -9.45536613e-01 -9.45485711e-01 -9.45422232e-01 -9.45282102e-01 -9.45244491e-01 -9.45211232e-01 -9.45145667e-01 -9.45109427e-01 -9.45027351e-01 -9.44835901e-01 -9.44768310e-01 -9.44698155e-01 -9.44510818e-01 -9.44451928e-01 -9.44320381e-01 -9.44163382e-01 -9.44104791e-01 -9.43902612e-01 -9.43811595e-01 -9.43787038e-01 -9.43701565e-01 -9.43649292e-01 -9.43507135e-01 -9.43351328e-01 -9.43125963e-01 -9.42969918e-01 -9.42889333e-01 -9.42848444e-01 -9.42789912e-01 -9.42721188e-01 -9.42658663e-01 -9.42562580e-01 -9.42433596e-01 -9.42337871e-01 -9.42288399e-01 -9.42215979e-01 -9.42135215e-01 -9.42041993e-01 -9.41939712e-01 -9.41859126e-01 -9.41773534e-01 -9.41682756e-01 -9.41556394e-01 -9.41350162e-01 -9.41121042e-01 -9.41079974e-01 -9.40925360e-01 -9.40911055e-01 -9.40782905e-01 -9.40732658e-01 -9.40631390e-01 -9.40491080e-01 -9.40428197e-01 -9.40371215e-01 -9.40236688e-01 -9.40210819e-01 -9.40019667e-01 -9.39896584e-01 -9.39804018e-01 -9.39696848e-01 -9.39564228e-01 -9.39531505e-01 -9.39364970e-01 -9.39286351e-01 -9.39180255e-01 -9.39015329e-01 -9.38857138e-01 -9.38754976e-01 -9.38647747e-01 -9.38531041e-01 -9.38475549e-01 -9.38282669e-01 -9.38186467e-01 -9.38047290e-01 -9.37974274e-01 -9.37846959e-01 -9.37807500e-01 -9.37627435e-01 -9.37579989e-01 -9.37511325e-01 -9.37474728e-01 -9.37379479e-01 -9.37299073e-01 -9.37274635e-01 -9.37190235e-01 -9.37098384e-01 -9.37001348e-01 -9.36898768e-01 -9.36869383e-01 -9.36737061e-01 -9.36562598e-01 -9.36513186e-01 -9.36446607e-01 -9.36321259e-01 -9.36185598e-01 -9.36139584e-01 -9.36058998e-01 -9.35851693e-01 -9.35739279e-01 -9.35699344e-01 -9.35670793e-01 -9.35542822e-01 -9.35468674e-01 -9.35371280e-01 -9.35293257e-01 -9.35154378e-01 -9.35086071e-01 -9.35037553e-01 -9.34972048e-01 -9.34902906e-01 -9.34714615e-01 -9.34572101e-01 -9.34484720e-01 -9.34401989e-01 -9.34291780e-01 -9.34169054e-01 -9.34115767e-01 -9.34070468e-01 -9.33962107e-01 -9.33944166e-01 -9.33913291e-01 -9.33852911e-01 -9.33801174e-01 -9.33762074e-01 -9.33685064e-01 -9.33654428e-01 -9.33479071e-01 -9.33422029e-01 -9.33312774e-01 -9.33285177e-01 -9.33212399e-01 -9.33135271e-01 -9.33089197e-01 -9.32910025e-01 -9.32689130e-01 -9.32630658e-01 -9.32527184e-01 -9.32484806e-01 -9.32392061e-01 -9.32380199e-01 -9.32249010e-01 -9.32221830e-01 -9.32173312e-01 -9.32063699e-01 -9.31926727e-01 -9.31896925e-01 -9.31827426e-01 -9.31782067e-01 -9.31737661e-01 -9.31642771e-01 -9.31576014e-01 -9.31466222e-01 -9.31330144e-01 -9.31169927e-01 -9.31084573e-01 -9.30992782e-01 -9.30874527e-01 -9.30821121e-01 -9.30746794e-01 -9.30631578e-01 -9.30500686e-01 -9.30386066e-01 -9.30356145e-01 -9.30206656e-01 -9.30116177e-01 -9.30036068e-01 -9.29829717e-01 -9.29760814e-01 -9.29658115e-01 -9.29599524e-01 -9.29458320e-01 -9.29408729e-01 -9.29347634e-01 -9.29231048e-01 -9.29215193e-01 -9.29140389e-01 -9.29043233e-01 -9.28957462e-01 -9.28907931e-01 -9.28807378e-01 -9.28774834e-01 -9.28711832e-01 -9.28516209e-01 -9.28342938e-01 -9.28162098e-01 -9.28090453e-01 -9.27909017e-01 -9.27818596e-01 -9.27778244e-01 -9.27516282e-01 -9.27454293e-01 -9.27305162e-01 -9.27249908e-01 -9.27164316e-01 -9.27109122e-01 -9.27071154e-01 -9.27002609e-01 -9.26811278e-01 -9.26750064e-01 -9.26637948e-01 -9.26541448e-01 -9.26456809e-01 -9.26370442e-01 -9.26294684e-01 -9.26271439e-01 -9.26238477e-01 -9.26174402e-01 -9.25920248e-01 -9.25856709e-01 -9.25710917e-01 -9.25679266e-01 -9.25630748e-01 -9.25587595e-01 -9.25468385e-01 -9.25345242e-01 -9.25201416e-01 -9.25112844e-01 -9.25025880e-01 -9.24946904e-01 -9.24779177e-01 -9.24637794e-01 -9.24441576e-01 -9.24260616e-01 -9.24132586e-01 -9.24048901e-01 -9.23969626e-01 -9.23859298e-01 -9.23816264e-01 -9.23630834e-01 -9.23479438e-01 -9.23433304e-01 -9.23290849e-01 -9.23117340e-01 -9.22973812e-01 -9.22896624e-01 -9.22873497e-01 -9.22783613e-01 -9.22751546e-01 -9.22636390e-01 -9.22619462e-01 -9.22478795e-01 -9.22347546e-01 -9.22098637e-01 -9.21887517e-01 -9.21793401e-01 -9.21579063e-01 -9.21449125e-01 -9.21049654e-01 -9.21008348e-01 -9.20903921e-01 -9.20802116e-01 -9.20692921e-01 -9.20648932e-01 -9.20605719e-01 -9.20496941e-01 -9.20407534e-01 -9.20294583e-01 -9.20180500e-01 -9.20053661e-01 -9.19966817e-01 -9.19778228e-01 -9.19689775e-01 -9.19627547e-01 -9.19578135e-01 -9.19560671e-01 -9.19255733e-01 -9.19173002e-01 -9.19035316e-01 -9.18862164e-01 -9.18786645e-01 -9.18708801e-01 -9.18564320e-01 -9.18519020e-01 -9.18398619e-01 -9.18346584e-01 -9.18244600e-01 -9.18149173e-01 -9.18125749e-01 -9.17806327e-01 -9.17649448e-01 -9.17568803e-01 -9.17515039e-01 -9.17426884e-01 -9.17346239e-01 -9.17228997e-01 -9.17112172e-01 -9.17013109e-01 -9.16877329e-01 -9.16782856e-01 -9.16731298e-01 -9.16677594e-01 -9.16455328e-01 -9.16405022e-01 -9.16205704e-01 -9.16139960e-01 -9.15884316e-01 -9.15833354e-01 -9.15742099e-01 -9.15646672e-01 -9.15560842e-01 -9.15395617e-01 -9.15232897e-01 -9.15029287e-01 -9.14821148e-01 -9.14740682e-01 -9.14705038e-01 -9.14543808e-01 -9.14399505e-01 -9.14234877e-01 -9.14156139e-01 -9.14091766e-01 -9.13909554e-01 -9.13827062e-01 -9.13795114e-01 -9.13673699e-01 -9.13472354e-01 -9.13367391e-01 -9.13268983e-01 -9.13162589e-01 -9.13146198e-01 -9.13015008e-01 -9.12875533e-01 -9.12770212e-01 -9.12704110e-01 -9.12663043e-01 -9.12618935e-01 -9.12575603e-01 -9.12549019e-01 -9.12448227e-01 -9.12258565e-01 -9.12154794e-01 -9.12090719e-01 -9.11900461e-01 -9.11839366e-01 -9.11705971e-01 -9.11499321e-01 -9.11357343e-01 -9.11153972e-01 -9.11102831e-01 -9.11046147e-01 -9.10922050e-01 -9.10858870e-01 -9.10844684e-01 -9.10756946e-01 -9.10627067e-01 -9.10511374e-01 -9.10415709e-01 -9.10300612e-01 -9.10207093e-01 -9.10055161e-01 -9.09920454e-01 -9.09826458e-01 -9.09453273e-01 -9.09159482e-01 -9.09077585e-01 -9.08972979e-01 -9.08800244e-01 -9.08659756e-01 -9.08504307e-01 -9.08374071e-01 -9.08323169e-01 -9.08225358e-01 -9.08074617e-01 -9.07815933e-01 -9.07524884e-01 -9.07373667e-01 -9.07224715e-01 -9.07115936e-01 -9.07066464e-01 -9.06945288e-01 -9.06831741e-01 -9.06716943e-01 -9.06601489e-01 -9.06559587e-01 -9.06519651e-01 -9.06481862e-01 -9.06149864e-01 -9.06121314e-01 -9.05882895e-01 -9.05765057e-01 -9.05683100e-01 -9.05633271e-01 -9.05425668e-01 -9.05259550e-01 -9.05175984e-01 -9.05025125e-01 -9.04841125e-01 -9.04717922e-01 -9.04511034e-01 -9.04448330e-01 -9.04250443e-01 -9.04030859e-01 -9.03894126e-01 -9.03808892e-01 -9.03525531e-01 -9.03363585e-01 -9.03255403e-01 -9.03091669e-01 -9.02977407e-01 -9.02779102e-01 -9.02557850e-01 -9.02488112e-01 -9.02253032e-01 -9.01977301e-01 -9.01877522e-01 -9.01599407e-01 -9.01255488e-01 -9.01211619e-01 -9.00880575e-01 -9.00696278e-01 -9.00569558e-01 -9.00486231e-01 -9.00414348e-01 -9.00292754e-01 -9.00213838e-01 -9.00004089e-01 -8.99807274e-01 -8.99638474e-01 -8.99419904e-01 -8.99253845e-01 -8.98993075e-01 -8.98915470e-01 -8.98824871e-01 -8.98576915e-01 -8.98429990e-01 -8.98202598e-01 -8.98021758e-01 -8.97993565e-01 -8.97843361e-01 -8.97777438e-01 -8.97652745e-01 -8.97475064e-01 -8.97427082e-01 -8.97320747e-01 -8.97236824e-01 -8.97095203e-01 -8.97026598e-01 -8.96997094e-01 -8.96933436e-01 -8.96721303e-01 -8.96665812e-01 -8.96447003e-01 -8.96374941e-01 -8.96227717e-01 -8.95989895e-01 -8.95940304e-01 -8.95881236e-01 -8.95734131e-01 -8.95247698e-01 -8.95169735e-01 -8.95087361e-01 -8.95034134e-01 -8.94792378e-01 -8.94660413e-01 -8.94448221e-01 -8.94134283e-01 -8.94114435e-01 -8.93873990e-01 -8.93823504e-01 -8.93768787e-01 -8.93623710e-01 -8.93438041e-01 -8.93185496e-01 -8.93093348e-01 -8.93017530e-01 -8.92819524e-01 -8.92524123e-01 -8.92410934e-01 -8.92129421e-01 -8.91898036e-01 -8.91708016e-01 -8.91517818e-01 -8.91446352e-01 -8.91371131e-01 -8.91257524e-01 -8.91065240e-01 -8.90947759e-01 -8.90837610e-01 -8.90753090e-01 -8.90615761e-01 -8.90300453e-01 -8.90189052e-01 -8.90051007e-01 -8.89957190e-01 -8.89804721e-01 -8.89720559e-01 -8.89612317e-01 -8.89532745e-01 -8.89305115e-01 -8.89283776e-01 -8.89183521e-01 -8.89038026e-01 -8.88967872e-01 -8.88744175e-01 -8.88582408e-01 -8.88522923e-01 -8.88345361e-01 -8.88131499e-01 -8.88067126e-01 -8.87919605e-01 -8.87816548e-01 -8.87694597e-01 -8.87428105e-01 -8.87187839e-01 -8.86968195e-01 -8.86728346e-01 -8.86426806e-01 -8.85960519e-01 -8.85785699e-01 -8.85696590e-01 -8.85551810e-01 -8.85441065e-01 -8.85263383e-01 -8.85179996e-01 -8.85019720e-01 -8.84942770e-01 -8.84790301e-01 -8.84581923e-01 -8.84518504e-01 -8.84146333e-01 -8.84018362e-01 -8.83835018e-01 -8.83731365e-01 -8.83503437e-01 -8.83199215e-01 -8.82915676e-01 -8.82467210e-01 -8.82327497e-01 -8.82253945e-01 -8.81995082e-01 -8.81836057e-01 -8.81586850e-01 -8.81467581e-01 -8.81163418e-01 -8.80952418e-01 -8.80570769e-01 -8.80299270e-01 -8.80167603e-01 -8.80081594e-01 -8.80045295e-01 -8.79935086e-01 -8.79594564e-01 -8.79319072e-01 -8.79212439e-01 -8.79097342e-01 -8.78981531e-01 -8.78918588e-01 -8.78651202e-01 -8.78497124e-01 -8.78475368e-01 -8.78310263e-01 -8.78036082e-01 -8.77870679e-01 -8.77743125e-01 -8.77639592e-01 -8.77408862e-01 -8.77108872e-01 -8.77032161e-01 -8.76806796e-01 -8.76704752e-01 -8.76441002e-01 -8.76331270e-01 -8.76301289e-01 -8.76089275e-01 -8.75816107e-01 -8.75646293e-01 -8.75513613e-01 -8.75393450e-01 -8.75315905e-01 -8.75149906e-01 -8.75028670e-01 -8.74903321e-01 -8.74452710e-01 -8.74261975e-01 -8.74204874e-01 -8.74107361e-01 -8.73769403e-01 -8.73429894e-01 -8.73243392e-01 -8.73145461e-01 -8.73041689e-01 -8.72925401e-01 -8.72820020e-01 -8.72792065e-01 -8.72611165e-01 -8.72541547e-01 -8.72431040e-01 -8.72272849e-01 -8.72124672e-01 -8.71882439e-01 -8.71802807e-01 -8.71531665e-01 -8.71479571e-01 -8.71250510e-01 -8.70707154e-01 -8.70597839e-01 -8.70436072e-01 -8.70274484e-01 -8.69960010e-01 -8.69803190e-01 -8.69468987e-01 -8.69333506e-01 -8.69247198e-01 -8.69182646e-01 -8.69112253e-01 -8.68988514e-01 -8.68581533e-01 -8.68437767e-01 -8.68181050e-01 -8.67878675e-01 -8.67680073e-01 -8.67265999e-01 -8.66975188e-01 -8.66851449e-01 -8.66752326e-01 -8.66337299e-01 -8.66156101e-01 -8.66093040e-01 -8.66002560e-01 -8.65851402e-01 -8.65787506e-01 -8.65612507e-01 -8.65445793e-01 -8.65328312e-01 -8.65268648e-01 -8.64799261e-01 -8.64570439e-01 -8.64162624e-01 -8.64127040e-01 -8.63898337e-01 -8.63558233e-01 -8.63418758e-01 -8.63320172e-01 -8.63267541e-01 -8.63006234e-01 -8.62714291e-01 -8.62438619e-01 -8.62155020e-01 -8.61872196e-01 -8.61645460e-01 -8.61290693e-01 -8.60974312e-01 -8.60763490e-01 -8.60645294e-01 -8.60259891e-01 -8.59944999e-01 -8.59718978e-01 -8.59654307e-01 -8.59440565e-01 -8.59287024e-01 -8.59186530e-01 -8.58924031e-01 -8.58829737e-01 -8.58612418e-01 -8.58581066e-01 -8.58426571e-01 -8.57905507e-01 -8.57763946e-01 -8.57439399e-01 -8.57276797e-01 -8.57113123e-01 -8.56634259e-01 -8.56243908e-01 -8.55845571e-01 -8.55643749e-01 -8.55150819e-01 -8.54867101e-01 -8.54753137e-01 -8.54393184e-01 -8.54227245e-01 -8.54166687e-01 -8.53536487e-01 -8.53265882e-01 -8.53137374e-01 -8.52993011e-01 -8.52882028e-01 -8.52643311e-01 -8.52378607e-01 -8.52220535e-01 -8.52060735e-01 -8.51752579e-01 -8.51647973e-01 -8.51246476e-01 -8.51027608e-01 -8.50749910e-01 -8.50569725e-01 -8.50067377e-01 -8.49867821e-01 -8.49634886e-01 -8.49560380e-01 -8.49376202e-01 -8.49253595e-01 -8.49080205e-01 -8.48931670e-01 -8.48747075e-01 -8.48695457e-01 -8.48634005e-01 -8.48220587e-01 -8.48055065e-01 -8.47865820e-01 -8.47761989e-01 -8.47357094e-01 -8.47316921e-01 -8.47139239e-01 -8.46783996e-01 -8.46582174e-01 -8.46453607e-01 -8.46210420e-01 -8.46195698e-01 -8.46023381e-01 -8.45625877e-01 -8.45545828e-01 -8.45438421e-01 -8.45165849e-01 -8.44947696e-01 -8.44861269e-01 -8.44485879e-01 -8.44347060e-01 -8.43943655e-01 -8.43370318e-01 -8.43247354e-01 -8.43112469e-01 -8.42907190e-01 -8.42779338e-01 -8.42583537e-01 -8.42470407e-01 -8.42281222e-01 -8.41771662e-01 -8.41543198e-01 -8.41481507e-01 -8.41354132e-01 -8.41138959e-01 -8.40915322e-01 -8.40767026e-01 -8.40523183e-01 -8.40278089e-01 -8.39982510e-01 -8.39692175e-01 -8.39277267e-01 -8.39180052e-01 -8.38931322e-01 -8.38825703e-01 -8.38443398e-01 -8.38176727e-01 -8.37994695e-01 -8.37420940e-01 -8.37273836e-01 -8.37071002e-01 -8.36875796e-01 -8.36707294e-01 -8.36268187e-01 -8.35630596e-01 -8.35029125e-01 -8.34534526e-01 -8.34205210e-01 -8.34077477e-01 -8.33908200e-01 -8.33311260e-01 -8.32970858e-01 -8.32541585e-01 -8.32241535e-01 -8.32061768e-01 -8.31531942e-01 -8.31106782e-01 -8.30803156e-01 -8.30548048e-01 -8.30371439e-01 -8.30281794e-01 -8.30166698e-01 -8.29855084e-01 -8.29362273e-01 -8.29022765e-01 -8.28350008e-01 -8.28141570e-01 -8.27843666e-01 -8.27629566e-01 -8.27340603e-01 -8.26796293e-01 -8.26321185e-01 -8.26236367e-01 -8.26023221e-01 -8.25760067e-01 -8.25518608e-01 -8.24880242e-01 -8.24078083e-01 -8.23749185e-01 -8.23249400e-01 -8.23077261e-01 -8.22734058e-01 -8.22214961e-01 -8.21892500e-01 -8.21559906e-01 -8.20972264e-01 -8.20793569e-01 -8.20421934e-01 -8.19796801e-01 -8.19214344e-01 -8.18366170e-01 -8.18205476e-01 -8.17876577e-01 -8.17476749e-01 -8.17172527e-01 -8.16579521e-01 -8.16197455e-01 -8.15626442e-01 -8.15535903e-01 -8.15097690e-01 -8.14725757e-01 -8.14468503e-01 -8.14343035e-01 -8.14207792e-01 -8.13847184e-01 -8.13490629e-01 -8.13201904e-01 -8.13086569e-01 -8.12584639e-01 -8.12245488e-01 -8.11897993e-01 -8.11603069e-01 -8.11349094e-01 -8.11009824e-01 -8.10783327e-01 -8.10207248e-01 -8.09398413e-01 -8.09036970e-01 -8.08652520e-01 -8.07756543e-01 -8.07490647e-01 -8.06763649e-01 -8.06326449e-01 -8.05804253e-01 -8.05416942e-01 -8.05112362e-01 -8.04642498e-01 -8.04462790e-01 -8.03858995e-01 -8.03245008e-01 -8.02678466e-01 -8.02290440e-01 -8.01414967e-01 -8.01257133e-01 -8.00778151e-01 -8.00683856e-01 -8.00219297e-01 -8.00070941e-01 -7.99741745e-01 -7.98786163e-01 -7.98275054e-01 -7.97652602e-01 -7.97273874e-01 -7.96814561e-01 -7.96727359e-01 -7.96548486e-01 -7.96386898e-01 -7.95497060e-01 -7.95247436e-01 -7.95086384e-01 -7.94365227e-01 -7.93907583e-01 -7.93073714e-01 -7.92524993e-01 -7.92221487e-01 -7.91709006e-01 -7.91428566e-01 -7.91051984e-01 -7.90617168e-01 -7.90135205e-01 -7.89770961e-01 -7.88967252e-01 -7.88826644e-01 -7.88407564e-01 -7.87997842e-01 -7.87832975e-01 -7.87490845e-01 -7.86771953e-01 -7.86521733e-01 -7.86387682e-01 -7.86189318e-01 -7.85847723e-01 -7.85020888e-01 -7.84339070e-01 -7.84140229e-01 -7.83535779e-01 -7.82647848e-01 -7.82127559e-01 -7.81921268e-01 -7.81601071e-01 -7.80608773e-01 -7.80356050e-01 -7.80126691e-01 -7.79163539e-01 -7.78401256e-01 -7.78184831e-01 -7.77874112e-01 -7.76980758e-01 -7.75846303e-01 -7.75208771e-01 -7.74517179e-01 -7.73781300e-01 -7.73669958e-01 -7.73285508e-01 -7.72895813e-01 -7.72419810e-01 -7.72047758e-01 -7.71670818e-01 -7.70935297e-01 -7.70340443e-01 -7.69825339e-01 -7.69426107e-01 -7.68712878e-01 -7.68004537e-01 -7.67539501e-01 -7.67143309e-01 -7.67011642e-01 -7.66156673e-01 -7.66005397e-01 -7.65660405e-01 -7.65136659e-01 -7.64511764e-01 -7.64003515e-01 -7.63476610e-01 -7.63159990e-01 -7.62383580e-01 -7.61866093e-01 -7.61799335e-01 -7.61110544e-01 -7.60665417e-01 -7.60227263e-01 -7.59936273e-01 -7.58514762e-01 -7.58077383e-01 -7.57637441e-01 -7.57326066e-01 -7.56568015e-01 -7.56293237e-01 -7.55662560e-01 -7.55363762e-01 -7.54739881e-01 -7.54237950e-01 -7.53973007e-01 -7.53294885e-01 -7.52506852e-01 -7.51569331e-01 -7.50877023e-01 -7.50691116e-01 -7.50314951e-01 -7.50043869e-01 -7.49596179e-01 -7.48829842e-01 -7.48290181e-01 -7.47760177e-01 -7.47054935e-01 -7.46121287e-01 -7.45114803e-01 -7.44236588e-01 -7.43191481e-01 -7.42781043e-01 -7.42052555e-01 -7.41616368e-01 -7.40522861e-01 -7.40163088e-01 -7.39968419e-01 -7.38940954e-01 -7.38360345e-01 -7.37286508e-01 -7.36313343e-01 -7.35962749e-01 -7.34822571e-01 -7.34191179e-01 -7.33570635e-01 -7.33048141e-01 -7.32786596e-01 -7.32468843e-01 -7.31543303e-01 -7.30930448e-01 -7.30153978e-01 -7.29951501e-01 -7.28775263e-01 -7.28182077e-01 -7.27651596e-01 -7.26828098e-01 -7.26511896e-01 -7.25812793e-01 -7.25662291e-01 -7.24849105e-01 -7.24727154e-01 -7.23839045e-01 -7.22596943e-01 -7.21269846e-01 -7.20320225e-01 -7.19437122e-01 -7.18365908e-01 -7.17551351e-01 -7.16626644e-01 -7.15703368e-01 -7.14983463e-01 -7.14496374e-01 -7.13869810e-01 -7.12843299e-01 -7.12385118e-01 -7.11650610e-01 -7.10684657e-01 -7.09638119e-01 -7.09411025e-01 -7.08645880e-01 -7.08261132e-01 -7.07669318e-01 -7.06800997e-01 -7.06399679e-01 -7.06108749e-01 -7.05576777e-01 -7.04813957e-01 -7.03882694e-01 -7.02048421e-01 -7.01196074e-01 -7.00948000e-01 -7.00269103e-01 -6.99585438e-01 -6.98804140e-01 -6.98162436e-01 -6.96600437e-01 -6.95600092e-01 -6.95121288e-01 -6.94140613e-01 -6.92531705e-01 -6.91494644e-01 -6.90797031e-01 -6.89825058e-01 -6.89221740e-01 -6.88210964e-01 -6.87036872e-01 -6.85039163e-01 -6.84039295e-01 -6.83357716e-01 -6.82504892e-01 -6.81487679e-01 -6.80917740e-01 -6.80024147e-01 -6.79650664e-01 -6.79517865e-01 -6.78751290e-01 -6.77962065e-01 -6.76924944e-01 -6.76458836e-01 -6.76065922e-01 -6.74997389e-01 -6.73631191e-01 -6.72580302e-01 -6.70449972e-01 -6.69331074e-01 -6.68337464e-01 -6.67676449e-01 -6.66885853e-01 -6.66127026e-01 -6.65550947e-01 -6.64439917e-01 -6.60814822e-01 -6.58016205e-01 -6.56663656e-01 -6.54999852e-01 -6.54099464e-01 -6.52851701e-01 -6.50807977e-01 -6.48015499e-01 -6.47374988e-01 -6.45883262e-01 -6.45067811e-01 -6.43362522e-01 -6.41919494e-01 -6.41313791e-01 -6.40761733e-01 -6.39099121e-01 -6.37780666e-01 -6.37332916e-01 -6.36928678e-01 -6.36468649e-01 -6.34674430e-01 -6.32864714e-01 -6.32431269e-01 -6.31694794e-01 -6.30600452e-01 -6.30019188e-01 -6.28398418e-01 -6.26337767e-01 -6.24591947e-01 -6.23602986e-01 -6.22477531e-01 -6.20819330e-01 -6.19178891e-01 -6.18314624e-01 -6.16133928e-01 -6.14092827e-01 -6.11537635e-01 -6.10811412e-01 -6.10271335e-01 -6.09135807e-01 -6.06657028e-01 -6.05499506e-01 -6.04888201e-01 -6.02819085e-01 -6.00418806e-01 -5.98598719e-01 -5.97192645e-01 -5.96562147e-01 -5.94138026e-01 -5.90007007e-01 -5.89460135e-01 -5.88585377e-01 -5.86864531e-01 -5.85333407e-01 -5.84148645e-01 -5.80129206e-01 -5.78342676e-01 -5.77149391e-01 -5.74609041e-01 -5.71590304e-01 -5.70063353e-01 -5.68597853e-01 -5.67433000e-01 -5.65579414e-01 -5.62107921e-01 -5.59882760e-01 -5.56542993e-01 -5.55876613e-01 -5.55070102e-01 -5.52306771e-01 -5.48924148e-01 -5.47451258e-01 -5.44962406e-01 -5.41552544e-01 -5.39452195e-01 -5.38465738e-01 -5.36976695e-01 -5.34520388e-01 -5.31640291e-01 -5.29370368e-01 -5.25010526e-01 -5.20438671e-01 -5.18994689e-01 -5.16385078e-01 -5.14148057e-01 -5.11350036e-01 -5.09295464e-01 -5.06996036e-01 -5.05943954e-01 -5.04258752e-01 -4.99395788e-01 -4.96140301e-01 -4.93972182e-01 -4.91789460e-01 -4.90389109e-01 -4.85912204e-01 -4.82334852e-01 -4.80733752e-01 -4.78129029e-01 -4.73464668e-01 -4.69999552e-01 -4.67870951e-01 -4.60994959e-01 -4.56888914e-01 -4.47842002e-01 -4.42955375e-01 -4.41568136e-01 -4.35722589e-01 -4.34077442e-01 -4.29815352e-01 -4.25135970e-01 -4.15468633e-01 -4.10963893e-01 -4.04828966e-01 -3.94842863e-01 -3.85443330e-01 -3.81296158e-01 -3.68643105e-01 -3.60330045e-01 -3.55985701e-01 -3.48807752e-01 -3.31371665e-01 -3.19856346e-01 -3.10974658e-01 -3.04188013e-01 -2.99058974e-01 -2.90676892e-01 -2.81667531e-01 -2.74434388e-01 -2.65289068e-01 -2.57820010e-01 -2.40565360e-01 -2.25352526e-01 -2.07890868e-01 -1.85773611e-01 -1.67439580e-01 -1.47676647e-01 -1.27125621e-01 -1.09940231e-01 -8.07026625e-02 -3.90084982e-02 -9.79959965e-04 4.18570042e-02 1.03266478e-01 1.65447235e-01 2.74511099e-01 5.51205277e-01 9.43979859e-01 1.00000000e+00 
            </HistogramBinning>
          </PDF>
        </CumulativePDF_cls1>
        <CumulativePDF_cls2>
          <PDF Name="GaussTransform var0 cls2" MinNSmooth="0" MaxNSmooth="0" InterpolMethod="1" KDE_type="0" KDE_iter="1" KDE_border="1" KDE_finefactor="0.0000000000000000e+00">
            <Histogram Name="Cumulative_Var0_cls2_original" NBins="1852" XMin="-1.0001000165939331e+00" XMax="1.0000000000000000e+00" HasEquidistantBins="0">
