<?xml version="1.0"?>
<MethodSetup Method="BDT::BDTG_UF_v1">
  <GeneralInfo>
    <Info name="TMVA Release" value="4.2.1 [262657]"/>
    <Info name="ROOT Release" value="6.15/01 [397057]"/>
    <Info name="Creator" value="dmitry"/>
    <Info name="Date" value="Tue Sep 11 18:24:17 2018"/>
    <Info name="Host" value="Darwin Dmitrys-Air.lfytina2.metronetinc.net 17.5.0 Darwin Kernel Version 17.5.0: Fri Apr 13 19:32:32 PDT 2018; root:xnu-4570.51.2~1/RELEASE_X86_64 x86_64"/>
    <Info name="Dir" value="/Users/dmitry/Documents/HiggsToMuMu/Hmumu_ML"/>
    <Info name="Training events" value="15000"/>
    <Info name="TrainingTime" value="6.74824810e+00"/>
    <Info name="AnalysisType" value="Classification"/>
  </GeneralInfo>
  <Options>
    <Option name="V" modified="Yes">False</Option>
    <Option name="VerbosityLevel" modified="No">Default</Option>
    <Option name="VarTransform" modified="No">None</Option>
    <Option name="H" modified="Yes">False</Option>
    <Option name="CreateMVAPdfs" modified="No">False</Option>
    <Option name="IgnoreNegWeightsInTraining" modified="No">False</Option>
    <Option name="NTrees" modified="Yes">500</Option>
    <Option name="MaxDepth" modified="Yes">5</Option>
    <Option name="MinNodeSize" modified="No">5%</Option>
    <Option name="nCuts" modified="Yes">20</Option>
    <Option name="BoostType" modified="Yes">Grad</Option>
    <Option name="AdaBoostR2Loss" modified="No">quadratic</Option>
    <Option name="UseBaggedBoost" modified="Yes">True</Option>
    <Option name="Shrinkage" modified="Yes">1.000000e-01</Option>
    <Option name="AdaBoostBeta" modified="No">5.000000e-01</Option>
    <Option name="UseRandomisedTrees" modified="No">False</Option>
    <Option name="UseNvars" modified="No">4</Option>
    <Option name="UsePoissonNvars" modified="No">True</Option>
    <Option name="BaggedSampleFraction" modified="Yes">5.000000e-01</Option>
    <Option name="UseYesNoLeaf" modified="No">True</Option>
    <Option name="NegWeightTreatment" modified="No">pray</Option>
    <Option name="Css" modified="No">1.000000e+00</Option>
    <Option name="Cts_sb" modified="No">1.000000e+00</Option>
    <Option name="Ctb_ss" modified="No">1.000000e+00</Option>
    <Option name="Cbb" modified="No">1.000000e+00</Option>
    <Option name="NodePurityLimit" modified="No">5.000000e-01</Option>
    <Option name="SeparationType" modified="No">giniindex</Option>
    <Option name="RegressionLossFunctionBDTG" modified="No">huber</Option>
    <Option name="HuberQuantile" modified="No">7.000000e-01</Option>
    <Option name="DoBoostMonitor" modified="No">False</Option>
    <Option name="UseFisherCuts" modified="No">False</Option>
    <Option name="MinLinCorrForFisher" modified="No">8.000000e-01</Option>
    <Option name="UseExclusiveVars" modified="No">False</Option>
    <Option name="DoPreselection" modified="No">False</Option>
    <Option name="SigToBkgFraction" modified="No">1.000000e+00</Option>
    <Option name="PruneMethod" modified="No">nopruning</Option>
    <Option name="PruneStrength" modified="No">0.000000e+00</Option>
    <Option name="PruningValFraction" modified="No">5.000000e-01</Option>
    <Option name="SkipNormalization" modified="No">False</Option>
    <Option name="nEventsMin" modified="No">0</Option>
    <Option name="UseBaggedGrad" modified="No">False</Option>
    <Option name="GradBaggingFraction" modified="No">5.000000e-01</Option>
    <Option name="UseNTrainEvents" modified="No">0</Option>
    <Option name="NNodesMax" modified="No">0</Option>
  </Options>
  <Variables NVar="14">
    <Variable VarIndex="0" Expression="muPairs.pt" Label="muPairs.pt" Title="Dimuon p_{T}" Unit="GeV" Internal="muPairs.pt" Type="F" Min="3.40282347e+38" Max="-3.40282347e+38"/>
    <Variable VarIndex="1" Expression="muPairs.eta" Label="muPairs.eta" Title="Dimuon #eta" Unit="" Internal="muPairs.eta" Type="F" Min="3.40282347e+38" Max="-3.40282347e+38"/>
    <Variable VarIndex="2" Expression="muPairs.dEta" Label="muPairs.dEta" Title="Dimuon |#delta#eta|" Unit="" Internal="muPairs.dEta" Type="F" Min="3.40282347e+38" Max="-3.40282347e+38"/>
    <Variable VarIndex="3" Expression="muPairs.dPhi" Label="muPairs.dPhi" Title="Dimuon |#delta#phi|" Unit="" Internal="muPairs.dPhi" Type="F" Min="3.40282347e+38" Max="-3.40282347e+38"/>
    <Variable VarIndex="4" Expression="met.pt" Label="met.pt" Title="MET" Unit="GeV" Internal="met.pt" Type="F" Min="3.40282347e+38" Max="-3.40282347e+38"/>
    <Variable VarIndex="5" Expression="nJetsCent" Label="nJetsCent" Title="nJetsCent" Unit="" Internal="nJetsCent" Type="I" Min="3.40282347e+38" Max="-3.40282347e+38"/>
    <Variable VarIndex="6" Expression="nJetsFwd" Label="nJetsFwd" Title="nJetsFwd" Unit="" Internal="nJetsFwd" Type="I" Min="3.40282347e+38" Max="-3.40282347e+38"/>
    <Variable VarIndex="7" Expression="nBMed" Label="nBMed" Title="nBMed" Unit="" Internal="nBMed" Type="I" Min="3.40282347e+38" Max="-3.40282347e+38"/>
    <Variable VarIndex="8" Expression="jets.eta_0" Label="jets.eta_0" Title="Jet #eta[0]" Unit="" Internal="jets.eta_0" Type="F" Min="3.40282347e+38" Max="-3.40282347e+38"/>
    <Variable VarIndex="9" Expression="jets.eta_1" Label="jets.eta_1" Title="Jet #eta[1]" Unit="" Internal="jets.eta_1" Type="F" Min="3.40282347e+38" Max="-3.40282347e+38"/>
    <Variable VarIndex="10" Expression="jetPairs.dEta_0" Label="jetPairs.dEta_0" Title="jj |#delta#eta|[0]" Unit="" Internal="jetPairs.dEta_0" Type="F" Min="3.40282347e+38" Max="-3.40282347e+38"/>
    <Variable VarIndex="11" Expression="jetPairs.dEta_1" Label="jetPairs.dEta_1" Title="jj |#delta#eta|[1]" Unit="" Internal="jetPairs.dEta_1" Type="F" Min="3.40282347e+38" Max="-3.40282347e+38"/>
    <Variable VarIndex="12" Expression="jetPairs.mass_0" Label="jetPairs.mass_0" Title="jj mass[0]" Unit="GeV" Internal="jetPairs.mass_0" Type="F" Min="3.40282347e+38" Max="-3.40282347e+38"/>
    <Variable VarIndex="13" Expression="jetPairs.mass_1" Label="jetPairs.mass_1" Title="jj mass[1]" Unit="GeV" Internal="jetPairs.mass_1" Type="F" Min="3.40282347e+38" Max="-3.40282347e+38"/>
  </Variables>
  <Spectators NSpec="0"/>
  <Classes NClass="2">
    <Class Name="Signal" Index="0"/>
    <Class Name="Background" Index="1"/>
  </Classes>
  <Transformations NTransformations="0"/>
  <MVAPdfs/>
  <Weights NTrees="500" AnalysisType="1">
    <BinaryTree type="DecisionTree" boostWeight="1.0000000000000000e+00" itree="0">
      <Node pos="s" depth="0" NCoef="0" IVar="0" Cut="3.0918420791625977e+01" cType="1" res="-1.8869340419769287e-03" rms="4.9999645352363586e-01" purity="4.9811306595802307e-01" nType="0">
        <Node pos="l" depth="1" NCoef="0" IVar="0" Cut="1.4776493072509766e+01" cType="1" res="-1.7576302587985992e-01" rms="4.6808904409408569e-01" purity="3.2423698902130127e-01" nType="0">
          <Node pos="l" depth="2" NCoef="0" IVar="0" Cut="6.3702354431152344e+00" cType="1" res="-2.5610029697418213e-01" rms="4.2943292856216431e-01" purity="2.4389967322349548e-01" nType="0">
            <Node pos="l" depth="3" NCoef="0" IVar="-1" Cut="0.0000000000000000e+00" cType="1" res="-6.5972574055194855e-02" rms="3.7575322389602661e-01" purity="1.7013712227344513e-01" nType="-99"/>
            <Node pos="r" depth="3" NCoef="0" IVar="4" Cut="1.9755512237548828e+01" cType="1" res="-2.1141746640205383e-01" rms="4.5310336351394653e-01" purity="2.8858253359794617e-01" nType="0">
              <Node pos="l" depth="4" NCoef="0" IVar="-1" Cut="0.0000000000000000e+00" cType="1" res="-4.9628622829914093e-02" rms="4.3407946825027466e-01" purity="2.5185689330101013e-01" nType="-99"/>
              <Node pos="r" depth="4" NCoef="0" IVar="-1" Cut="0.0000000000000000e+00" cType="1" res="-3.6795079708099365e-02" rms="4.6492263674736023e-01" purity="3.1602460145950317e-01" nType="-99"/>
            </Node>
          </Node>
          <Node pos="r" depth="2" NCoef="0" IVar="1" Cut="-5.4510492086410522e-01" cType="1" res="-6.7607343196868896e-02" rms="4.9540814757347107e-01" purity="4.3239265680313110e-01" nType="0">
            <Node pos="l" depth="3" NCoef="0" IVar="-1" Cut="0.0000000000000000e+00" cType="1" res="-2.6061680167913437e-02" rms="4.8272114992141724e-01" purity="3.6969161033630371e-01" nType="-99"/>
            <Node pos="r" depth="3" NCoef="0" IVar="1" Cut="2.2859230041503906e+00" cType="1" res="-7.4474392458796501e-03" rms="4.9994453787803650e-01" purity="4.9255257844924927e-01" nType="0">
              <Node pos="l" depth="4" NCoef="0" IVar="-1" Cut="0.0000000000000000e+00" cType="1" res="1.0816140100359917e-02" rms="4.9706667661666870e-01" purity="5.5408066511154175e-01" nType="-99"/>
              <Node pos="r" depth="4" NCoef="0" IVar="-1" Cut="0.0000000000000000e+00" cType="1" res="-1.3594756834208965e-02" rms="4.9535802006721497e-01" purity="4.3202620744705200e-01" nType="-99"/>
            </Node>
          </Node>
        </Node>
        <Node pos="r" depth="1" NCoef="0" IVar="10" Cut="2.1802079677581787e+00" cType="1" res="1.7745107412338257e-01" rms="4.6745172142982483e-01" purity="6.7745107412338257e-01" nType="0">
          <Node pos="l" depth="2" NCoef="0" IVar="0" Cut="5.6275547027587891e+01" cType="1" res="8.4366850554943085e-02" rms="4.9283084273338318e-01" purity="5.8436679840087891e-01" nType="0">
            <Node pos="l" depth="3" NCoef="0" IVar="8" Cut="-1.3325712680816650e+00" cType="1" res="-8.2029066979885101e-03" rms="4.9993270635604858e-01" purity="4.9179708957672119e-01" nType="0">
              <Node pos="l" depth="4" NCoef="0" IVar="-1" Cut="0.0000000000000000e+00" cType="1" res="1.4497482217848301e-02" rms="4.9471765756607056e-01" purity="5.7248741388320923e-01" nType="-99"/>
              <Node pos="r" depth="4" NCoef="0" IVar="-1" Cut="0.0000000000000000e+00" cType="1" res="-2.1585524082183838e-02" rms="4.8821267485618591e-01" purity="3.9207240939140320e-01" nType="-99"/>
            </Node>
            <Node pos="r" depth="3" NCoef="0" IVar="3" Cut="2.2432775497436523e+00" cType="1" res="1.8191890418529510e-01" rms="4.6573114395141602e-01" purity="6.8191891908645630e-01" nType="0">
              <Node pos="l" depth="4" NCoef="0" IVar="-1" Cut="0.0000000000000000e+00" cType="1" res="5.5688105523586273e-02" rms="4.1529610753059387e-01" purity="7.7844053506851196e-01" nType="-99"/>
              <Node pos="r" depth="4" NCoef="0" IVar="-1" Cut="0.0000000000000000e+00" cType="1" res="6.9830408319830894e-03" rms="4.9877944588661194e-01" purity="5.3491520881652832e-01" nType="-99"/>
            </Node>
          </Node>
          <Node pos="r" depth="2" NCoef="0" IVar="0" Cut="8.9791198730468750e+01" cType="1" res="3.8257023692131042e-01" rms="3.2193168997764587e-01" purity="8.8257020711898804e-01" nType="0">
            <Node pos="l" depth="3" NCoef="0" IVar="-1" Cut="0.0000000000000000e+00" cType="1" res="6.1941210180521011e-02" rms="3.9253300428390503e-01" purity="8.0970609188079834e-01" nType="-99"/>
            <Node pos="r" depth="3" NCoef="0" IVar="-1" Cut="0.0000000000000000e+00" cType="1" res="8.9834623038768768e-02" rms="2.1964405477046967e-01" purity="9.4917315244674683e-01" nType="-99"/>
          </Node>
        </Node>
      </Node>
    </BinaryTree>
    <BinaryTree type="DecisionTree" boostWeight="1.0000000000000000e+00" itree="1">
      <Node pos="s" depth="0" NCoef="0" IVar="10" Cut="1.7579339742660522e+00" cType="1" res="-1.3685969635844231e-02" rms="4.8944941163063049e-01" purity="4.8583447933197021e-01" nType="0">
        <Node pos="l" depth="1" NCoef="0" IVar="0" Cut="5.5254714965820312e+01" cType="1" res="-8.7218068540096283e-02" rms="4.8499721288681030e-01" purity="4.0554839372634888e-01" nType="0">
          <Node pos="l" depth="2" NCoef="0" IVar="0" Cut="1.3212632179260254e+01" cType="1" res="-1.4437097311019897e-01" rms="4.7106182575225830e-01" purity="3.4191307425498962e-01" nType="0">
            <Node pos="l" depth="3" NCoef="0" IVar="0" Cut="5.6774625778198242e+00" cType="1" res="-2.7166855335235596e-01" rms="4.0066286921501160e-01" purity="2.0209628343582153e-01" nType="0">
              <Node pos="l" depth="4" NCoef="0" IVar="-1" Cut="0.0000000000000000e+00" cType="1" res="-6.7294195294380188e-02" rms="3.3854591846466064e-01" purity="1.3205070793628693e-01" nType="-99"/>
              <Node pos="r" depth="4" NCoef="0" IVar="2" Cut="9.5037442445755005e-01" cType="1" res="-2.3499767482280731e-01" rms="4.2830625176429749e-01" purity="2.4264793097972870e-01" nType="0">
                <Node pos="l" depth="5" NCoef="0" IVar="-1" Cut="0.0000000000000000e+00" cType="1" res="-4.1405994445085526e-02" rms="4.4401437044143677e-01" purity="2.7128216624259949e-01" nType="-99"/>
                <Node pos="r" depth="5" NCoef="0" IVar="-1" Cut="0.0000000000000000e+00" cType="1" res="-5.3502563387155533e-02" rms="4.0755820274353027e-01" purity="2.1043340861797333e-01" nType="-99"/>
              </Node>
            </Node>
            <Node pos="r" depth="3" NCoef="0" IVar="2" Cut="1.7174243927001953e+00" cType="1" res="-5.7900387793779373e-02" rms="4.9507668614387512e-01" purity="4.3688774108886719e-01" nType="0">
              <Node pos="l" depth="4" NCoef="0" IVar="1" Cut="2.1991822719573975e+00" cType="1" res="-2.9251294210553169e-02" rms="4.9748721718788147e-01" purity="4.6504211425781250e-01" nType="0">
                <Node pos="l" depth="5" NCoef="0" IVar="-1" Cut="0.0000000000000000e+00" cType="1" res="2.6966718723997474e-04" rms="4.9864360690116882e-01" purity="4.9595785140991211e-01" nType="-99"/>
                <Node pos="r" depth="5" NCoef="0" IVar="-1" Cut="0.0000000000000000e+00" cType="1" res="-2.4799736216664314e-02" rms="4.8172849416732788e-01" purity="3.6936044692993164e-01" nType="-99"/>
              </Node>
              <Node pos="r" depth="4" NCoef="0" IVar="-1" Cut="0.0000000000000000e+00" cType="1" res="-3.3640082925558090e-02" rms="4.6966591477394104e-01" purity="3.2855984568595886e-01" nType="-99"/>
            </Node>
          </Node>
          <Node pos="r" depth="2" NCoef="0" IVar="3" Cut="2.3936252593994141e+00" cType="1" res="1.3088934123516083e-01" rms="4.7542563080787659e-01" purity="6.4839392900466919e-01" nType="0">
            <Node pos="l" depth="3" NCoef="0" IVar="3" Cut="1.7114334106445312e+00" cType="1" res="2.1673971414566040e-01" rms="4.3837574124336243e-01" purity="7.4205768108367920e-01" nType="0">
              <Node pos="l" depth="4" NCoef="0" IVar="-1" Cut="0.0000000000000000e+00" cType="1" res="2.7341146022081375e-02" rms="4.7233816981315613e-01" purity="6.6406780481338501e-01" nType="-99"/>
              <Node pos="r" depth="4" NCoef="0" IVar="-1" Cut="0.0000000000000000e+00" cType="1" res="5.8475043624639511e-02" rms="3.8954681158065796e-01" purity="8.1465548276901245e-01" nType="-99"/>
            </Node>
            <Node pos="r" depth="3" NCoef="0" IVar="-1" Cut="0.0000000000000000e+00" cType="1" res="-4.8447130247950554e-03" rms="4.9982386827468872e-01" purity="4.7916543483734131e-01" nType="-99"/>
          </Node>
        </Node>
        <Node pos="r" depth="1" NCoef="0" IVar="9" Cut="1.5542253255844116e+00" cType="1" res="3.4839427471160889e-01" rms="3.2124292850494385e-01" purity="8.8117206096649170e-01" nType="0">
          <Node pos="l" depth="2" NCoef="0" IVar="8" Cut="1.1250070333480835e+00" cType="1" res="3.0214151740074158e-01" rms="3.6913332343101501e-01" purity="8.3392226696014404e-01" nType="0">
            <Node pos="l" depth="3" NCoef="0" IVar="-1" Cut="0.0000000000000000e+00" cType="1" res="3.9066009223461151e-02" rms="4.4438692927360535e-01" purity="7.2491294145584106e-01" nType="-99"/>
            <Node pos="r" depth="3" NCoef="0" IVar="-1" Cut="0.0000000000000000e+00" cType="1" res="8.1112511456012726e-02" rms="2.4008330702781677e-01" purity="9.3625015020370483e-01" nType="-99"/>
          </Node>
          <Node pos="r" depth="2" NCoef="0" IVar="-1" Cut="0.0000000000000000e+00" cType="1" res="8.9102938771247864e-02" rms="1.4918702840805054e-01" purity="9.7780448198318481e-01" nType="-99"/>
        </Node>
      </Node>
    </BinaryTree>
    <BinaryTree type="DecisionTree" boostWeight="1.0000000000000000e+00" itree="2">
      <Node pos="s" depth="0" NCoef="0" IVar="0" Cut="2.9088554382324219e+01" cType="1" res="8.3241742104291916e-03" rms="4.7967308759689331e-01" purity="5.0761038064956665e-01" nType="0">
        <Node pos="l" depth="1" NCoef="0" IVar="0" Cut="1.5271515846252441e+01" cType="1" res="-1.4585335552692413e-01" rms="4.6032521128654480e-01" purity="3.2070875167846680e-01" nType="0">
          <Node pos="l" depth="2" NCoef="0" IVar="0" Cut="8.0299768447875977e+00" cType="1" res="-2.1786442399024963e-01" rms="4.2098867893218994e-01" purity="2.3440602421760559e-01" nType="0">
            <Node pos="l" depth="3" NCoef="0" IVar="-1" Cut="0.0000000000000000e+00" cType="1" res="-5.4646059870719910e-02" rms="3.7609869241714478e-01" purity="1.7206968367099762e-01" nType="-99"/>
            <Node pos="r" depth="3" NCoef="0" IVar="1" Cut="1.3889213800430298e+00" cType="1" res="-1.7044827342033386e-01" rms="4.5333430171012878e-01" purity="2.9184278845787048e-01" nType="0">
              <Node pos="l" depth="4" NCoef="0" IVar="-1" Cut="0.0000000000000000e+00" cType="1" res="-2.7976289391517639e-02" rms="4.6562200784683228e-01" purity="3.2453781366348267e-01" nType="-99"/>
              <Node pos="r" depth="4" NCoef="0" IVar="-1" Cut="0.0000000000000000e+00" cType="1" res="-4.0991842746734619e-02" rms="4.3756204843521118e-01" purity="2.5736010074615479e-01" nType="-99"/>
            </Node>
          </Node>
          <Node pos="r" depth="2" NCoef="0" IVar="4" Cut="3.2286708831787109e+01" cType="1" res="-3.0031155794858932e-02" rms="4.9588668346405029e-01" purity="4.5951759815216064e-01" nType="0">
            <Node pos="l" depth="3" NCoef="0" IVar="1" Cut="-1.1994962692260742e+00" cType="1" res="-6.5376639366149902e-02" rms="4.9154928326606750e-01" purity="4.2334905266761780e-01" nType="0">
              <Node pos="l" depth="4" NCoef="0" IVar="-1" Cut="0.0000000000000000e+00" cType="1" res="-1.8106695264577866e-02" rms="4.8770195245742798e-01" purity="3.9541962742805481e-01" nType="-99"/>
              <Node pos="r" depth="4" NCoef="0" IVar="-1" Cut="0.0000000000000000e+00" cType="1" res="-8.5715418681502342e-03" rms="4.9390333890914917e-01" purity="4.4851517677307129e-01" nType="-99"/>
            </Node>
            <Node pos="r" depth="3" NCoef="0" IVar="-1" Cut="0.0000000000000000e+00" cType="1" res="1.2669795192778111e-02" rms="4.9518242478370667e-01" purity="5.5499839782714844e-01" nType="-99"/>
          </Node>
        </Node>
        <Node pos="r" depth="1" NCoef="0" IVar="10" Cut="2.8776562213897705e+00" cType="1" res="1.5484987199306488e-01" rms="4.5089894533157349e-01" purity="6.8523603677749634e-01" nType="0">
          <Node pos="l" depth="2" NCoef="0" IVar="6" Cut="1.0000000000000000e+00" cType="1" res="6.1931811273097992e-02" rms="4.6697938442230225e-01" purity="5.9949791431427002e-01" nType="0">
            <Node pos="l" depth="3" NCoef="0" IVar="1" Cut="1.7764945030212402e+00" cType="1" res="3.5240460187196732e-02" rms="4.9048545956611633e-01" purity="5.4857492446899414e-01" nType="0">
              <Node pos="l" depth="4" NCoef="0" IVar="0" Cut="5.5401687622070312e+01" cType="1" res="7.7988438308238983e-02" rms="4.8419332504272461e-01" purity="5.9392505884170532e-01" nType="0">
                <Node pos="l" depth="5" NCoef="0" IVar="-1" Cut="0.0000000000000000e+00" cType="1" res="-3.1154623720794916e-03" rms="4.9729439616203308e-01" purity="4.8042103648185730e-01" nType="-99"/>
                <Node pos="r" depth="5" NCoef="0" IVar="-1" Cut="0.0000000000000000e+00" cType="1" res="3.6360982805490494e-02" rms="4.4754704833030701e-01" purity="7.1817433834075928e-01" nType="-99"/>
              </Node>
              <Node pos="r" depth="4" NCoef="0" IVar="-1" Cut="0.0000000000000000e+00" cType="1" res="-2.6744043454527855e-02" rms="4.7866591811180115e-01" purity="3.6966833472251892e-01" nType="-99"/>
            </Node>
            <Node pos="r" depth="3" NCoef="0" IVar="2" Cut="8.5655921697616577e-01" cType="1" res="2.2075247764587402e-01" rms="4.3344402313232422e-01" purity="7.4184185266494751e-01" nType="0">
              <Node pos="l" depth="4" NCoef="0" IVar="-1" Cut="0.0000000000000000e+00" cType="1" res="4.1505280882120132e-02" rms="4.4173455238342285e-01" purity="7.2719210386276245e-01" nType="-99"/>
              <Node pos="r" depth="4" NCoef="0" IVar="-1" Cut="0.0000000000000000e+00" cType="1" res="4.7246824949979782e-02" rms="4.2461469769477844e-01" purity="7.5632220506668091e-01" nType="-99"/>
            </Node>
          </Node>
          <Node pos="r" depth="2" NCoef="0" IVar="0" Cut="1.1214417266845703e+02" cType="1" res="3.6789521574974060e-01" rms="2.2872222959995270e-01" purity="9.4348829984664917e-01" nType="0">
            <Node pos="l" depth="3" NCoef="0" IVar="-1" Cut="0.0000000000000000e+00" cType="1" res="6.5947450697422028e-02" rms="3.0546396970748901e-01" purity="8.9383882284164429e-01" nType="-99"/>
            <Node pos="r" depth="3" NCoef="0" IVar="-1" Cut="0.0000000000000000e+00" cType="1" res="8.9230239391326904e-02" rms="nan" purity="1.0163115262985229e+00" nType="-99"/>
          </Node>
        </Node>
      </Node>
    </BinaryTree>
    <BinaryTree type="DecisionTree" boostWeight="1.0000000000000000e+00" itree="3">
      <Node pos="s" depth="0" NCoef="0" IVar="0" Cut="3.1093935012817383e+01" cType="1" res="4.6453648246824741e-03" rms="4.7186407446861267e-01" purity="5.0459289550781250e-01" nType="0">
        <Node pos="l" depth="1" NCoef="0" IVar="0" Cut="1.3468071937561035e+01" cType="1" res="-1.3860084116458893e-01" rms="4.5611652731895447e-01" purity="3.1524038314819336e-01" nType="0">
          <Node pos="l" depth="2" NCoef="0" IVar="0" Cut="5.9356741905212402e+00" cType="1" res="-2.0624269545078278e-01" rms="4.1210395097732544e-01" purity="2.2061328589916229e-01" nType="0">
            <Node pos="l" depth="3" NCoef="0" IVar="-1" Cut="0.0000000000000000e+00" cType="1" res="-5.6687247008085251e-02" rms="3.4075349569320679e-01" purity="1.3411083817481995e-01" nType="-99"/>
            <Node pos="r" depth="3" NCoef="0" IVar="2" Cut="1.0392174720764160e+00" cType="1" res="-1.6849681735038757e-01" rms="4.4256404042243958e-01" purity="2.6893717050552368e-01" nType="0">
              <Node pos="l" depth="4" NCoef="0" IVar="-1" Cut="0.0000000000000000e+00" cType="1" res="-2.8926480561494827e-02" rms="4.5658442378044128e-01" purity="2.9740756750106812e-01" nType="-99"/>
              <Node pos="r" depth="4" NCoef="0" IVar="-1" Cut="0.0000000000000000e+00" cType="1" res="-4.1735664010047913e-02" rms="4.1949826478958130e-01" purity="2.2916722297668457e-01" nType="-99"/>
            </Node>
          </Node>
          <Node pos="r" depth="2" NCoef="0" IVar="8" Cut="-4.5407605171203613e+00" cType="1" res="-6.4305178821086884e-02" rms="4.8935517668724060e-01" purity="4.1917577385902405e-01" nType="0">
            <Node pos="l" depth="3" NCoef="0" IVar="1" Cut="1.4732049703598022e+00" cType="1" res="-1.1072848737239838e-01" rms="4.8128101229667664e-01" purity="3.6953762173652649e-01" nType="0">
              <Node pos="l" depth="4" NCoef="0" IVar="-1" Cut="0.0000000000000000e+00" cType="1" res="-1.8448213115334511e-02" rms="4.8642602562904358e-01" purity="3.8896650075912476e-01" nType="-99"/>
              <Node pos="r" depth="4" NCoef="0" IVar="-1" Cut="0.0000000000000000e+00" cType="1" res="-2.7847321704030037e-02" rms="4.7205790877342224e-01" purity="3.4035176038742065e-01" nType="-99"/>
            </Node>
            <Node pos="r" depth="3" NCoef="0" IVar="-1" Cut="0.0000000000000000e+00" cType="1" res="2.0068887621164322e-02" rms="4.8224109411239624e-01" purity="5.9499323368072510e-01" nType="-99"/>
          </Node>
        </Node>
        <Node pos="r" depth="1" NCoef="0" IVar="6" Cut="1.0000000000000000e+00" cType="1" res="1.4370404183864594e-01" rms="4.2879867553710938e-01" purity="7.1090823411941528e-01" nType="0">
          <Node pos="l" depth="2" NCoef="0" IVar="0" Cut="8.3145408630371094e+01" cType="1" res="8.3198383450508118e-02" rms="4.7730526328086853e-01" purity="6.1160463094711304e-01" nType="0">
            <Node pos="l" depth="3" NCoef="0" IVar="1" Cut="-9.2954307794570923e-01" cType="1" res="3.7676144391298294e-02" rms="4.9218645691871643e-01" purity="5.5030715465545654e-01" nType="0">
              <Node pos="l" depth="4" NCoef="0" IVar="-1" Cut="0.0000000000000000e+00" cType="1" res="2.3857988417148590e-02" rms="4.8070564866065979e-01" purity="6.3533979654312134e-01" nType="-99"/>
              <Node pos="r" depth="4" NCoef="0" IVar="8" Cut="-1.1277462244033813e+00" cType="1" res="4.9512661062180996e-03" rms="4.9299669265747070e-01" purity="5.1591837406158447e-01" nType="0">
                <Node pos="l" depth="5" NCoef="0" IVar="-1" Cut="0.0000000000000000e+00" cType="1" res="1.0981747880578041e-02" rms="4.9328288435935974e-01" purity="5.6405800580978394e-01" nType="-99"/>
                <Node pos="r" depth="5" NCoef="0" IVar="-1" Cut="0.0000000000000000e+00" cType="1" res="-7.6533737592399120e-03" rms="4.8869964480400085e-01" purity="4.7440698742866516e-01" nType="-99"/>
              </Node>
            </Node>
            <Node pos="r" depth="3" NCoef="0" IVar="-1" Cut="0.0000000000000000e+00" cType="1" res="4.1322007775306702e-02" rms="4.1323095560073853e-01" purity="7.7132225036621094e-01" nType="-99"/>
          </Node>
          <Node pos="r" depth="2" NCoef="0" IVar="4" Cut="3.2743457794189453e+01" cType="1" res="2.7025467157363892e-01" rms="3.4722584486007690e-01" purity="8.5120731592178345e-01" nType="0">
            <Node pos="l" depth="3" NCoef="0" IVar="1" Cut="3.1928282976150513e-01" cType="1" res="3.2720309495925903e-01" rms="2.8363078832626343e-01" purity="9.0694737434387207e-01" nType="0">
              <Node pos="l" depth="4" NCoef="0" IVar="-1" Cut="0.0000000000000000e+00" cType="1" res="8.2055270671844482e-02" rms="1.4467982947826385e-01" purity="9.7906404733657837e-01" nType="-99"/>
              <Node pos="r" depth="4" NCoef="0" IVar="-1" Cut="0.0000000000000000e+00" cType="1" res="5.1962271332740784e-02" rms="3.6642080545425415e-01" purity="8.2855802774429321e-01" nType="-99"/>
            </Node>
            <Node pos="r" depth="3" NCoef="0" IVar="-1" Cut="0.0000000000000000e+00" cType="1" res="3.7226274609565735e-02" rms="4.1343668103218079e-01" purity="7.6272773742675781e-01" nType="-99"/>
          </Node>
        </Node>
      </Node>
    </BinaryTree>
    <BinaryTree type="DecisionTree" boostWeight="1.0000000000000000e+00" itree="4">
      <Node pos="s" depth="0" NCoef="0" IVar="0" Cut="2.9302375793457031e+01" cType="1" res="1.1632863432168961e-02" rms="4.6367716789245605e-01" purity="5.1294642686843872e-01" nType="0">
        <Node pos="l" depth="1" NCoef="0" IVar="0" Cut="1.5484471321105957e+01" cType="1" res="-1.2908923625946045e-01" rms="4.5056775212287903e-01" purity="3.0786839127540588e-01" nType="0">
          <Node pos="l" depth="2" NCoef="0" IVar="1" Cut="-3.0022172927856445e+00" cType="1" res="-1.9766747951507568e-01" rms="4.0731281042098999e-01" purity="2.1422652900218964e-01" nType="0">
            <Node pos="l" depth="3" NCoef="0" IVar="-1" Cut="0.0000000000000000e+00" cType="1" res="-5.2176341414451599e-02" rms="3.6117640137672424e-01" purity="1.5506333112716675e-01" nType="-99"/>
            <Node pos="r" depth="3" NCoef="0" IVar="1" Cut="1.4154285192489624e+00" cType="1" res="-1.7502042651176453e-01" rms="4.2340660095214844e-01" purity="2.3940271139144897e-01" nType="0">
              <Node pos="l" depth="4" NCoef="0" IVar="-1" Cut="0.0000000000000000e+00" cType="1" res="-1.9418660551309586e-02" rms="4.7047546505928040e-01" purity="3.3276841044425964e-01" nType="-99"/>
              <Node pos="r" depth="4" NCoef="0" IVar="-1" Cut="0.0000000000000000e+00" cType="1" res="-4.3694227933883667e-02" rms="3.9554372429847717e-01" purity="1.9794160127639771e-01" nType="-99"/>
            </Node>
          </Node>
          <Node pos="r" depth="2" NCoef="0" IVar="4" Cut="2.6542924880981445e+01" cType="1" res="-9.8253767937421799e-03" rms="4.9511817097663879e-01" purity="4.7072023153305054e-01" nType="0">
            <Node pos="l" depth="3" NCoef="0" IVar="-1" Cut="0.0000000000000000e+00" cType="1" res="-8.3062537014484406e-03" rms="4.9295085668563843e-01" purity="4.3433710932731628e-01" nType="-99"/>
            <Node pos="r" depth="3" NCoef="0" IVar="-1" Cut="0.0000000000000000e+00" cType="1" res="7.4298949912190437e-03" rms="4.9461558461189270e-01" purity="5.2476304769515991e-01" nType="-99"/>
          </Node>
        </Node>
        <Node pos="r" depth="1" NCoef="0" IVar="1" Cut="-1.6730933189392090e+00" cType="1" res="1.4979711174964905e-01" rms="4.3385681509971619e-01" purity="7.1429687738418579e-01" nType="0">
          <Node pos="l" depth="2" NCoef="0" IVar="3" Cut="2.5497620105743408e+00" cType="1" res="-1.5502611175179482e-02" rms="4.8961696028709412e-01" purity="5.3143745660781860e-01" nType="0">
            <Node pos="l" depth="3" NCoef="0" IVar="-1" Cut="0.0000000000000000e+00" cType="1" res="-2.1958264987915754e-03" rms="4.8414346575737000e-01" purity="5.5602169036865234e-01" nType="-99"/>
            <Node pos="r" depth="3" NCoef="0" IVar="-1" Cut="0.0000000000000000e+00" cType="1" res="-4.0971459820866585e-03" rms="4.9494397640228271e-01" purity="5.0703269243240356e-01" nType="-99"/>
          </Node>
          <Node pos="r" depth="2" NCoef="0" IVar="0" Cut="8.4543212890625000e+01" cType="1" res="1.9115056097507477e-01" rms="4.0841618180274963e-01" purity="7.6004326343536377e-01" nType="0">
            <Node pos="l" depth="3" NCoef="0" IVar="8" Cut="-8.8543397188186646e-01" cType="1" res="1.2989494204521179e-01" rms="4.5705363154411316e-01" purity="6.7428970336914062e-01" nType="0">
              <Node pos="l" depth="4" NCoef="0" IVar="2" Cut="1.0692478418350220e+00" cType="1" res="2.1120467782020569e-01" rms="4.2111283540725708e-01" purity="7.5349992513656616e-01" nType="0">
                <Node pos="l" depth="5" NCoef="0" IVar="-1" Cut="0.0000000000000000e+00" cType="1" res="5.8632913976907730e-02" rms="3.7208506464958191e-01" purity="8.3041077852249146e-01" nType="-99"/>
                <Node pos="r" depth="5" NCoef="0" IVar="-1" Cut="0.0000000000000000e+00" cType="1" res="2.2466683760285378e-02" rms="4.5851388573646545e-01" purity="6.5287208557128906e-01" nType="-99"/>
              </Node>
              <Node pos="r" depth="4" NCoef="0" IVar="8" Cut="1.7307789325714111e+00" cType="1" res="5.7436589151620865e-02" rms="4.7527083754539490e-01" purity="6.0370230674743652e-01" nType="0">
                <Node pos="l" depth="5" NCoef="0" IVar="-1" Cut="0.0000000000000000e+00" cType="1" res="-5.0195464864373207e-03" rms="4.9216222763061523e-01" purity="5.0730264186859131e-01" nType="-99"/>
                <Node pos="r" depth="5" NCoef="0" IVar="-1" Cut="0.0000000000000000e+00" cType="1" res="3.7850681692361832e-02" rms="4.1760128736495972e-01" purity="7.5205558538436890e-01" nType="-99"/>
              </Node>
            </Node>
            <Node pos="r" depth="3" NCoef="0" IVar="0" Cut="1.3453596496582031e+02" cType="1" res="2.9951167106628418e-01" rms="2.7195459604263306e-01" purity="9.1174119710922241e-01" nType="0">
              <Node pos="l" depth="4" NCoef="0" IVar="-1" Cut="0.0000000000000000e+00" cType="1" res="4.8231564462184906e-02" rms="3.5938963294029236e-01" purity="8.3321076631546021e-01" nType="-99"/>
              <Node pos="r" depth="4" NCoef="0" IVar="-1" Cut="0.0000000000000000e+00" cType="1" res="8.8435448706150055e-02" rms="nan" purity="1.0378830432891846e+00" nType="-99"/>
            </Node>
          </Node>
        </Node>
      </Node>
    </BinaryTree>
    <BinaryTree type="DecisionTree" boostWeight="1.0000000000000000e+00" itree="5">
      <Node pos="s" depth="0" NCoef="0" IVar="10" Cut="2.2255289554595947e+00" cType="1" res="-1.3407755643129349e-02" rms="4.5967453718185425e-01" purity="4.8861241340637207e-01" nType="0">
        <Node pos="l" depth="1" NCoef="0" IVar="0" Cut="2.7724273681640625e+01" cType="1" res="-6.1823498457670212e-02" rms="4.6662992238998413e-01" purity="4.1223973035812378e-01" nType="0">
          <Node pos="l" depth="2" NCoef="0" IVar="0" Cut="1.1957755088806152e+01" cType="1" res="-1.3612823188304901e-01" rms="4.4247627258300781e-01" purity="2.8471416234970093e-01" nType="0">
            <Node pos="l" depth="3" NCoef="0" IVar="0" Cut="5.7678718566894531e+00" cType="1" res="-1.9318012893199921e-01" rms="3.8941428065299988e-01" purity="1.8868805468082428e-01" nType="0">
              <Node pos="l" depth="4" NCoef="0" IVar="-1" Cut="0.0000000000000000e+00" cType="1" res="-4.9571815878152847e-02" rms="3.3749336004257202e-01" purity="1.3129925727844238e-01" nType="-99"/>
              <Node pos="r" depth="4" NCoef="0" IVar="-1" Cut="0.0000000000000000e+00" cType="1" res="-3.5412650555372238e-02" rms="4.1925528645515442e-01" purity="2.2750653326511383e-01" nType="-99"/>
            </Node>
            <Node pos="r" depth="3" NCoef="0" IVar="3" Cut="2.8259782791137695e+00" cType="1" res="-7.8602157533168793e-02" rms="4.8342803120613098e-01" purity="3.8153839111328125e-01" nType="0">
              <Node pos="l" depth="4" NCoef="0" IVar="-1" Cut="0.0000000000000000e+00" cType="1" res="-2.7660630643367767e-02" rms="4.6765843033790588e-01" purity="3.3193391561508179e-01" nType="-99"/>
              <Node pos="r" depth="4" NCoef="0" IVar="3" Cut="2.9605274200439453e+00" cType="1" res="-5.0235632807016373e-02" rms="4.8832353949546814e-01" purity="4.0545350313186646e-01" nType="0">
                <Node pos="l" depth="5" NCoef="0" IVar="-1" Cut="0.0000000000000000e+00" cType="1" res="-1.9991931039839983e-03" rms="4.9366134405136108e-01" purity="4.4711130857467651e-01" nType="-99"/>
                <Node pos="r" depth="5" NCoef="0" IVar="-1" Cut="0.0000000000000000e+00" cType="1" res="-1.7663894221186638e-02" rms="4.8041287064552307e-01" purity="3.6727863550186157e-01" nType="-99"/>
              </Node>
            </Node>
          </Node>
          <Node pos="r" depth="2" NCoef="0" IVar="6" Cut="1.0000000000000000e+00" cType="1" res="2.2322621196508408e-02" rms="4.6589949727058411e-01" purity="5.7681453227996826e-01" nType="0">
            <Node pos="l" depth="3" NCoef="0" IVar="1" Cut="-1.8650739192962646e+00" cType="1" res="-1.3654300943017006e-02" rms="4.8868501186370850e-01" purity="5.1790201663970947e-01" nType="0">
              <Node pos="l" depth="4" NCoef="0" IVar="-1" Cut="0.0000000000000000e+00" cType="1" res="-2.7379948645830154e-02" rms="4.8024335503578186e-01" purity="3.7486720085144043e-01" nType="-99"/>
              <Node pos="r" depth="4" NCoef="0" IVar="1" Cut="1.2432934045791626e+00" cType="1" res="2.0699730142951012e-02" rms="4.8550024628639221e-01" purity="5.5796664953231812e-01" nType="0">
                <Node pos="l" depth="5" NCoef="0" IVar="-1" Cut="0.0000000000000000e+00" cType="1" res="1.4187854714691639e-02" rms="4.7414997220039368e-01" purity="6.2083774805068970e-01" nType="-99"/>
                <Node pos="r" depth="5" NCoef="0" IVar="-1" Cut="0.0000000000000000e+00" cType="1" res="-1.1537806130945683e-02" rms="4.9315744638442993e-01" purity="4.5770418643951416e-01" nType="-99"/>
              </Node>
            </Node>
            <Node pos="r" depth="3" NCoef="0" IVar="-1" Cut="0.0000000000000000e+00" cType="1" res="4.1352901607751846e-02" rms="4.0334886312484741e-01" purity="7.8196245431900024e-01" nType="-99"/>
          </Node>
        </Node>
        <Node pos="r" depth="1" NCoef="0" IVar="1" Cut="-6.8057453632354736e-01" cType="1" res="2.3376980423927307e-01" rms="3.2456779479980469e-01" purity="8.7851893901824951e-01" nType="0">
          <Node pos="l" depth="2" NCoef="0" IVar="-1" Cut="0.0000000000000000e+00" cType="1" res="3.5617481917142868e-02" rms="3.9865607023239136e-01" purity="8.0125391483306885e-01" nType="-99"/>
          <Node pos="r" depth="2" NCoef="0" IVar="-1" Cut="0.0000000000000000e+00" cType="1" res="6.2291726469993591e-02" rms="2.5205805897712708e-01" purity="9.3068695068359375e-01" nType="-99"/>
        </Node>
      </Node>
    </BinaryTree>
    <BinaryTree type="DecisionTree" boostWeight="1.0000000000000000e+00" itree="6">
      <Node pos="s" depth="0" NCoef="0" IVar="0" Cut="6.5062461853027344e+01" cType="1" res="-6.6322754137217999e-03" rms="4.5730030536651611e-01" purity="4.9405211210250854e-01" nType="0">
        <Node pos="l" depth="1" NCoef="0" IVar="0" Cut="1.5598104476928711e+01" cType="1" res="-6.1268351972103119e-02" rms="4.6612036228179932e-01" purity="3.9634937047958374e-01" nType="0">
          <Node pos="l" depth="2" NCoef="0" IVar="1" Cut="-3.1884813308715820e+00" cType="1" res="-1.5126335620880127e-01" rms="4.1407856345176697e-01" purity="2.2494602203369141e-01" nType="0">
            <Node pos="l" depth="3" NCoef="0" IVar="-1" Cut="0.0000000000000000e+00" cType="1" res="-4.2699776589870453e-02" rms="3.7168696522712708e-01" purity="1.6631832718849182e-01" nType="-99"/>
            <Node pos="r" depth="3" NCoef="0" IVar="1" Cut="1.2171435356140137e+00" cType="1" res="-1.3466045260429382e-01" rms="4.2739412188529968e-01" purity="2.4647352099418640e-01" nType="0">
              <Node pos="l" depth="4" NCoef="0" IVar="-1" Cut="0.0000000000000000e+00" cType="1" res="-1.9682353362441063e-02" rms="4.5765593647956848e-01" purity="3.0397957563400269e-01" nType="-99"/>
              <Node pos="r" depth="4" NCoef="0" IVar="0" Cut="8.9218044281005859e+00" cType="1" res="-1.5309666097164154e-01" rms="4.1168376803398132e-01" purity="2.2051666676998138e-01" nType="0">
                <Node pos="l" depth="5" NCoef="0" IVar="-1" Cut="0.0000000000000000e+00" cType="1" res="-3.6271162331104279e-02" rms="3.8985231518745422e-01" purity="1.8916483223438263e-01" nType="-99"/>
                <Node pos="r" depth="5" NCoef="0" IVar="-1" Cut="0.0000000000000000e+00" cType="1" res="-2.9180033132433891e-02" rms="4.3426397442817688e-01" purity="2.5540733337402344e-01" nType="-99"/>
              </Node>
            </Node>
          </Node>
          <Node pos="r" depth="2" NCoef="0" IVar="6" Cut="1.0000000000000000e+00" cType="1" res="-1.1103882454335690e-02" rms="3.0131983757019043e-01" purity="5.1323390007019043e-01" nType="0">
            <Node pos="l" depth="3" NCoef="0" IVar="2" Cut="1.9096859693527222e+00" cType="1" res="-3.0301976948976517e-02" rms="4.9507009983062744e-01" purity="4.6183961629867554e-01" nType="0">
              <Node pos="l" depth="4" NCoef="0" IVar="2" Cut="9.9888861179351807e-01" cType="1" res="-1.7769167199730873e-02" rms="4.9635612964630127e-01" purity="4.7642612457275391e-01" nType="0">
                <Node pos="l" depth="5" NCoef="0" IVar="-1" Cut="0.0000000000000000e+00" cType="1" res="-1.0979692451655865e-02" rms="4.9211066961288452e-01" purity="4.3956887722015381e-01" nType="-99"/>
                <Node pos="r" depth="5" NCoef="0" IVar="-1" Cut="0.0000000000000000e+00" cType="1" res="1.3628505170345306e-02" rms="4.9563914537429810e-01" purity="5.6202191114425659e-01" nType="-99"/>
              </Node>
              <Node pos="r" depth="4" NCoef="0" IVar="-1" Cut="0.0000000000000000e+00" cType="1" res="-1.8756020814180374e-02" rms="4.8371881246566772e-01" purity="3.8879379630088806e-01" nType="-99"/>
            </Node>
            <Node pos="r" depth="3" NCoef="0" IVar="-1" Cut="0.0000000000000000e+00" cType="1" res="2.2897139191627502e-02" rms="4.5042565464973450e-01" purity="6.9772905111312866e-01" nType="-99"/>
          </Node>
        </Node>
        <Node pos="r" depth="1" NCoef="0" IVar="10" Cut="3.6078987121582031e+00" cType="1" res="1.7091041803359985e-01" rms="3.7607917189598083e-01" purity="8.1154197454452515e-01" nType="0">
          <Node pos="l" depth="2" NCoef="0" IVar="8" Cut="-8.7480545043945312e-01" cType="1" res="1.1193469911813736e-01" rms="4.3939855694770813e-01" purity="7.2636824846267700e-01" nType="0">
            <Node pos="l" depth="3" NCoef="0" IVar="-1" Cut="0.0000000000000000e+00" cType="1" res="5.2881110459566116e-02" rms="3.3527907729148865e-01" purity="8.6594986915588379e-01" nType="-99"/>
            <Node pos="r" depth="3" NCoef="0" IVar="-1" Cut="0.0000000000000000e+00" cType="1" res="7.5319022871553898e-03" rms="4.7131723165512085e-01" purity="6.4787691831588745e-01" nType="-99"/>
          </Node>
          <Node pos="r" depth="2" NCoef="0" IVar="-1" Cut="0.0000000000000000e+00" cType="1" res="6.6604055464267731e-02" rms="1.5261176228523254e-01" purity="9.7445964813232422e-01" nType="-99"/>
        </Node>
      </Node>
    </BinaryTree>
    <BinaryTree type="DecisionTree" boostWeight="1.0000000000000000e+00" itree="7">
      <Node pos="s" depth="0" NCoef="0" IVar="0" Cut="6.0993099212646484e+01" cType="1" res="6.1193653382360935e-03" rms="4.5282691717147827e-01" purity="5.0762033462524414e-01" nType="0">
        <Node pos="l" depth="1" NCoef="0" IVar="10" Cut="8.2796132564544678e-01" cType="1" res="-4.7485634684562683e-02" rms="4.6612834930419922e-01" purity="4.0068945288658142e-01" nType="0">
          <Node pos="l" depth="2" NCoef="0" IVar="1" Cut="-3.1888003349304199e+00" cType="1" res="-6.3681431114673615e-02" rms="4.6564275026321411e-01" purity="3.7117528915405273e-01" nType="0">
            <Node pos="l" depth="3" NCoef="0" IVar="-1" Cut="0.0000000000000000e+00" cType="1" res="-3.5689461976289749e-02" rms="4.0077129006385803e-01" purity="2.0357646048069000e-01" nType="-99"/>
            <Node pos="r" depth="3" NCoef="0" IVar="6" Cut="1.0000000000000000e+00" cType="1" res="-2.8150020167231560e-02" rms="2.1788188815116882e-01" purity="4.0551948547363281e-01" nType="0">
              <Node pos="l" depth="4" NCoef="0" IVar="2" Cut="6.1231213808059692e-01" cType="1" res="-5.9441365301609039e-02" rms="4.7556039690971375e-01" purity="3.8037520647048950e-01" nType="0">
                <Node pos="l" depth="5" NCoef="0" IVar="-1" Cut="0.0000000000000000e+00" cType="1" res="-6.8024476058781147e-04" rms="4.8653930425643921e-01" purity="4.4091135263442993e-01" nType="-99"/>
                <Node pos="r" depth="5" NCoef="0" IVar="-1" Cut="0.0000000000000000e+00" cType="1" res="-1.7989572137594223e-02" rms="4.6761885285377502e-01" purity="3.5066309571266174e-01" nType="-99"/>
              </Node>
              <Node pos="r" depth="4" NCoef="0" IVar="-1" Cut="0.0000000000000000e+00" cType="1" res="2.1246392279863358e-02" rms="4.4692918658256531e-01" purity="6.3164836168289185e-01" nType="-99"/>
            </Node>
          </Node>
          <Node pos="r" depth="2" NCoef="0" IVar="-1" Cut="0.0000000000000000e+00" cType="1" res="2.9407136142253876e-02" rms="4.3048962950706482e-01" purity="7.3732078075408936e-01" nType="-99"/>
        </Node>
        <Node pos="r" depth="1" NCoef="0" IVar="5" Cut="1.0000000000000000e+00" cType="1" res="1.5045799314975739e-01" rms="3.7526309490203857e-01" purity="8.0211484432220459e-01" nType="0">
          <Node pos="l" depth="2" NCoef="0" IVar="-1" Cut="0.0000000000000000e+00" cType="1" res="6.1525192111730576e-02" rms="2.4564555287361145e-01" purity="9.3337577581405640e-01" nType="-99"/>
          <Node pos="r" depth="2" NCoef="0" IVar="0" Cut="8.8660583496093750e+01" cType="1" res="1.1802989244461060e-01" rms="4.0074890851974487e-01" purity="7.6266980171203613e-01" nType="0">
            <Node pos="l" depth="3" NCoef="0" IVar="-1" Cut="0.0000000000000000e+00" cType="1" res="4.5623065670952201e-04" rms="4.7256344556808472e-01" purity="6.0092955827713013e-01" nType="-99"/>
            <Node pos="r" depth="3" NCoef="0" IVar="10" Cut="1.9474459886550903e+00" cType="1" res="1.9242013990879059e-01" rms="3.2585707306861877e-01" purity="8.6650419235229492e-01" nType="0">
              <Node pos="l" depth="4" NCoef="0" IVar="-1" Cut="0.0000000000000000e+00" cType="1" res="1.9001491367816925e-02" rms="4.5006266236305237e-01" purity="7.1057611703872681e-01" nType="-99"/>
              <Node pos="r" depth="4" NCoef="0" IVar="-1" Cut="0.0000000000000000e+00" cType="1" res="6.6767774522304535e-02" rms="1.3407048583030701e-01" purity="9.8590576648712158e-01" nType="-99"/>
            </Node>
          </Node>
        </Node>
      </Node>
    </BinaryTree>
    <BinaryTree type="DecisionTree" boostWeight="1.0000000000000000e+00" itree="8">
      <Node pos="s" depth="0" NCoef="0" IVar="10" Cut="1.7899788618087769e+00" cType="1" res="-7.5015481561422348e-03" rms="4.4979441165924072e-01" purity="4.9757397174835205e-01" nType="0">
        <Node pos="l" depth="1" NCoef="0" IVar="0" Cut="2.6715690612792969e+01" cType="1" res="-5.0091970711946487e-02" rms="4.6386706829071045e-01" purity="4.1423699259757996e-01" nType="0">
          <Node pos="l" depth="2" NCoef="0" IVar="2" Cut="7.1886289119720459e-01" cType="1" res="-9.7742550075054169e-02" rms="4.4637358188629150e-01" purity="2.9309111833572388e-01" nType="0">
            <Node pos="l" depth="3" NCoef="0" IVar="3" Cut="3.0475292205810547e+00" cType="1" res="-4.5665688812732697e-02" rms="4.6967688202857971e-01" purity="3.5245615243911743e-01" nType="0">
              <Node pos="l" depth="4" NCoef="0" IVar="-1" Cut="0.0000000000000000e+00" cType="1" res="-1.7161524738185108e-04" rms="4.9310976266860962e-01" purity="4.2968201637268066e-01" nType="-99"/>
              <Node pos="r" depth="4" NCoef="0" IVar="-1" Cut="0.0000000000000000e+00" cType="1" res="-2.3228241130709648e-02" rms="4.2944532632827759e-01" purity="2.4990551173686981e-01" nType="-99"/>
            </Node>
            <Node pos="r" depth="3" NCoef="0" IVar="0" Cut="1.7853242874145508e+01" cType="1" res="-1.3080564141273499e-01" rms="4.2764633893966675e-01" purity="2.5540083646774292e-01" nType="0">
              <Node pos="l" depth="4" NCoef="0" IVar="1" Cut="-9.4428145885467529e-01" cType="1" res="-1.4702209830284119e-01" rms="4.0794172883033752e-01" purity="2.1609956026077271e-01" nType="0">
                <Node pos="l" depth="5" NCoef="0" IVar="-1" Cut="0.0000000000000000e+00" cType="1" res="-3.8564499467611313e-02" rms="3.8529667258262634e-01" purity="1.8434709310531616e-01" nType="-99"/>
                <Node pos="r" depth="5" NCoef="0" IVar="-1" Cut="0.0000000000000000e+00" cType="1" res="-2.6035534217953682e-02" rms="4.2655846476554871e-01" purity="2.4629507958889008e-01" nType="-99"/>
              </Node>
              <Node pos="r" depth="4" NCoef="0" IVar="-1" Cut="0.0000000000000000e+00" cType="1" res="-1.6312342137098312e-02" rms="4.7995877265930176e-01" purity="3.7664195895195007e-01" nType="-99"/>
            </Node>
          </Node>
          <Node pos="r" depth="2" NCoef="0" IVar="6" Cut="1.0000000000000000e+00" cType="1" res="-1.5034700045362115e-03" rms="4.6835961937904358e-01" purity="5.5709069967269897e-01" nType="0">
            <Node pos="l" depth="3" NCoef="0" IVar="1" Cut="1.5171523094177246e+00" cType="1" res="-3.4200176596641541e-02" rms="4.8847380280494690e-01" purity="4.9721616506576538e-01" nType="0">
              <Node pos="l" depth="4" NCoef="0" IVar="3" Cut="1.9473884105682373e+00" cType="1" res="-4.4348304072627798e-05" rms="4.8700290918350220e-01" purity="5.4327535629272461e-01" nType="0">
                <Node pos="l" depth="5" NCoef="0" IVar="-1" Cut="0.0000000000000000e+00" cType="1" res="1.9875764846801758e-02" rms="4.3277457356452942e-01" purity="6.9124555587768555e-01" nType="-99"/>
                <Node pos="r" depth="5" NCoef="0" IVar="-1" Cut="0.0000000000000000e+00" cType="1" res="-5.7764267548918724e-03" rms="4.9872744083404541e-01" purity="4.9865490198135376e-01" nType="-99"/>
              </Node>
              <Node pos="r" depth="4" NCoef="0" IVar="-1" Cut="0.0000000000000000e+00" cType="1" res="-2.5995243340730667e-02" rms="4.7995704412460327e-01" purity="3.6933955550193787e-01" nType="-99"/>
            </Node>
            <Node pos="r" depth="3" NCoef="0" IVar="-1" Cut="0.0000000000000000e+00" cType="1" res="3.5111211240291595e-02" rms="3.9546430110931396e-01" purity="7.9004859924316406e-01" nType="-99"/>
          </Node>
        </Node>
        <Node pos="r" depth="1" NCoef="0" IVar="12" Cut="7.2244091796875000e+02" cType="1" res="1.9409199059009552e-01" rms="3.0369371175765991e-01" purity="8.9203327894210815e-01" nType="0">
          <Node pos="l" depth="2" NCoef="0" IVar="10" Cut="3.7521638870239258e+00" cType="1" res="1.5353007614612579e-01" rms="3.7001717090606689e-01" purity="8.3482772111892700e-01" nType="0">
            <Node pos="l" depth="3" NCoef="0" IVar="-1" Cut="0.0000000000000000e+00" cType="1" res="5.2520181983709335e-02" rms="3.1293922662734985e-01" purity="8.9714175462722778e-01" nType="-99"/>
            <Node pos="r" depth="3" NCoef="0" IVar="-1" Cut="0.0000000000000000e+00" cType="1" res="1.7931871116161346e-02" rms="4.0702143311500549e-01" purity="7.6949751377105713e-01" nType="-99"/>
          </Node>
          <Node pos="r" depth="2" NCoef="0" IVar="-1" Cut="0.0000000000000000e+00" cType="1" res="6.4374566078186035e-02" rms="1.3906785845756531e-01" purity="9.7750228643417358e-01" nType="-99"/>
        </Node>
      </Node>
    </BinaryTree>
    <BinaryTree type="DecisionTree" boostWeight="1.0000000000000000e+00" itree="9">
      <Node pos="s" depth="0" NCoef="0" IVar="10" Cut="1.9082421064376831e+00" cType="1" res="3.1233381014317274e-03" rms="4.4560199975967407e-01" purity="5.0558400154113770e-01" nType="0">
        <Node pos="l" depth="1" NCoef="0" IVar="8" Cut="9.9008786678314209e-01" cType="1" res="-3.2690547406673431e-02" rms="4.6184796094894409e-01" purity="4.2753645777702332e-01" nType="0">
          <Node pos="l" depth="2" NCoef="0" IVar="6" Cut="1.0000000000000000e+00" cType="1" res="-5.8008618652820587e-02" rms="4.4934746623039246e-01" purity="3.8864272832870483e-01" nType="0">
            <Node pos="l" depth="3" NCoef="0" IVar="1" Cut="-1.3732706308364868e+00" cType="1" res="-6.6899664700031281e-02" rms="4.6046733856201172e-01" purity="3.6508443951606750e-01" nType="0">
              <Node pos="l" depth="4" NCoef="0" IVar="5" Cut="1.0000000000000000e+00" cType="1" res="-8.0451518297195435e-02" rms="4.1909691691398621e-01" purity="3.0517715215682983e-01" nType="0">
                <Node pos="l" depth="5" NCoef="0" IVar="-1" Cut="0.0000000000000000e+00" cType="1" res="-1.9317656755447388e-02" rms="4.4136837124824524e-01" purity="2.9367220401763916e-01" nType="-99"/>
                <Node pos="r" depth="5" NCoef="0" IVar="-1" Cut="0.0000000000000000e+00" cType="1" res="-3.5834576934576035e-02" rms="4.7596207261085510e-01" purity="3.4399631619453430e-01" nType="-99"/>
              </Node>
              <Node pos="r" depth="4" NCoef="0" IVar="1" Cut="2.5229625701904297e+00" cType="1" res="-3.8529921323060989e-02" rms="4.6464279294013977e-01" purity="4.0554970502853394e-01" nType="0">
                <Node pos="l" depth="5" NCoef="0" IVar="-1" Cut="0.0000000000000000e+00" cType="1" res="5.8961086906492710e-03" rms="4.8223972320556641e-01" purity="5.2545922994613647e-01" nType="-99"/>
                <Node pos="r" depth="5" NCoef="0" IVar="-1" Cut="0.0000000000000000e+00" cType="1" res="-2.9072917997837067e-02" rms="4.2071190476417542e-01" purity="2.3622402548789978e-01" nType="-99"/>
              </Node>
            </Node>
            <Node pos="r" depth="3" NCoef="0" IVar="-1" Cut="0.0000000000000000e+00" cType="1" res="1.8584426492452621e-02" rms="4.4031402468681335e-01" purity="6.9604921340942383e-01" nType="-99"/>
          </Node>
          <Node pos="r" depth="2" NCoef="0" IVar="-1" Cut="0.0000000000000000e+00" cType="1" res="2.8514241799712181e-02" rms="4.3447479605674744e-01" purity="7.0568650960922241e-01" nType="-99"/>
        </Node>
        <Node pos="r" depth="1" NCoef="0" IVar="9" Cut="1.9975069761276245e+00" cType="1" res="1.8384353816509247e-01" rms="2.9161193966865540e-01" purity="8.9941930770874023e-01" nType="0">
          <Node pos="l" depth="2" NCoef="0" IVar="8" Cut="1.1250070333480835e+00" cType="1" res="2.3997610807418823e-01" rms="2.1076883375644684e-01" purity="9.4674360752105713e-01" nType="0">
            <Node pos="l" depth="3" NCoef="0" IVar="-1" Cut="0.0000000000000000e+00" cType="1" res="4.3772257864475250e-02" rms="3.3375293016433716e-01" purity="8.7799447774887085e-01" nType="-99"/>
            <Node pos="r" depth="3" NCoef="0" IVar="-1" Cut="0.0000000000000000e+00" cType="1" res="7.6536118984222412e-02" rms="nan" purity="1.0196939706802368e+00" nType="-99"/>
          </Node>
          <Node pos="r" depth="2" NCoef="0" IVar="-1" Cut="0.0000000000000000e+00" cType="1" res="1.9140491262078285e-02" rms="3.8251006603240967e-01" purity="8.0675220489501953e-01" nType="-99"/>
        </Node>
      </Node>
    </BinaryTree>
    <BinaryTree type="DecisionTree" boostWeight="1.0000000000000000e+00" itree="10">
      <Node pos="s" depth="0" NCoef="0" IVar="10" Cut="3.3623631000518799e+00" cType="1" res="4.1566640138626099e-03" rms="4.4411185383796692e-01" purity="5.0923877954483032e-01" nType="0">
        <Node pos="l" depth="1" NCoef="0" IVar="3" Cut="2.9923806190490723e+00" cType="1" res="-2.5155330076813698e-02" rms="4.6148568391799927e-01" purity="4.4526529312133789e-01" nType="0">
          <Node pos="l" depth="2" NCoef="0" IVar="1" Cut="-2.2424373626708984e+00" cType="1" res="8.8244136422872543e-03" rms="4.7105991840362549e-01" purity="5.3133213520050049e-01" nType="0">
            <Node pos="l" depth="3" NCoef="0" IVar="4" Cut="2.4603483200073242e+01" cType="1" res="-1.1843895912170410e-01" rms="4.6221685409545898e-01" purity="3.2664394378662109e-01" nType="0">
              <Node pos="l" depth="4" NCoef="0" IVar="-1" Cut="0.0000000000000000e+00" cType="1" res="-3.3770408481359482e-02" rms="4.4694140553474426e-01" purity="2.8179961442947388e-01" nType="-99"/>
              <Node pos="r" depth="4" NCoef="0" IVar="-1" Cut="0.0000000000000000e+00" cType="1" res="-1.3260329142212868e-02" rms="4.7508820891380310e-01" purity="3.8292333483695984e-01" nType="-99"/>
            </Node>
            <Node pos="r" depth="3" NCoef="0" IVar="1" Cut="2.5818316936492920e+00" cType="1" res="4.0466092526912689e-02" rms="4.6789035201072693e-01" purity="5.8222407102584839e-01" nType="0">
              <Node pos="l" depth="4" NCoef="0" IVar="2" Cut="1.7129163742065430e+00" cType="1" res="5.6622855365276337e-02" rms="4.6613064408302307e-01" purity="6.1832606792449951e-01" nType="0">
                <Node pos="l" depth="5" NCoef="0" IVar="-1" Cut="0.0000000000000000e+00" cType="1" res="1.6832709312438965e-02" rms="4.5793062448501587e-01" purity="6.5317994356155396e-01" nType="-99"/>
                <Node pos="r" depth="5" NCoef="0" IVar="-1" Cut="0.0000000000000000e+00" cType="1" res="-2.6524157728999853e-03" rms="4.8434108495712280e-01" purity="5.0958526134490967e-01" nType="-99"/>
              </Node>
              <Node pos="r" depth="4" NCoef="0" IVar="-1" Cut="0.0000000000000000e+00" cType="1" res="-1.2272702530026436e-02" rms="4.6649220585823059e-01" purity="3.6146819591522217e-01" nType="-99"/>
            </Node>
          </Node>
          <Node pos="r" depth="2" NCoef="0" IVar="3" Cut="3.0424444675445557e+00" cType="1" res="-9.0312741696834564e-02" rms="4.3518841266632080e-01" purity="2.8022900223731995e-01" nType="0">
            <Node pos="l" depth="3" NCoef="0" IVar="-1" Cut="0.0000000000000000e+00" cType="1" res="-6.4258240163326263e-03" rms="4.6833714842796326e-01" purity="3.6696171760559082e-01" nType="-99"/>
            <Node pos="r" depth="3" NCoef="0" IVar="1" Cut="2.7074596881866455e+00" cType="1" res="-1.1247461289167404e-01" rms="4.2025351524353027e-01" purity="2.4854786694049835e-01" nType="0">
              <Node pos="l" depth="4" NCoef="0" IVar="3" Cut="3.0991735458374023e+00" cType="1" res="-9.5989793539047241e-02" rms="4.3707591295242310e-01" purity="2.8137201070785522e-01" nType="0">
                <Node pos="l" depth="5" NCoef="0" IVar="-1" Cut="0.0000000000000000e+00" cType="1" res="-1.6383947804570198e-02" rms="4.5005741715431213e-01" purity="3.1021785736083984e-01" nType="-99"/>
                <Node pos="r" depth="5" NCoef="0" IVar="-1" Cut="0.0000000000000000e+00" cType="1" res="-2.6834575459361076e-02" rms="4.2169612646102905e-01" purity="2.5098788738250732e-01" nType="-99"/>
              </Node>
              <Node pos="r" depth="4" NCoef="0" IVar="-1" Cut="0.0000000000000000e+00" cType="1" res="-3.3448312431573868e-02" rms="3.8236278295516968e-01" purity="1.8303169310092926e-01" nType="-99"/>
            </Node>
          </Node>
        </Node>
        <Node pos="r" depth="1" NCoef="0" IVar="4" Cut="2.9818567276000977e+01" cType="1" res="2.0804479718208313e-01" rms="2.0061990618705750e-01" purity="9.5422500371932983e-01" nType="0">
          <Node pos="l" depth="2" NCoef="0" IVar="-1" Cut="0.0000000000000000e+00" cType="1" res="6.9602690637111664e-02" rms="nan" purity="1.0058199167251587e+00" nType="-99"/>
          <Node pos="r" depth="2" NCoef="0" IVar="-1" Cut="0.0000000000000000e+00" cType="1" res="3.9719223976135254e-02" rms="2.9504120349884033e-01" purity="8.9195317029953003e-01" nType="-99"/>
        </Node>
      </Node>
    </BinaryTree>
    <BinaryTree type="DecisionTree" boostWeight="1.0000000000000000e+00" itree="11">
      <Node pos="s" depth="0" NCoef="0" IVar="0" Cut="2.9088554382324219e+01" cType="1" res="7.7603929676115513e-03" rms="4.3567678332328796e-01" purity="5.0784289836883545e-01" nType="0">
        <Node pos="l" depth="1" NCoef="0" IVar="0" Cut="1.1133311271667480e+01" cType="1" res="-6.2644325196743011e-02" rms="4.4397053122520447e-01" purity="3.1119427084922791e-01" nType="0">
          <Node pos="l" depth="2" NCoef="0" IVar="3" Cut="3.0867490768432617e+00" cType="1" res="-1.2565560638904572e-01" rms="3.8382917642593384e-01" purity="1.8645015358924866e-01" nType="0">
            <Node pos="l" depth="3" NCoef="0" IVar="-1" Cut="0.0000000000000000e+00" cType="1" res="-2.0231135189533234e-02" rms="4.2044290900230408e-01" purity="2.3633225262165070e-01" nType="-99"/>
            <Node pos="r" depth="3" NCoef="0" IVar="-1" Cut="0.0000000000000000e+00" cType="1" res="-4.1077822446823120e-02" rms="3.2953548431396484e-01" purity="1.2709717452526093e-01" nType="-99"/>
          </Node>
          <Node pos="r" depth="2" NCoef="0" IVar="2" Cut="5.6334644556045532e-01" cType="1" res="-9.4015868380665779e-03" rms="4.8268729448318481e-01" purity="4.1659945249557495e-01" nType="0">
            <Node pos="l" depth="3" NCoef="0" IVar="-1" Cut="0.0000000000000000e+00" cType="1" res="1.4003407210111618e-02" rms="4.8651909828186035e-01" purity="5.0211101770401001e-01" nType="-99"/>
            <Node pos="r" depth="3" NCoef="0" IVar="3" Cut="2.8278896808624268e+00" cType="1" res="-4.5383311808109283e-02" rms="4.7663870453834534e-01" purity="3.7671166658401489e-01" nType="0">
              <Node pos="l" depth="4" NCoef="0" IVar="-1" Cut="0.0000000000000000e+00" cType="1" res="-1.1382879456505179e-03" rms="4.8417693376541138e-01" purity="4.2852360010147095e-01" nType="-99"/>
              <Node pos="r" depth="4" NCoef="0" IVar="-1" Cut="0.0000000000000000e+00" cType="1" res="-1.4584450982511044e-02" rms="4.7036659717559814e-01" purity="3.4529832005500793e-01" nType="-99"/>
            </Node>
          </Node>
        </Node>
        <Node pos="r" depth="1" NCoef="0" IVar="6" Cut="1.0000000000000000e+00" cType="1" res="6.8283110857009888e-02" rms="4.0787398815155029e-01" purity="7.0464205741882324e-01" nType="0">
          <Node pos="l" depth="2" NCoef="0" IVar="1" Cut="1.9073102474212646e+00" cType="1" res="2.4776346981525421e-02" rms="4.7161647677421570e-01" purity="5.8423888683319092e-01" nType="0">
            <Node pos="l" depth="3" NCoef="0" IVar="1" Cut="-1.3100248575210571e+00" cType="1" res="5.5040288716554642e-02" rms="4.6645507216453552e-01" purity="6.3100981712341309e-01" nType="0">
              <Node pos="l" depth="4" NCoef="0" IVar="-1" Cut="0.0000000000000000e+00" cType="1" res="-1.1449388228356838e-02" rms="4.9653416872024536e-01" purity="4.7198849916458130e-01" nType="-99"/>
              <Node pos="r" depth="4" NCoef="0" IVar="8" Cut="-4.2020940780639648e-01" cType="1" res="1.1816307157278061e-01" rms="4.3597692251205444e-01" purity="7.2183358669281006e-01" nType="0">
                <Node pos="l" depth="5" NCoef="0" IVar="-1" Cut="0.0000000000000000e+00" cType="1" res="4.9025684595108032e-02" rms="3.7260872125625610e-01" purity="8.2101023197174072e-01" nType="-99"/>
                <Node pos="r" depth="5" NCoef="0" IVar="-1" Cut="0.0000000000000000e+00" cType="1" res="1.3773129321634769e-03" rms="4.6581366658210754e-01" purity="6.2158238887786865e-01" nType="-99"/>
              </Node>
            </Node>
            <Node pos="r" depth="3" NCoef="0" IVar="-1" Cut="0.0000000000000000e+00" cType="1" res="-2.3282354697585106e-02" rms="4.7017899155616760e-01" purity="3.6875802278518677e-01" nType="-99"/>
          </Node>
          <Node pos="r" depth="2" NCoef="0" IVar="3" Cut="2.3917057514190674e+00" cType="1" res="1.5907266736030579e-01" rms="2.9382923245429993e-01" purity="8.8680058717727661e-01" nType="0">
            <Node pos="l" depth="3" NCoef="0" IVar="8" Cut="6.8337363004684448e-01" cType="1" res="2.0504163205623627e-01" rms="1.8898150324821472e-01" purity="9.5973533391952515e-01" nType="0">
              <Node pos="l" depth="4" NCoef="0" IVar="-1" Cut="0.0000000000000000e+00" cType="1" res="4.3785639107227325e-02" rms="2.7444377541542053e-01" purity="9.1256660223007202e-01" nType="-99"/>
              <Node pos="r" depth="4" NCoef="0" IVar="-1" Cut="0.0000000000000000e+00" cType="1" res="7.3541797697544098e-02" rms="nan" purity="1.0232011079788208e+00" nType="-99"/>
            </Node>
            <Node pos="r" depth="3" NCoef="0" IVar="-1" Cut="0.0000000000000000e+00" cType="1" res="2.0464520901441574e-02" rms="3.9692917466163635e-01" purity="7.7182686328887939e-01" nType="-99"/>
          </Node>
        </Node>
      </Node>
    </BinaryTree>
    <BinaryTree type="DecisionTree" boostWeight="1.0000000000000000e+00" itree="12">
      <Node pos="s" depth="0" NCoef="0" IVar="0" Cut="6.1944686889648438e+01" cType="1" res="-7.5464923866093159e-03" rms="4.3712022900581360e-01" purity="4.9483358860015869e-01" nType="0">
        <Node pos="l" depth="1" NCoef="0" IVar="0" Cut="1.4997822761535645e+01" cType="1" res="-4.2954102158546448e-02" rms="4.5279484987258911e-01" purity="3.8821440935134888e-01" nType="0">
          <Node pos="l" depth="2" NCoef="0" IVar="1" Cut="3.3617455959320068e+00" cType="1" res="-9.7766123712062836e-02" rms="4.0833032131195068e-01" purity="2.1821303665637970e-01" nType="0">
            <Node pos="l" depth="3" NCoef="0" IVar="2" Cut="1.0373429059982300e+00" cType="1" res="-7.8054420650005341e-02" rms="4.2723888158798218e-01" purity="2.4529577791690826e-01" nType="0">
              <Node pos="l" depth="4" NCoef="0" IVar="-1" Cut="0.0000000000000000e+00" cType="1" res="-1.0992330498993397e-02" rms="4.4734603166580200e-01" purity="2.8102979063987732e-01" nType="-99"/>
              <Node pos="r" depth="4" NCoef="0" IVar="-1" Cut="0.0000000000000000e+00" cType="1" res="-2.6378754526376724e-02" rms="3.9995095133781433e-01" purity="2.0405538380146027e-01" nType="-99"/>
            </Node>
            <Node pos="r" depth="3" NCoef="0" IVar="-1" Cut="0.0000000000000000e+00" cType="1" res="-3.6290444433689117e-02" rms="3.4728956222534180e-01" purity="1.4570678770542145e-01" nType="-99"/>
          </Node>
          <Node pos="r" depth="2" NCoef="0" IVar="6" Cut="1.0000000000000000e+00" cType="1" res="-4.9951840192079544e-03" rms="2.6638418436050415e-01" purity="5.0532102584838867e-01" nType="0">
            <Node pos="l" depth="3" NCoef="0" IVar="8" Cut="-1.1277462244033813e+00" cType="1" res="-3.1700849533081055e-02" rms="4.8750850558280945e-01" purity="4.4154706597328186e-01" nType="0">
              <Node pos="l" depth="4" NCoef="0" IVar="0" Cut="2.8388095855712891e+01" cType="1" res="-6.7587411031126976e-03" rms="4.8786163330078125e-01" purity="4.5905780792236328e-01" nType="0">
                <Node pos="l" depth="5" NCoef="0" IVar="-1" Cut="0.0000000000000000e+00" cType="1" res="-7.7856141142547131e-03" rms="4.8523607850074768e-01" purity="4.0117883682250977e-01" nType="-99"/>
                <Node pos="r" depth="5" NCoef="0" IVar="-1" Cut="0.0000000000000000e+00" cType="1" res="8.4355343133211136e-03" rms="4.8794245719909668e-01" purity="5.4816317558288574e-01" nType="-99"/>
              </Node>
              <Node pos="r" depth="4" NCoef="0" IVar="-1" Cut="0.0000000000000000e+00" cType="1" res="-2.0244413986802101e-02" rms="4.8005002737045288e-01" purity="3.9397853612899780e-01" nType="-99"/>
            </Node>
            <Node pos="r" depth="3" NCoef="0" IVar="-1" Cut="0.0000000000000000e+00" cType="1" res="2.2550370544195175e-02" rms="4.1958394646644592e-01" purity="7.5548791885375977e-01" nType="-99"/>
          </Node>
        </Node>
        <Node pos="r" depth="1" NCoef="0" IVar="8" Cut="1.3897819519042969e+00" cType="1" res="9.5430254936218262e-02" rms="3.6912778019905090e-01" purity="8.0491644144058228e-01" nType="0">
          <Node pos="l" depth="2" NCoef="0" IVar="8" Cut="-7.4567395448684692e-01" cType="1" res="5.5484816431999207e-02" rms="4.0540584921836853e-01" purity="7.5057214498519897e-01" nType="0">
            <Node pos="l" depth="3" NCoef="0" IVar="9" Cut="-8.5682880878448486e-01" cType="1" res="1.3553196191787720e-01" rms="3.2718813419342041e-01" purity="8.6075627803802490e-01" nType="0">
              <Node pos="l" depth="4" NCoef="0" IVar="-1" Cut="0.0000000000000000e+00" cType="1" res="3.8896132260560989e-02" rms="3.4641084074974060e-01" purity="8.4015727043151855e-01" nType="-99"/>
              <Node pos="r" depth="4" NCoef="0" IVar="-1" Cut="0.0000000000000000e+00" cType="1" res="3.0657656490802765e-02" rms="3.0386397242546082e-01" purity="8.8087600469589233e-01" nType="-99"/>
            </Node>
            <Node pos="r" depth="3" NCoef="0" IVar="-1" Cut="0.0000000000000000e+00" cType="1" res="-8.7607549503445625e-03" rms="4.6364796161651611e-01" purity="6.2214577198028564e-01" nType="-99"/>
          </Node>
          <Node pos="r" depth="2" NCoef="0" IVar="-1" Cut="0.0000000000000000e+00" cType="1" res="5.6438356637954712e-02" rms="2.0643411576747894e-01" purity="9.5424205064773560e-01" nType="-99"/>
        </Node>
      </Node>
    </BinaryTree>
    <BinaryTree type="DecisionTree" boostWeight="1.0000000000000000e+00" itree="13">
      <Node pos="s" depth="0" NCoef="0" IVar="0" Cut="3.1093935012817383e+01" cType="1" res="2.1847491152584553e-03" rms="4.3546670675277710e-01" purity="5.0841695070266724e-01" nType="0">
        <Node pos="l" depth="1" NCoef="0" IVar="0" Cut="9.0830259323120117e+00" cType="1" res="-5.1623970270156860e-02" rms="4.4628310203552246e-01" purity="3.2035055756568909e-01" nType="0">
          <Node pos="l" depth="2" NCoef="0" IVar="0" Cut="5.3090925216674805e+00" cType="1" res="-9.9483110010623932e-02" rms="3.8273680210113525e-01" purity="1.8010349571704865e-01" nType="0">
            <Node pos="l" depth="3" NCoef="0" IVar="-1" Cut="0.0000000000000000e+00" cType="1" res="-3.2478854060173035e-02" rms="3.4109625220298767e-01" purity="1.3505168259143829e-01" nType="-99"/>
            <Node pos="r" depth="3" NCoef="0" IVar="-1" Cut="0.0000000000000000e+00" cType="1" res="-1.7618928104639053e-02" rms="4.2008262872695923e-01" purity="2.2687850892543793e-01" nType="-99"/>
          </Node>
          <Node pos="r" depth="2" NCoef="0" IVar="4" Cut="3.5496742248535156e+01" cType="1" res="-2.8187464922666550e-02" rms="4.7254154086112976e-01" purity="3.8902923464775085e-01" nType="0">
            <Node pos="l" depth="3" NCoef="0" IVar="2" Cut="8.9073836803436279e-01" cType="1" res="-4.6214357018470764e-02" rms="4.6709305047988892e-01" purity="3.6623194813728333e-01" nType="0">
              <Node pos="l" depth="4" NCoef="0" IVar="0" Cut="1.8509237289428711e+01" cType="1" res="-3.4194735344499350e-03" rms="4.8248741030693054e-01" purity="4.2051613330841064e-01" nType="0">
                <Node pos="l" depth="5" NCoef="0" IVar="-1" Cut="0.0000000000000000e+00" cType="1" res="9.2418389394879341e-03" rms="4.7538751363754272e-01" purity="4.2056009173393250e-01" nType="-99"/>
                <Node pos="r" depth="5" NCoef="0" IVar="-1" Cut="0.0000000000000000e+00" cType="1" res="-9.8252994939684868e-03" rms="4.8509877920150757e-01" purity="4.2047351598739624e-01" nType="-99"/>
              </Node>
              <Node pos="r" depth="4" NCoef="0" IVar="0" Cut="1.9581398010253906e+01" cType="1" res="-8.6437970399856567e-02" rms="4.4843810796737671e-01" purity="3.1520938873291016e-01" nType="0">
                <Node pos="l" depth="5" NCoef="0" IVar="-1" Cut="0.0000000000000000e+00" cType="1" res="-2.2212263196706772e-02" rms="4.2887440323829651e-01" purity="2.5549283623695374e-01" nType="-99"/>
                <Node pos="r" depth="5" NCoef="0" IVar="-1" Cut="0.0000000000000000e+00" cType="1" res="-1.4199599623680115e-02" rms="4.7096985578536987e-01" purity="3.8916140794754028e-01" nType="-99"/>
              </Node>
            </Node>
            <Node pos="r" depth="3" NCoef="0" IVar="-1" Cut="0.0000000000000000e+00" cType="1" res="7.3109306395053864e-03" rms="4.8588019609451294e-01" purity="4.6867221593856812e-01" nType="-99"/>
          </Node>
        </Node>
        <Node pos="r" depth="1" NCoef="0" IVar="1" Cut="8.1966507434844971e-01" cType="1" res="5.8496914803981781e-02" rms="4.1647210717201233e-01" purity="7.0523309707641602e-01" nType="0">
          <Node pos="l" depth="2" NCoef="0" IVar="8" Cut="5.0025939941406250e-01" cType="1" res="9.9136941134929657e-02" rms="3.8759276270866394e-01" purity="7.5772386789321899e-01" nType="0">
            <Node pos="l" depth="3" NCoef="0" IVar="8" Cut="-1.0729147195816040e+00" cType="1" res="6.2545806169509888e-02" rms="4.1591352224349976e-01" purity="7.0801961421966553e-01" nType="0">
              <Node pos="l" depth="4" NCoef="0" IVar="4" Cut="2.0255157470703125e+01" cType="1" res="1.1849687993526459e-01" rms="3.7988150119781494e-01" purity="7.7984851598739624e-01" nType="0">
                <Node pos="l" depth="5" NCoef="0" IVar="-1" Cut="0.0000000000000000e+00" cType="1" res="5.2276507019996643e-02" rms="2.9520562291145325e-01" purity="8.8298207521438599e-01" nType="-99"/>
                <Node pos="r" depth="5" NCoef="0" IVar="-1" Cut="0.0000000000000000e+00" cType="1" res="1.5771485865116119e-02" rms="4.0833830833435059e-01" purity="7.2512710094451904e-01" nType="-99"/>
              </Node>
              <Node pos="r" depth="4" NCoef="0" IVar="-1" Cut="0.0000000000000000e+00" cType="1" res="-1.3182706199586391e-02" rms="4.6231502294540405e-01" purity="5.5177307128906250e-01" nType="-99"/>
            </Node>
            <Node pos="r" depth="3" NCoef="0" IVar="-1" Cut="0.0000000000000000e+00" cType="1" res="4.7325078397989273e-02" rms="2.9065668582916260e-01" purity="8.7735128402709961e-01" nType="-99"/>
          </Node>
          <Node pos="r" depth="2" NCoef="0" IVar="8" Cut="-8.5301607847213745e-01" cType="1" res="-2.0096093416213989e-02" rms="4.5714834332466125e-01" purity="6.0372215509414673e-01" nType="0">
            <Node pos="l" depth="3" NCoef="0" IVar="-1" Cut="0.0000000000000000e+00" cType="1" res="2.1241663023829460e-02" rms="4.3422830104827881e-01" purity="7.1518290042877197e-01" nType="-99"/>
            <Node pos="r" depth="3" NCoef="0" IVar="8" Cut="1.5257694721221924e+00" cType="1" res="-8.2381941378116608e-02" rms="4.5732167363166809e-01" purity="5.4290324449539185e-01" nType="0">
              <Node pos="l" depth="4" NCoef="0" IVar="-1" Cut="0.0000000000000000e+00" cType="1" res="-3.2342068850994110e-02" rms="4.7684362530708313e-01" purity="4.2596945166587830e-01" nType="-99"/>
              <Node pos="r" depth="4" NCoef="0" IVar="-1" Cut="0.0000000000000000e+00" cType="1" res="-3.3448815811425447e-03" rms="4.2511582374572754e-01" purity="6.6592532396316528e-01" nType="-99"/>
            </Node>
          </Node>
        </Node>
      </Node>
    </BinaryTree>
    <BinaryTree type="DecisionTree" boostWeight="1.0000000000000000e+00" itree="14">
      <Node pos="s" depth="0" NCoef="0" IVar="3" Cut="2.3938231468200684e+00" cType="1" res="-7.4740867130458355e-03" rms="4.3574878573417664e-01" purity="4.9779924750328064e-01" nType="0">
        <Node pos="l" depth="1" NCoef="0" IVar="3" Cut="2.1658725738525391e+00" cType="1" res="8.2574270665645599e-02" rms="3.7525987625122070e-01" purity="7.8482413291931152e-01" nType="0">
          <Node pos="l" depth="2" NCoef="0" IVar="8" Cut="4.7695595026016235e-01" cType="1" res="5.4525561630725861e-02" rms="3.8222226500511169e-01" purity="7.6924073696136475e-01" nType="0">
            <Node pos="l" depth="3" NCoef="0" IVar="8" Cut="-2.1333162784576416e+00" cType="1" res="1.0050663724541664e-02" rms="4.1711741685867310e-01" purity="7.0912313461303711e-01" nType="0">
              <Node pos="l" depth="4" NCoef="0" IVar="-1" Cut="0.0000000000000000e+00" cType="1" res="1.8631365150213242e-02" rms="3.5175016522407532e-01" purity="7.9643386602401733e-01" nType="-99"/>
              <Node pos="r" depth="4" NCoef="0" IVar="-1" Cut="0.0000000000000000e+00" cType="1" res="-6.3866782002151012e-03" rms="4.4915914535522461e-01" purity="6.5491729974746704e-01" nType="-99"/>
            </Node>
            <Node pos="r" depth="3" NCoef="0" IVar="-1" Cut="0.0000000000000000e+00" cType="1" res="3.4660961478948593e-02" rms="3.0653530359268188e-01" purity="8.6421948671340942e-01" nType="-99"/>
          </Node>
          <Node pos="r" depth="2" NCoef="0" IVar="-1" Cut="0.0000000000000000e+00" cType="1" res="4.8117615282535553e-02" rms="3.1706601381301880e-01" purity="8.5144549608230591e-01" nType="-99"/>
        </Node>
        <Node pos="r" depth="1" NCoef="0" IVar="10" Cut="1.7419420480728149e+00" cType="1" res="-4.1118528693914413e-02" rms="4.5171278715133667e-01" purity="3.9055919647216797e-01" nType="0">
          <Node pos="l" depth="2" NCoef="0" IVar="1" Cut="-3.2150192260742188e+00" cType="1" res="-5.5571537464857101e-02" rms="4.5597994327545166e-01" purity="3.5123720765113831e-01" nType="0">
            <Node pos="l" depth="3" NCoef="0" IVar="-1" Cut="0.0000000000000000e+00" cType="1" res="-2.9386535286903381e-02" rms="3.9149031043052673e-01" purity="1.8918344378471375e-01" nType="-99"/>
            <Node pos="r" depth="3" NCoef="0" IVar="1" Cut="1.2724922895431519e+00" cType="1" res="-4.2711243033409119e-02" rms="4.6633949875831604e-01" purity="3.8259342312812805e-01" nType="0">
              <Node pos="l" depth="4" NCoef="0" IVar="4" Cut="3.7951828002929688e+01" cType="1" res="-9.4469944015145302e-03" rms="4.7530803084373474e-01" purity="4.5176005363464355e-01" nType="0">
                <Node pos="l" depth="5" NCoef="0" IVar="-1" Cut="0.0000000000000000e+00" cType="1" res="2.7116304263472557e-03" rms="4.7492212057113647e-01" purity="4.6921762824058533e-01" nType="-99"/>
                <Node pos="r" depth="5" NCoef="0" IVar="-1" Cut="0.0000000000000000e+00" cType="1" res="-1.9031299278140068e-02" rms="4.6785643696784973e-01" purity="3.8828417658805847e-01" nType="-99"/>
              </Node>
              <Node pos="r" depth="4" NCoef="0" IVar="0" Cut="2.7275135040283203e+01" cType="1" res="-7.6696552336215973e-02" rms="4.5448738336563110e-01" purity="3.1192746758460999e-01" nType="0">
                <Node pos="l" depth="5" NCoef="0" IVar="-1" Cut="0.0000000000000000e+00" cType="1" res="-1.1932118795812130e-02" rms="4.4302555918693542e-01" purity="2.8971096873283386e-01" nType="-99"/>
                <Node pos="r" depth="5" NCoef="0" IVar="-1" Cut="0.0000000000000000e+00" cType="1" res="-2.8725055977702141e-02" rms="4.7665667533874512e-01" purity="3.6842459440231323e-01" nType="-99"/>
              </Node>
            </Node>
          </Node>
          <Node pos="r" depth="2" NCoef="0" IVar="-1" Cut="0.0000000000000000e+00" cType="1" res="3.2485987991094589e-02" rms="3.5956168174743652e-01" purity="8.4359973669052124e-01" nType="-99"/>
        </Node>
      </Node>
    </BinaryTree>
    <BinaryTree type="DecisionTree" boostWeight="1.0000000000000000e+00" itree="15">
      <Node pos="s" depth="0" NCoef="0" IVar="10" Cut="3.2325572967529297e+00" cType="1" res="-1.6718462109565735e-02" rms="4.3457454442977905e-01" purity="4.8791816830635071e-01" nType="0">
        <Node pos="l" depth="1" NCoef="0" IVar="0" Cut="2.7669382095336914e+01" cType="1" res="-3.4443117678165436e-02" rms="4.5051857829093933e-01" purity="4.2392522096633911e-01" nType="0">
          <Node pos="l" depth="2" NCoef="0" IVar="0" Cut="1.5838718414306641e+01" cType="1" res="-6.9205269217491150e-02" rms="4.3211159110069275e-01" purity="2.7636891603469849e-01" nType="0">
            <Node pos="l" depth="3" NCoef="0" IVar="2" Cut="8.6044257879257202e-01" cType="1" res="-8.8715091347694397e-02" rms="4.0076738595962524e-01" purity="2.0994612574577332e-01" nType="0">
              <Node pos="l" depth="4" NCoef="0" IVar="3" Cut="3.0571904182434082e+00" cType="1" res="-5.9636164456605911e-02" rms="4.2608067393302917e-01" purity="2.5141260027885437e-01" nType="0">
                <Node pos="l" depth="5" NCoef="0" IVar="-1" Cut="0.0000000000000000e+00" cType="1" res="-2.6125328149646521e-03" rms="4.6911752223968506e-01" purity="3.3854630589485168e-01" nType="-99"/>
                <Node pos="r" depth="5" NCoef="0" IVar="-1" Cut="0.0000000000000000e+00" cType="1" res="-2.4687869474291801e-02" rms="3.8347125053405762e-01" purity="1.8099255859851837e-01" nType="-99"/>
              </Node>
              <Node pos="r" depth="4" NCoef="0" IVar="1" Cut="-1.4509174227714539e-01" cType="1" res="-1.1403968185186386e-01" rms="3.7551137804985046e-01" purity="1.7383338510990143e-01" nType="0">
                <Node pos="l" depth="5" NCoef="0" IVar="-1" Cut="0.0000000000000000e+00" cType="1" res="-3.2011479139328003e-02" rms="3.6038020253181458e-01" purity="1.5797613561153412e-01" nType="-99"/>
                <Node pos="r" depth="5" NCoef="0" IVar="-1" Cut="0.0000000000000000e+00" cType="1" res="-2.4572769179940224e-02" rms="3.8870906829833984e-01" purity="1.8879552185535431e-01" nType="-99"/>
              </Node>
            </Node>
            <Node pos="r" depth="3" NCoef="0" IVar="3" Cut="2.8523731231689453e+00" cType="1" res="-3.0683781951665878e-02" rms="4.8582941293716431e-01" purity="4.0751847624778748e-01" nType="0">
              <Node pos="l" depth="4" NCoef="0" IVar="-1" Cut="0.0000000000000000e+00" cType="1" res="-1.7133010551333427e-02" rms="4.7104066610336304e-01" purity="3.5111221671104431e-01" nType="-99"/>
              <Node pos="r" depth="4" NCoef="0" IVar="-1" Cut="0.0000000000000000e+00" cType="1" res="3.0530667863786221e-03" rms="4.9367028474807739e-01" purity="4.5604705810546875e-01" nType="-99"/>
            </Node>
          </Node>
          <Node pos="r" depth="2" NCoef="0" IVar="12" Cut="6.0010429382324219e+01" cType="1" res="8.6138891056180000e-03" rms="4.6876391768455505e-01" purity="6.0669100284576416e-01" nType="0">
            <Node pos="l" depth="3" NCoef="0" IVar="8" Cut="9.5027714967727661e-01" cType="1" res="4.3979048728942871e-02" rms="4.6314606070518494e-01" purity="6.2487101554870605e-01" nType="0">
              <Node pos="l" depth="4" NCoef="0" IVar="8" Cut="-2.1671445369720459e+00" cType="1" res="2.2592296823859215e-02" rms="4.7351258993148804e-01" purity="5.8642131090164185e-01" nType="0">
                <Node pos="l" depth="5" NCoef="0" IVar="-1" Cut="0.0000000000000000e+00" cType="1" res="1.4651434496045113e-02" rms="4.5748114585876465e-01" purity="6.4531266689300537e-01" nType="-99"/>
                <Node pos="r" depth="5" NCoef="0" IVar="-1" Cut="0.0000000000000000e+00" cType="1" res="-7.2869276627898216e-03" rms="4.8693352937698364e-01" purity="5.1220846176147461e-01" nType="-99"/>
              </Node>
              <Node pos="r" depth="4" NCoef="0" IVar="-1" Cut="0.0000000000000000e+00" cType="1" res="2.7678906917572021e-02" rms="4.1377446055412292e-01" purity="7.6547038555145264e-01" nType="-99"/>
            </Node>
            <Node pos="r" depth="3" NCoef="0" IVar="-1" Cut="0.0000000000000000e+00" cType="1" res="-2.6563346385955811e-02" rms="4.6762648224830627e-01" purity="5.4426187276840210e-01" nType="-99"/>
          </Node>
        </Node>
        <Node pos="r" depth="1" NCoef="0" IVar="9" Cut="-6.7595380544662476e-01" cType="1" res="9.5708511769771576e-02" rms="2.9105114936828613e-01" purity="8.9382344484329224e-01" nType="0">
          <Node pos="l" depth="2" NCoef="0" IVar="-1" Cut="0.0000000000000000e+00" cType="1" res="5.4352477192878723e-02" rms="1.4486706256866455e-01" purity="9.7185385227203369e-01" nType="-99"/>
          <Node pos="r" depth="2" NCoef="0" IVar="-1" Cut="0.0000000000000000e+00" cType="1" res="1.1935277841985226e-02" rms="3.6377847194671631e-01" purity="8.2690268754959106e-01" nType="-99"/>
        </Node>
      </Node>
    </BinaryTree>
    <BinaryTree type="DecisionTree" boostWeight="1.0000000000000000e+00" itree="16">
      <Node pos="s" depth="0" NCoef="0" IVar="0" Cut="6.5325759887695312e+01" cType="1" res="3.6615410353988409e-03" rms="4.2464134097099304e-01" purity="5.0010210275650024e-01" nType="0">
        <Node pos="l" depth="1" NCoef="0" IVar="12" Cut="2.1019332885742188e+02" cType="1" res="-3.1374502927064896e-02" rms="4.4717574119567871e-01" purity="3.9674454927444458e-01" nType="0">
          <Node pos="l" depth="2" NCoef="0" IVar="0" Cut="1.5870588302612305e+01" cType="1" res="-4.3719127774238586e-02" rms="4.5175015926361084e-01" purity="3.6251884698867798e-01" nType="0">
            <Node pos="l" depth="3" NCoef="0" IVar="4" Cut="2.3916864395141602e+01" cType="1" res="-7.4542284011840820e-02" rms="4.0690737962722778e-01" purity="2.1571817994117737e-01" nType="0">
              <Node pos="l" depth="4" NCoef="0" IVar="4" Cut="1.6154888153076172e+01" cType="1" res="-4.5509204268455505e-02" rms="4.2509883642196655e-01" purity="2.3957476019859314e-01" nType="0">
                <Node pos="l" depth="5" NCoef="0" IVar="-1" Cut="0.0000000000000000e+00" cType="1" res="-1.6825359314680099e-02" rms="4.1486486792564392e-01" purity="2.2055160999298096e-01" nType="-99"/>
                <Node pos="r" depth="5" NCoef="0" IVar="-1" Cut="0.0000000000000000e+00" cType="1" res="-4.3917614966630936e-03" rms="4.3596324324607849e-01" purity="2.6338070631027222e-01" nType="-99"/>
              </Node>
              <Node pos="r" depth="4" NCoef="0" IVar="3" Cut="3.0469691753387451e+00" cType="1" res="-1.0587240010499954e-01" rms="3.8386136293411255e-01" purity="1.8997414410114288e-01" nType="0">
                <Node pos="l" depth="5" NCoef="0" IVar="-1" Cut="0.0000000000000000e+00" cType="1" res="-2.1890938282012939e-02" rms="4.1134250164031982e-01" purity="2.3282320797443390e-01" nType="-99"/>
                <Node pos="r" depth="5" NCoef="0" IVar="-1" Cut="0.0000000000000000e+00" cType="1" res="-2.9837131500244141e-02" rms="3.5775020718574524e-01" purity="1.5239034593105316e-01" nType="-99"/>
              </Node>
            </Node>
            <Node pos="r" depth="3" NCoef="0" IVar="6" Cut="1.0000000000000000e+00" cType="1" res="-3.6374991759657860e-04" rms="2.7957522869110107e-01" purity="4.8062920570373535e-01" nType="0">
              <Node pos="l" depth="4" NCoef="0" IVar="8" Cut="-1.1297463178634644e+00" cType="1" res="-3.4292977303266525e-02" rms="4.8842859268188477e-01" purity="4.3783956766128540e-01" nType="0">
                <Node pos="l" depth="5" NCoef="0" IVar="-1" Cut="0.0000000000000000e+00" cType="1" res="-2.8875868301838636e-03" rms="4.8732820153236389e-01" purity="4.5372921228408813e-01" nType="-99"/>
                <Node pos="r" depth="5" NCoef="0" IVar="-1" Cut="0.0000000000000000e+00" cType="1" res="-1.8233958631753922e-02" rms="4.8716214299201965e-01" purity="3.9429429173469543e-01" nType="-99"/>
              </Node>
              <Node pos="r" depth="4" NCoef="0" IVar="-1" Cut="0.0000000000000000e+00" cType="1" res="1.4096278697252274e-02" rms="4.4691470265388489e-01" purity="7.0835417509078979e-01" nType="-99"/>
            </Node>
          </Node>
          <Node pos="r" depth="2" NCoef="0" IVar="-1" Cut="0.0000000000000000e+00" cType="1" res="3.9219800382852554e-02" rms="3.2867711782455444e-01" purity="8.8535195589065552e-01" nType="-99"/>
        </Node>
        <Node pos="r" depth="1" NCoef="0" IVar="3" Cut="1.1998629570007324e+00" cType="1" res="1.3145710527896881e-01" rms="2.9639813303947449e-01" purity="8.7710338830947876e-01" nType="0">
          <Node pos="l" depth="2" NCoef="0" IVar="-1" Cut="0.0000000000000000e+00" cType="1" res="8.8139083236455917e-03" rms="3.6300864815711975e-01" purity="8.0513381958007812e-01" nType="-99"/>
          <Node pos="r" depth="2" NCoef="0" IVar="8" Cut="9.5861434936523438e-01" cType="1" res="1.6795453429222107e-01" rms="2.5906872749328613e-01" purity="9.0277767181396484e-01" nType="0">
            <Node pos="l" depth="3" NCoef="0" IVar="-1" Cut="0.0000000000000000e+00" cType="1" res="5.3053360432386398e-02" rms="2.3122739791870117e-01" purity="9.1933041810989380e-01" nType="-99"/>
            <Node pos="r" depth="3" NCoef="0" IVar="-1" Cut="0.0000000000000000e+00" cType="1" res="3.0743252485990524e-02" rms="2.9060071706771851e-01" purity="8.7371486425399780e-01" nType="-99"/>
          </Node>
        </Node>
      </Node>
    </BinaryTree>
    <BinaryTree type="DecisionTree" boostWeight="1.0000000000000000e+00" itree="17">
      <Node pos="s" depth="0" NCoef="0" IVar="3" Cut="2.8429327011108398e+00" cType="1" res="-8.8279275223612785e-03" rms="4.3166872859001160e-01" purity="4.9245852231979370e-01" nType="0">
        <Node pos="l" depth="1" NCoef="0" IVar="10" Cut="4.5412105321884155e-01" cType="1" res="4.0916811674833298e-02" rms="4.2284810543060303e-01" purity="6.6692692041397095e-01" nType="0">
          <Node pos="l" depth="2" NCoef="0" IVar="6" Cut="1.0000000000000000e+00" cType="1" res="1.9450567662715912e-02" rms="4.0294200181961060e-01" purity="5.6485849618911743e-01" nType="0">
            <Node pos="l" depth="3" NCoef="0" IVar="3" Cut="2.3032426834106445e+00" cType="1" res="-8.1161018460988998e-03" rms="4.8711001873016357e-01" purity="5.1111257076263428e-01" nType="0">
              <Node pos="l" depth="4" NCoef="0" IVar="8" Cut="-4.2847517132759094e-01" cType="1" res="-9.6682429313659668e-02" rms="4.7021341323852539e-01" purity="5.1314830780029297e-01" nType="0">
                <Node pos="l" depth="5" NCoef="0" IVar="-1" Cut="0.0000000000000000e+00" cType="1" res="-1.3352528214454651e-02" rms="4.5867705345153809e-01" purity="5.6302815675735474e-01" nType="-99"/>
                <Node pos="r" depth="5" NCoef="0" IVar="-1" Cut="0.0000000000000000e+00" cType="1" res="-2.8768405318260193e-02" rms="4.7870120406150818e-01" purity="4.6336925029754639e-01" nType="-99"/>
              </Node>
              <Node pos="r" depth="4" NCoef="0" IVar="2" Cut="7.4814397096633911e-01" cType="1" res="4.0889088064432144e-02" rms="4.8937165737152100e-01" purity="5.0998622179031372e-01" nType="0">
                <Node pos="l" depth="5" NCoef="0" IVar="-1" Cut="0.0000000000000000e+00" cType="1" res="-6.2510627321898937e-03" rms="4.8412874341011047e-01" purity="4.5723599195480347e-01" nType="-99"/>
                <Node pos="r" depth="5" NCoef="0" IVar="-1" Cut="0.0000000000000000e+00" cType="1" res="1.9642397761344910e-02" rms="4.8640555143356323e-01" purity="5.4968833923339844e-01" nType="-99"/>
              </Node>
            </Node>
            <Node pos="r" depth="3" NCoef="0" IVar="-1" Cut="0.0000000000000000e+00" cType="1" res="2.7221996337175369e-02" rms="3.6472544074058533e-01" purity="8.0819839239120483e-01" nType="-99"/>
          </Node>
          <Node pos="r" depth="2" NCoef="0" IVar="3" Cut="2.3022098541259766e+00" cType="1" res="9.7124852240085602e-02" rms="3.0003663897514343e-01" purity="8.7292546033859253e-01" nType="0">
            <Node pos="l" depth="3" NCoef="0" IVar="2" Cut="1.0288993120193481e+00" cType="1" res="1.3790836930274963e-01" rms="2.3011818528175354e-01" purity="9.4792121648788452e-01" nType="0">
              <Node pos="l" depth="4" NCoef="0" IVar="-1" Cut="0.0000000000000000e+00" cType="1" res="2.6152784004807472e-02" rms="3.0669561028480530e-01" purity="8.9241772890090942e-01" nType="-99"/>
              <Node pos="r" depth="4" NCoef="0" IVar="-1" Cut="0.0000000000000000e+00" cType="1" res="7.1181379258632660e-02" rms="nan" purity="1.0192207098007202e+00" nType="-99"/>
            </Node>
            <Node pos="r" depth="3" NCoef="0" IVar="-1" Cut="0.0000000000000000e+00" cType="1" res="1.4808027772232890e-03" rms="4.0128180384635925e-01" purity="7.0481377840042114e-01" nType="-99"/>
          </Node>
        </Node>
        <Node pos="r" depth="1" NCoef="0" IVar="8" Cut="-4.0811381340026855e+00" cType="1" res="-6.0312092304229736e-02" rms="4.3465751409530640e-01" purity="3.1188949942588806e-01" nType="0">
          <Node pos="l" depth="2" NCoef="0" IVar="1" Cut="-2.8343241214752197e+00" cType="1" res="-7.6457634568214417e-02" rms="4.2512127757072449e-01" purity="2.5750115513801575e-01" nType="0">
            <Node pos="l" depth="3" NCoef="0" IVar="-1" Cut="0.0000000000000000e+00" cType="1" res="-2.4259962141513824e-02" rms="3.8925081491470337e-01" purity="1.9355675578117371e-01" nType="-99"/>
            <Node pos="r" depth="3" NCoef="0" IVar="1" Cut="1.6195166110992432e+00" cType="1" res="-6.7568279802799225e-02" rms="4.3963393568992615e-01" purity="2.8554013371467590e-01" nType="0">
              <Node pos="l" depth="4" NCoef="0" IVar="-1" Cut="0.0000000000000000e+00" cType="1" res="-7.3727695271372795e-03" rms="4.7598508000373840e-01" purity="3.7072774767875671e-01" nType="-99"/>
              <Node pos="r" depth="4" NCoef="0" IVar="0" Cut="1.1286032676696777e+01" cType="1" res="-9.0466819703578949e-02" rms="4.1151726245880127e-01" purity="2.2760431468486786e-01" nType="0">
                <Node pos="l" depth="5" NCoef="0" IVar="-1" Cut="0.0000000000000000e+00" cType="1" res="-2.1861910820007324e-02" rms="3.7487980723381042e-01" purity="1.7203134298324585e-01" nType="-99"/>
                <Node pos="r" depth="5" NCoef="0" IVar="-1" Cut="0.0000000000000000e+00" cType="1" res="-2.1336877718567848e-02" rms="4.5107749104499817e-01" purity="2.9374289512634277e-01" nType="-99"/>
              </Node>
            </Node>
          </Node>
          <Node pos="r" depth="2" NCoef="0" IVar="1" Cut="-3.8308995962142944e-01" cType="1" res="-8.7263542809523642e-05" rms="4.6358513832092285e-01" purity="5.1476460695266724e-01" nType="0">
            <Node pos="l" depth="3" NCoef="0" IVar="-1" Cut="0.0000000000000000e+00" cType="1" res="-1.6523996368050575e-02" rms="4.6162998676300049e-01" purity="4.3099913001060486e-01" nType="-99"/>
            <Node pos="r" depth="3" NCoef="0" IVar="-1" Cut="0.0000000000000000e+00" cType="1" res="1.7682189121842384e-02" rms="4.5283594727516174e-01" purity="6.0342323780059814e-01" nType="-99"/>
          </Node>
        </Node>
      </Node>
    </BinaryTree>
    <BinaryTree type="DecisionTree" boostWeight="1.0000000000000000e+00" itree="18">
      <Node pos="s" depth="0" NCoef="0" IVar="10" Cut="3.3623631000518799e+00" cType="1" res="9.6435984596610069e-03" rms="4.3511712551116943e-01" purity="5.1425635814666748e-01" nType="0">
        <Node pos="l" depth="1" NCoef="0" IVar="1" Cut="-3.2073340415954590e+00" cType="1" res="-5.9198047965764999e-03" rms="4.5571926236152649e-01" purity="4.5259034633636475e-01" nType="0">
          <Node pos="l" depth="2" NCoef="0" IVar="-1" Cut="0.0000000000000000e+00" cType="1" res="-1.8948310986161232e-02" rms="4.0728884935379028e-01" purity="2.1285645663738251e-01" nType="-99"/>
          <Node pos="r" depth="2" NCoef="0" IVar="1" Cut="2.7902877330780029e+00" cType="1" res="3.9449306204915047e-03" rms="4.6140265464782715e-01" purity="4.8694130778312683e-01" nType="0">
            <Node pos="l" depth="3" NCoef="0" IVar="3" Cut="1.4998959302902222e+00" cType="1" res="1.9435772672295570e-02" rms="4.6778088808059692e-01" purity="5.4460215568542480e-01" nType="0">
              <Node pos="l" depth="4" NCoef="0" IVar="-1" Cut="0.0000000000000000e+00" cType="1" res="-2.4289468303322792e-02" rms="4.8091906309127808e-01" purity="6.1028283834457397e-01" nType="-99"/>
              <Node pos="r" depth="4" NCoef="0" IVar="1" Cut="-6.5720357000827789e-02" cType="1" res="3.2501947134733200e-02" rms="4.6446597576141357e-01" purity="5.3720062971115112e-01" nType="0">
                <Node pos="l" depth="5" NCoef="0" IVar="-1" Cut="0.0000000000000000e+00" cType="1" res="-7.0770841557532549e-04" rms="4.8473441600799561e-01" purity="4.9833557009696960e-01" nType="-99"/>
                <Node pos="r" depth="5" NCoef="0" IVar="-1" Cut="0.0000000000000000e+00" cType="1" res="1.5649411827325821e-02" rms="4.3827176094055176e-01" purity="5.7917803525924683e-01" nType="-99"/>
              </Node>
            </Node>
            <Node pos="r" depth="3" NCoef="0" IVar="0" Cut="1.3468323707580566e+01" cType="1" res="-6.0062356293201447e-02" rms="4.2815399169921875e-01" purity="2.4868980050086975e-01" nType="0">
              <Node pos="l" depth="4" NCoef="0" IVar="-1" Cut="0.0000000000000000e+00" cType="1" res="-1.1164360679686069e-02" rms="4.0409034490585327e-01" purity="2.1004052460193634e-01" nType="-99"/>
              <Node pos="r" depth="4" NCoef="0" IVar="-1" Cut="0.0000000000000000e+00" cType="1" res="-2.0115016028285027e-02" rms="4.6828654408454895e-01" purity="3.2167777419090271e-01" nType="-99"/>
            </Node>
          </Node>
        </Node>
        <Node pos="r" depth="1" NCoef="0" IVar="1" Cut="-5.6348294019699097e-01" cType="1" res="1.1884669214487076e-01" rms="2.1662037074565887e-01" purity="9.4694560766220093e-01" nType="0">
          <Node pos="l" depth="2" NCoef="0" IVar="-1" Cut="0.0000000000000000e+00" cType="1" res="1.6632098704576492e-02" rms="3.3025175333023071e-01" purity="8.6509478092193604e-01" nType="-99"/>
          <Node pos="r" depth="2" NCoef="0" IVar="-1" Cut="0.0000000000000000e+00" cType="1" res="6.5960898995399475e-02" rms="nan" purity="1.0134042501449585e+00" nType="-99"/>
        </Node>
      </Node>
    </BinaryTree>
    <BinaryTree type="DecisionTree" boostWeight="1.0000000000000000e+00" itree="19">
      <Node pos="s" depth="0" NCoef="0" IVar="12" Cut="5.4996936035156250e+02" cType="1" res="-4.1580282151699066e-02" rms="4.4055482745170593e-01" purity="4.6831610798835754e-01" nType="0">
        <Node pos="l" depth="1" NCoef="0" IVar="1" Cut="-1.7940248250961304e+00" cType="1" res="-5.0996251404285431e-02" rms="4.5194330811500549e-01" purity="4.2214763164520264e-01" nType="0">
          <Node pos="l" depth="2" NCoef="0" IVar="0" Cut="2.9668079376220703e+01" cType="1" res="-9.0194486081600189e-02" rms="4.5401024818420410e-01" purity="3.0969673395156860e-01" nType="0">
            <Node pos="l" depth="3" NCoef="0" IVar="0" Cut="1.7017833709716797e+01" cType="1" res="-5.6588951498270035e-02" rms="4.3745857477188110e-01" purity="2.6940941810607910e-01" nType="0">
              <Node pos="l" depth="4" NCoef="0" IVar="-1" Cut="0.0000000000000000e+00" cType="1" res="-1.0090819559991360e-02" rms="4.2104965448379517e-01" purity="2.3914481699466705e-01" nType="-99"/>
              <Node pos="r" depth="4" NCoef="0" IVar="-1" Cut="0.0000000000000000e+00" cType="1" res="-1.9272772595286369e-02" rms="4.6829158067703247e-01" purity="3.3360272645950317e-01" nType="-99"/>
            </Node>
            <Node pos="r" depth="3" NCoef="0" IVar="-1" Cut="0.0000000000000000e+00" cType="1" res="-3.5154860466718674e-02" rms="4.7974461317062378e-01" purity="3.9610350131988525e-01" nType="-99"/>
          </Node>
          <Node pos="r" depth="2" NCoef="0" IVar="0" Cut="5.5254714965820312e+01" cType="1" res="-3.2530810683965683e-02" rms="4.4978424906730652e-01" purity="4.7512084245681763e-01" nType="0">
            <Node pos="l" depth="3" NCoef="0" IVar="2" Cut="2.1000227928161621e+00" cType="1" res="-5.7270422577857971e-02" rms="4.6067017316818237e-01" purity="3.6834067106246948e-01" nType="0">
              <Node pos="l" depth="4" NCoef="0" IVar="2" Cut="1.2990821599960327e+00" cType="1" res="-4.0725346654653549e-02" rms="4.6296796202659607e-01" purity="3.8297504186630249e-01" nType="0">
                <Node pos="l" depth="5" NCoef="0" IVar="-1" Cut="0.0000000000000000e+00" cType="1" res="-1.4607561752200127e-02" rms="4.5770186185836792e-01" purity="3.5993432998657227e-01" nType="-99"/>
                <Node pos="r" depth="5" NCoef="0" IVar="-1" Cut="0.0000000000000000e+00" cType="1" res="9.0857390314340591e-03" rms="4.7053170204162598e-01" purity="4.5689788460731506e-01" nType="-99"/>
              </Node>
              <Node pos="r" depth="4" NCoef="0" IVar="-1" Cut="0.0000000000000000e+00" cType="1" res="-3.4611165523529053e-02" rms="4.3514496088027954e-01" purity="2.8409275412559509e-01" nType="-99"/>
            </Node>
            <Node pos="r" depth="3" NCoef="0" IVar="9" Cut="-3.6859452724456787e+00" cType="1" res="2.2957652807235718e-02" rms="4.1907569766044617e-01" purity="7.1461802721023560e-01" nType="0">
              <Node pos="l" depth="4" NCoef="0" IVar="8" Cut="4.1904449462890625e-02" cType="1" res="8.0479450523853302e-02" rms="4.0059360861778259e-01" purity="7.3871636390686035e-01" nType="0">
                <Node pos="l" depth="5" NCoef="0" IVar="-1" Cut="0.0000000000000000e+00" cType="1" res="2.8695393353700638e-02" rms="3.8041406869888306e-01" purity="7.9353129863739014e-01" nType="-99"/>
                <Node pos="r" depth="5" NCoef="0" IVar="-1" Cut="0.0000000000000000e+00" cType="1" res="7.8710680827498436e-03" rms="4.1685307025909424e-01" purity="6.7845028638839722e-01" nType="-99"/>
              </Node>
              <Node pos="r" depth="4" NCoef="0" IVar="-1" Cut="0.0000000000000000e+00" cType="1" res="-1.5599627979099751e-02" rms="4.3092077970504761e-01" purity="6.8109464645385742e-01" nType="-99"/>
            </Node>
          </Node>
        </Node>
        <Node pos="r" depth="1" NCoef="0" IVar="3" Cut="1.7998819351196289e+00" cType="1" res="4.5055784285068512e-02" rms="3.0372098088264465e-01" purity="8.9311110973358154e-01" nType="0">
          <Node pos="l" depth="2" NCoef="0" IVar="-1" Cut="0.0000000000000000e+00" cType="1" res="-6.6734785214066505e-03" rms="3.3405277132987976e-01" purity="8.5482013225555420e-01" nType="-99"/>
          <Node pos="r" depth="2" NCoef="0" IVar="-1" Cut="0.0000000000000000e+00" cType="1" res="3.8567248731851578e-02" rms="2.5468969345092773e-01" purity="9.3246847391128540e-01" nType="-99"/>
        </Node>
      </Node>
    </BinaryTree>
    <BinaryTree type="DecisionTree" boostWeight="1.0000000000000000e+00" itree="20">
      <Node pos="s" depth="0" NCoef="0" IVar="5" Cut="2.0000000000000000e+00" cType="1" res="1.3580747181549668e-03" rms="4.2189717292785645e-01" purity="4.9804615974426270e-01" nType="0">
        <Node pos="l" depth="1" NCoef="0" IVar="1" Cut="-3.0114395618438721e+00" cType="1" res="-1.1878104880452156e-02" rms="4.3466919660568237e-01" purity="4.6559503674507141e-01" nType="0">
          <Node pos="l" depth="2" NCoef="0" IVar="-1" Cut="0.0000000000000000e+00" cType="1" res="-2.1147923544049263e-02" rms="4.1090440750122070e-01" purity="2.0936423540115356e-01" nType="-99"/>
          <Node pos="r" depth="2" NCoef="0" IVar="2" Cut="1.0544646978378296e+00" cType="1" res="-2.4334571207873523e-04" rms="4.3733593821525574e-01" purity="5.0752121210098267e-01" nType="0">
            <Node pos="l" depth="3" NCoef="0" IVar="1" Cut="2.3670303821563721e+00" cType="1" res="2.8389170765876770e-02" rms="4.3426111340522766e-01" purity="5.4961675405502319e-01" nType="0">
